digraph Tree {
node [shape=box, style="filled, rounded", color="black", fontname=helvetica] ;
edge [fontname=helvetica] ;
0 [label="age <= -1.03\ngini = 0.39\nsamples = 29439\nvalue = [12315, 34235]", fillcolor="#80c0ee"] ;
1 [label="social <= 0.5\ngini = 0.43\nsamples = 5118\nvalue = [2574, 5519]", fillcolor="#95cbf1"] ;
0 -> 1 [labeldistance=2.5, labelangle=45, headlabel="True"] ;
2 [label="mobile <= 0.5\ngini = 0.42\nsamples = 2055\nvalue = [2286, 983]", fillcolor="#f0b78e"] ;
1 -> 2 ;
3 [label="gender_O <= 0.5\ngini = 0.29\nsamples = 535\nvalue = [702, 151]", fillcolor="#eb9c64"] ;
2 -> 3 ;
4 [label="age <= -1.26\ngini = 0.29\nsamples = 528\nvalue = [696, 149]", fillcolor="#eb9c63"] ;
3 -> 4 ;
5 [label="memb_leng <= -0.49\ngini = 0.31\nsamples = 395\nvalue = [502, 117]", fillcolor="#eb9e67"] ;
4 -> 5 ;
6 [label="gender_F <= 0.5\ngini = 0.39\nsamples = 198\nvalue = [218, 77]", fillcolor="#eeae7f"] ;
5 -> 6 ;
7 [label="income <= -0.64\ngini = 0.4\nsamples = 147\nvalue = [158, 60]", fillcolor="#efb184"] ;
6 -> 7 ;
8 [label="time <= 0.79\ngini = 0.48\nsamples = 68\nvalue = [63, 41]", fillcolor="#f6d3ba"] ;
7 -> 8 ;
9 [label="memb_leng <= -1.2\ngini = 0.5\nsamples = 50\nvalue = [43, 36]", fillcolor="#fbeadf"] ;
8 -> 9 ;
10 [label="income <= -1.01\ngini = 0.32\nsamples = 2\nvalue = [1, 4]", fillcolor="#6ab6ec"] ;
9 -> 10 ;
11 [label="gini = 0.0\nsamples = 1\nvalue = [0, 4]", fillcolor="#399de5"] ;
10 -> 11 ;
12 [label="gini = 0.0\nsamples = 1\nvalue = [1, 0]", fillcolor="#e58139"] ;
10 -> 12 ;
13 [label="age <= -1.43\ngini = 0.49\nsamples = 48\nvalue = [42, 32]", fillcolor="#f9e1d0"] ;
9 -> 13 ;
14 [label="income <= -1.57\ngini = 0.47\nsamples = 43\nvalue = [41, 25]", fillcolor="#f5ceb2"] ;
13 -> 14 ;
15 [label="gini = 0.0\nsamples = 4\nvalue = [6, 0]", fillcolor="#e58139"] ;
14 -> 15 ;
16 [label="age <= -2.0\ngini = 0.49\nsamples = 39\nvalue = [35, 25]", fillcolor="#f8dbc6"] ;
14 -> 16 ;
17 [label="gini = 0.0\nsamples = 4\nvalue = [6, 0]", fillcolor="#e58139"] ;
16 -> 17 ;
18 [label="age <= -1.6\ngini = 0.5\nsamples = 35\nvalue = [29, 25]", fillcolor="#fbeee4"] ;
16 -> 18 ;
19 [label="income <= -1.15\ngini = 0.48\nsamples = 21\nvalue = [13, 19]", fillcolor="#c0e0f7"] ;
18 -> 19 ;
20 [label="time <= 0.15\ngini = 0.47\nsamples = 11\nvalue = [10, 6]", fillcolor="#f5cdb0"] ;
19 -> 20 ;
21 [label="memb_leng <= -1.02\ngini = 0.41\nsamples = 4\nvalue = [2, 5]", fillcolor="#88c4ef"] ;
20 -> 21 ;
22 [label="gini = 0.0\nsamples = 1\nvalue = [1, 0]", fillcolor="#e58139"] ;
21 -> 22 ;
23 [label="age <= -1.77\ngini = 0.28\nsamples = 3\nvalue = [1, 5]", fillcolor="#61b1ea"] ;
21 -> 23 ;
24 [label="gini = 0.0\nsamples = 2\nvalue = [0, 5]", fillcolor="#399de5"] ;
23 -> 24 ;
25 [label="gini = 0.0\nsamples = 1\nvalue = [1, 0]", fillcolor="#e58139"] ;
23 -> 25 ;
26 [label="income <= -1.43\ngini = 0.2\nsamples = 7\nvalue = [8, 1]", fillcolor="#e89152"] ;
20 -> 26 ;
27 [label="memb_leng <= -0.85\ngini = 0.5\nsamples = 2\nvalue = [1, 1]", fillcolor="#ffffff"] ;
26 -> 27 ;
28 [label="gini = 0.0\nsamples = 1\nvalue = [1, 0]", fillcolor="#e58139"] ;
27 -> 28 ;
29 [label="gini = 0.0\nsamples = 1\nvalue = [0, 1]", fillcolor="#399de5"] ;
27 -> 29 ;
30 [label="gini = 0.0\nsamples = 5\nvalue = [7, 0]", fillcolor="#e58139"] ;
26 -> 30 ;
31 [label="time <= 0.65\ngini = 0.3\nsamples = 10\nvalue = [3, 13]", fillcolor="#67b4eb"] ;
19 -> 31 ;
32 [label="memb_leng <= -0.56\ngini = 0.4\nsamples = 8\nvalue = [3, 8]", fillcolor="#83c2ef"] ;
31 -> 32 ;
33 [label="memb_leng <= -1.05\ngini = 0.32\nsamples = 7\nvalue = [2, 8]", fillcolor="#6ab6ec"] ;
32 -> 33 ;
34 [label="gini = 0.0\nsamples = 3\nvalue = [0, 4]", fillcolor="#399de5"] ;
33 -> 34 ;
35 [label="memb_leng <= -0.8\ngini = 0.44\nsamples = 4\nvalue = [2, 4]", fillcolor="#9ccef2"] ;
33 -> 35 ;
36 [label="gini = 0.0\nsamples = 2\nvalue = [2, 0]", fillcolor="#e58139"] ;
35 -> 36 ;
37 [label="gini = 0.0\nsamples = 2\nvalue = [0, 4]", fillcolor="#399de5"] ;
35 -> 37 ;
38 [label="gini = 0.0\nsamples = 1\nvalue = [1, 0]", fillcolor="#e58139"] ;
32 -> 38 ;
39 [label="gini = 0.0\nsamples = 2\nvalue = [0, 5]", fillcolor="#399de5"] ;
31 -> 39 ;
40 [label="income <= -1.15\ngini = 0.4\nsamples = 14\nvalue = [16, 6]", fillcolor="#efb083"] ;
18 -> 40 ;
41 [label="income <= -1.34\ngini = 0.48\nsamples = 8\nvalue = [9, 6]", fillcolor="#f6d5bd"] ;
40 -> 41 ;
42 [label="gini = 0.0\nsamples = 2\nvalue = [3, 0]", fillcolor="#e58139"] ;
41 -> 42 ;
43 [label="memb_leng <= -0.98\ngini = 0.5\nsamples = 6\nvalue = [6, 6]", fillcolor="#ffffff"] ;
41 -> 43 ;
44 [label="gini = 0.0\nsamples = 1\nvalue = [3, 0]", fillcolor="#e58139"] ;
43 -> 44 ;
45 [label="age <= -1.54\ngini = 0.44\nsamples = 5\nvalue = [3, 6]", fillcolor="#9ccef2"] ;
43 -> 45 ;
46 [label="memb_leng <= -0.75\ngini = 0.48\nsamples = 2\nvalue = [3, 2]", fillcolor="#f6d5bd"] ;
45 -> 46 ;
47 [label="gini = 0.0\nsamples = 1\nvalue = [0, 2]", fillcolor="#399de5"] ;
46 -> 47 ;
48 [label="gini = 0.0\nsamples = 1\nvalue = [3, 0]", fillcolor="#e58139"] ;
46 -> 48 ;
49 [label="gini = 0.0\nsamples = 3\nvalue = [0, 4]", fillcolor="#399de5"] ;
45 -> 49 ;
50 [label="gini = 0.0\nsamples = 6\nvalue = [7, 0]", fillcolor="#e58139"] ;
40 -> 50 ;
51 [label="memb_leng <= -0.59\ngini = 0.22\nsamples = 5\nvalue = [1, 7]", fillcolor="#55abe9"] ;
13 -> 51 ;
52 [label="gini = 0.0\nsamples = 4\nvalue = [0, 7]", fillcolor="#399de5"] ;
51 -> 52 ;
53 [label="gini = 0.0\nsamples = 1\nvalue = [1, 0]", fillcolor="#e58139"] ;
51 -> 53 ;
54 [label="income <= -1.47\ngini = 0.32\nsamples = 18\nvalue = [20, 5]", fillcolor="#eca06a"] ;
8 -> 54 ;
55 [label="income <= -1.52\ngini = 0.44\nsamples = 2\nvalue = [1, 2]", fillcolor="#9ccef2"] ;
54 -> 55 ;
56 [label="gini = 0.0\nsamples = 1\nvalue = [1, 0]", fillcolor="#e58139"] ;
55 -> 56 ;
57 [label="gini = 0.0\nsamples = 1\nvalue = [0, 2]", fillcolor="#399de5"] ;
55 -> 57 ;
58 [label="age <= -1.46\ngini = 0.24\nsamples = 16\nvalue = [19, 3]", fillcolor="#e99558"] ;
54 -> 58 ;
59 [label="memb_leng <= -0.88\ngini = 0.09\nsamples = 15\nvalue = [19, 1]", fillcolor="#e68843"] ;
58 -> 59 ;
60 [label="memb_leng <= -1.01\ngini = 0.38\nsamples = 4\nvalue = [3, 1]", fillcolor="#eeab7b"] ;
59 -> 60 ;
61 [label="gini = 0.0\nsamples = 3\nvalue = [3, 0]", fillcolor="#e58139"] ;
60 -> 61 ;
62 [label="gini = 0.0\nsamples = 1\nvalue = [0, 1]", fillcolor="#399de5"] ;
60 -> 62 ;
63 [label="gini = 0.0\nsamples = 11\nvalue = [16, 0]", fillcolor="#e58139"] ;
59 -> 63 ;
64 [label="gini = 0.0\nsamples = 1\nvalue = [0, 2]", fillcolor="#399de5"] ;
58 -> 64 ;
65 [label="time <= 0.94\ngini = 0.28\nsamples = 79\nvalue = [95, 19]", fillcolor="#ea9a61"] ;
7 -> 65 ;
66 [label="memb_leng <= -0.68\ngini = 0.22\nsamples = 68\nvalue = [84, 12]", fillcolor="#e99355"] ;
65 -> 66 ;
67 [label="time <= 0.65\ngini = 0.13\nsamples = 47\nvalue = [64, 5]", fillcolor="#e78b48"] ;
66 -> 67 ;
68 [label="time <= 0.15\ngini = 0.17\nsamples = 21\nvalue = [29, 3]", fillcolor="#e88e4d"] ;
67 -> 68 ;
69 [label="memb_leng <= -1.21\ngini = 0.2\nsamples = 8\nvalue = [8, 1]", fillcolor="#e89152"] ;
68 -> 69 ;
70 [label="gini = 0.0\nsamples = 1\nvalue = [0, 1]", fillcolor="#399de5"] ;
69 -> 70 ;
71 [label="gini = 0.0\nsamples = 7\nvalue = [8, 0]", fillcolor="#e58139"] ;
69 -> 71 ;
72 [label="time <= 0.44\ngini = 0.16\nsamples = 13\nvalue = [21, 2]", fillcolor="#e78d4c"] ;
68 -> 72 ;
73 [label="gini = 0.0\nsamples = 3\nvalue = [3, 0]", fillcolor="#e58139"] ;
72 -> 73 ;
74 [label="age <= -1.52\ngini = 0.18\nsamples = 10\nvalue = [18, 2]", fillcolor="#e88f4f"] ;
72 -> 74 ;
75 [label="income <= 0.33\ngini = 0.12\nsamples = 7\nvalue = [15, 1]", fillcolor="#e78946"] ;
74 -> 75 ;
76 [label="gini = 0.0\nsamples = 5\nvalue = [14, 0]", fillcolor="#e58139"] ;
75 -> 76 ;
77 [label="income <= 0.38\ngini = 0.5\nsamples = 2\nvalue = [1, 1]", fillcolor="#ffffff"] ;
75 -> 77 ;
78 [label="gini = 0.0\nsamples = 1\nvalue = [0, 1]", fillcolor="#399de5"] ;
77 -> 78 ;
79 [label="gini = 0.0\nsamples = 1\nvalue = [1, 0]", fillcolor="#e58139"] ;
77 -> 79 ;
80 [label="income <= 0.01\ngini = 0.38\nsamples = 3\nvalue = [3, 1]", fillcolor="#eeab7b"] ;
74 -> 80 ;
81 [label="gini = 0.0\nsamples = 2\nvalue = [3, 0]", fillcolor="#e58139"] ;
80 -> 81 ;
82 [label="gini = 0.0\nsamples = 1\nvalue = [0, 1]", fillcolor="#399de5"] ;
80 -> 82 ;
83 [label="age <= -1.31\ngini = 0.1\nsamples = 26\nvalue = [35, 2]", fillcolor="#e68844"] ;
67 -> 83 ;
84 [label="memb_leng <= -1.17\ngini = 0.06\nsamples = 24\nvalue = [34, 1]", fillcolor="#e6853f"] ;
83 -> 84 ;
85 [label="income <= 0.26\ngini = 0.32\nsamples = 4\nvalue = [4, 1]", fillcolor="#eca06a"] ;
84 -> 85 ;
86 [label="gini = 0.0\nsamples = 3\nvalue = [4, 0]", fillcolor="#e58139"] ;
85 -> 86 ;
87 [label="gini = 0.0\nsamples = 1\nvalue = [0, 1]", fillcolor="#399de5"] ;
85 -> 87 ;
88 [label="gini = 0.0\nsamples = 20\nvalue = [30, 0]", fillcolor="#e58139"] ;
84 -> 88 ;
89 [label="time <= 0.79\ngini = 0.5\nsamples = 2\nvalue = [1, 1]", fillcolor="#ffffff"] ;
83 -> 89 ;
90 [label="gini = 0.0\nsamples = 1\nvalue = [1, 0]", fillcolor="#e58139"] ;
89 -> 90 ;
91 [label="gini = 0.0\nsamples = 1\nvalue = [0, 1]", fillcolor="#399de5"] ;
89 -> 91 ;
92 [label="memb_leng <= -0.65\ngini = 0.38\nsamples = 21\nvalue = [20, 7]", fillcolor="#eead7e"] ;
66 -> 92 ;
93 [label="age <= -1.66\ngini = 0.41\nsamples = 5\nvalue = [2, 5]", fillcolor="#88c4ef"] ;
92 -> 93 ;
94 [label="time <= 0.35\ngini = 0.44\nsamples = 3\nvalue = [2, 1]", fillcolor="#f2c09c"] ;
93 -> 94 ;
95 [label="memb_leng <= -0.67\ngini = 0.5\nsamples = 2\nvalue = [1, 1]", fillcolor="#ffffff"] ;
94 -> 95 ;
96 [label="gini = 0.0\nsamples = 1\nvalue = [0, 1]", fillcolor="#399de5"] ;
95 -> 96 ;
97 [label="gini = 0.0\nsamples = 1\nvalue = [1, 0]", fillcolor="#e58139"] ;
95 -> 97 ;
98 [label="gini = 0.0\nsamples = 1\nvalue = [1, 0]", fillcolor="#e58139"] ;
94 -> 98 ;
99 [label="gini = 0.0\nsamples = 2\nvalue = [0, 4]", fillcolor="#399de5"] ;
93 -> 99 ;
100 [label="age <= -2.0\ngini = 0.18\nsamples = 16\nvalue = [18, 2]", fillcolor="#e88f4f"] ;
92 -> 100 ;
101 [label="gini = 0.0\nsamples = 1\nvalue = [0, 1]", fillcolor="#399de5"] ;
100 -> 101 ;
102 [label="time <= 0.15\ngini = 0.1\nsamples = 15\nvalue = [18, 1]", fillcolor="#e68844"] ;
100 -> 102 ;
103 [label="gini = 0.0\nsamples = 1\nvalue = [0, 1]", fillcolor="#399de5"] ;
102 -> 103 ;
104 [label="gini = 0.0\nsamples = 14\nvalue = [18, 0]", fillcolor="#e58139"] ;
102 -> 104 ;
105 [label="age <= -1.37\ngini = 0.48\nsamples = 11\nvalue = [11, 7]", fillcolor="#f6d1b7"] ;
65 -> 105 ;
106 [label="income <= 0.28\ngini = 0.5\nsamples = 9\nvalue = [6, 7]", fillcolor="#e3f1fb"] ;
105 -> 106 ;
107 [label="memb_leng <= -0.84\ngini = 0.46\nsamples = 7\nvalue = [4, 7]", fillcolor="#aad5f4"] ;
106 -> 107 ;
108 [label="gini = 0.0\nsamples = 3\nvalue = [4, 0]", fillcolor="#e58139"] ;
107 -> 108 ;
109 [label="gini = 0.0\nsamples = 4\nvalue = [0, 7]", fillcolor="#399de5"] ;
107 -> 109 ;
110 [label="gini = 0.0\nsamples = 2\nvalue = [2, 0]", fillcolor="#e58139"] ;
106 -> 110 ;
111 [label="gini = 0.0\nsamples = 2\nvalue = [5, 0]", fillcolor="#e58139"] ;
105 -> 111 ;
112 [label="age <= -2.0\ngini = 0.34\nsamples = 51\nvalue = [60, 17]", fillcolor="#eca571"] ;
6 -> 112 ;
113 [label="memb_leng <= -0.69\ngini = 0.5\nsamples = 5\nvalue = [4, 4]", fillcolor="#ffffff"] ;
112 -> 113 ;
114 [label="income <= -0.34\ngini = 0.32\nsamples = 3\nvalue = [4, 1]", fillcolor="#eca06a"] ;
113 -> 114 ;
115 [label="gini = 0.0\nsamples = 2\nvalue = [4, 0]", fillcolor="#e58139"] ;
114 -> 115 ;
116 [label="gini = 0.0\nsamples = 1\nvalue = [0, 1]", fillcolor="#399de5"] ;
114 -> 116 ;
117 [label="gini = 0.0\nsamples = 2\nvalue = [0, 3]", fillcolor="#399de5"] ;
113 -> 117 ;
118 [label="memb_leng <= -0.58\ngini = 0.31\nsamples = 46\nvalue = [56, 13]", fillcolor="#eb9e67"] ;
112 -> 118 ;
119 [label="time <= 0.94\ngini = 0.28\nsamples = 43\nvalue = [55, 11]", fillcolor="#ea9a61"] ;
118 -> 119 ;
120 [label="time <= 0.79\ngini = 0.21\nsamples = 30\nvalue = [38, 5]", fillcolor="#e89253"] ;
119 -> 120 ;
121 [label="age <= -1.83\ngini = 0.22\nsamples = 26\nvalue = [34, 5]", fillcolor="#e99456"] ;
120 -> 121 ;
122 [label="memb_leng <= -1.11\ngini = 0.44\nsamples = 3\nvalue = [2, 1]", fillcolor="#f2c09c"] ;
121 -> 122 ;
123 [label="gini = 0.0\nsamples = 1\nvalue = [0, 1]", fillcolor="#399de5"] ;
122 -> 123 ;
124 [label="gini = 0.0\nsamples = 2\nvalue = [2, 0]", fillcolor="#e58139"] ;
122 -> 124 ;
125 [label="memb_leng <= -0.85\ngini = 0.2\nsamples = 23\nvalue = [32, 4]", fillcolor="#e89152"] ;
121 -> 125 ;
126 [label="memb_leng <= -0.92\ngini = 0.32\nsamples = 10\nvalue = [12, 3]", fillcolor="#eca06a"] ;
125 -> 126 ;
127 [label="time <= 0.65\ngini = 0.14\nsamples = 8\nvalue = [12, 1]", fillcolor="#e78c49"] ;
126 -> 127 ;
128 [label="gini = 0.0\nsamples = 6\nvalue = [11, 0]", fillcolor="#e58139"] ;
127 -> 128 ;
129 [label="age <= -1.72\ngini = 0.5\nsamples = 2\nvalue = [1, 1]", fillcolor="#ffffff"] ;
127 -> 129 ;
130 [label="gini = 0.0\nsamples = 1\nvalue = [0, 1]", fillcolor="#399de5"] ;
129 -> 130 ;
131 [label="gini = 0.0\nsamples = 1\nvalue = [1, 0]", fillcolor="#e58139"] ;
129 -> 131 ;
132 [label="gini = 0.0\nsamples = 2\nvalue = [0, 2]", fillcolor="#399de5"] ;
126 -> 132 ;
133 [label="memb_leng <= -0.69\ngini = 0.09\nsamples = 13\nvalue = [20, 1]", fillcolor="#e68743"] ;
125 -> 133 ;
134 [label="gini = 0.0\nsamples = 10\nvalue = [16, 0]", fillcolor="#e58139"] ;
133 -> 134 ;
135 [label="income <= -0.16\ngini = 0.32\nsamples = 3\nvalue = [4, 1]", fillcolor="#eca06a"] ;
133 -> 135 ;
136 [label="gini = 0.0\nsamples = 1\nvalue = [0, 1]", fillcolor="#399de5"] ;
135 -> 136 ;
137 [label="gini = 0.0\nsamples = 2\nvalue = [4, 0]", fillcolor="#e58139"] ;
135 -> 137 ;
138 [label="gini = 0.0\nsamples = 4\nvalue = [4, 0]", fillcolor="#e58139"] ;
120 -> 138 ;
139 [label="memb_leng <= -1.21\ngini = 0.39\nsamples = 13\nvalue = [17, 6]", fillcolor="#eead7f"] ;
119 -> 139 ;
140 [label="gini = 0.0\nsamples = 1\nvalue = [0, 1]", fillcolor="#399de5"] ;
139 -> 140 ;
141 [label="age <= -1.83\ngini = 0.35\nsamples = 12\nvalue = [17, 5]", fillcolor="#eda673"] ;
139 -> 141 ;
142 [label="gini = 0.0\nsamples = 5\nvalue = [10, 0]", fillcolor="#e58139"] ;
141 -> 142 ;
143 [label="income <= -0.92\ngini = 0.49\nsamples = 7\nvalue = [7, 5]", fillcolor="#f8dbc6"] ;
141 -> 143 ;
144 [label="gini = 0.0\nsamples = 1\nvalue = [0, 3]", fillcolor="#399de5"] ;
143 -> 144 ;
145 [label="age <= -1.6\ngini = 0.35\nsamples = 6\nvalue = [7, 2]", fillcolor="#eca572"] ;
143 -> 145 ;
146 [label="memb_leng <= -0.84\ngini = 0.44\nsamples = 2\nvalue = [1, 2]", fillcolor="#9ccef2"] ;
145 -> 146 ;
147 [label="gini = 0.0\nsamples = 1\nvalue = [1, 0]", fillcolor="#e58139"] ;
146 -> 147 ;
148 [label="gini = 0.0\nsamples = 1\nvalue = [0, 2]", fillcolor="#399de5"] ;
146 -> 148 ;
149 [label="gini = 0.0\nsamples = 4\nvalue = [6, 0]", fillcolor="#e58139"] ;
145 -> 149 ;
150 [label="time <= 0.85\ngini = 0.44\nsamples = 3\nvalue = [1, 2]", fillcolor="#9ccef2"] ;
118 -> 150 ;
151 [label="gini = 0.0\nsamples = 1\nvalue = [0, 1]", fillcolor="#399de5"] ;
150 -> 151 ;
152 [label="memb_leng <= -0.56\ngini = 0.5\nsamples = 2\nvalue = [1, 1]", fillcolor="#ffffff"] ;
150 -> 152 ;
153 [label="gini = 0.0\nsamples = 1\nvalue = [0, 1]", fillcolor="#399de5"] ;
152 -> 153 ;
154 [label="gini = 0.0\nsamples = 1\nvalue = [1, 0]", fillcolor="#e58139"] ;
152 -> 154 ;
155 [label="gender_F <= 0.5\ngini = 0.22\nsamples = 197\nvalue = [284, 40]", fillcolor="#e99355"] ;
5 -> 155 ;
156 [label="age <= -2.06\ngini = 0.16\nsamples = 135\nvalue = [201, 19]", fillcolor="#e78d4c"] ;
155 -> 156 ;
157 [label="time <= 0.15\ngini = 0.35\nsamples = 7\nvalue = [7, 2]", fillcolor="#eca572"] ;
156 -> 157 ;
158 [label="gini = 0.0\nsamples = 2\nvalue = [0, 2]", fillcolor="#399de5"] ;
157 -> 158 ;
159 [label="gini = 0.0\nsamples = 5\nvalue = [7, 0]", fillcolor="#e58139"] ;
157 -> 159 ;
160 [label="age <= -1.43\ngini = 0.15\nsamples = 128\nvalue = [194, 17]", fillcolor="#e78c4a"] ;
156 -> 160 ;
161 [label="memb_leng <= 2.01\ngini = 0.16\nsamples = 108\nvalue = [162, 16]", fillcolor="#e88d4d"] ;
160 -> 161 ;
162 [label="income <= -0.18\ngini = 0.13\nsamples = 88\nvalue = [137, 10]", fillcolor="#e78a47"] ;
161 -> 162 ;
163 [label="time <= 0.65\ngini = 0.07\nsamples = 66\nvalue = [105, 4]", fillcolor="#e68641"] ;
162 -> 163 ;
164 [label="gini = 0.0\nsamples = 29\nvalue = [45, 0]", fillcolor="#e58139"] ;
163 -> 164 ;
165 [label="income <= -0.78\ngini = 0.12\nsamples = 37\nvalue = [60, 4]", fillcolor="#e78946"] ;
163 -> 165 ;
166 [label="memb_leng <= -0.44\ngini = 0.18\nsamples = 24\nvalue = [36, 4]", fillcolor="#e88f4f"] ;
165 -> 166 ;
167 [label="gini = 0.0\nsamples = 5\nvalue = [10, 0]", fillcolor="#e58139"] ;
166 -> 167 ;
168 [label="age <= -1.52\ngini = 0.23\nsamples = 19\nvalue = [26, 4]", fillcolor="#e99457"] ;
166 -> 168 ;
169 [label="memb_leng <= -0.4\ngini = 0.13\nsamples = 18\nvalue = [26, 2]", fillcolor="#e78b48"] ;
168 -> 169 ;
170 [label="gini = 0.0\nsamples = 1\nvalue = [0, 1]", fillcolor="#399de5"] ;
169 -> 170 ;
171 [label="memb_leng <= 0.86\ngini = 0.07\nsamples = 17\nvalue = [26, 1]", fillcolor="#e68641"] ;
169 -> 171 ;
172 [label="gini = 0.0\nsamples = 10\nvalue = [17, 0]", fillcolor="#e58139"] ;
171 -> 172 ;
173 [label="memb_leng <= 0.89\ngini = 0.18\nsamples = 7\nvalue = [9, 1]", fillcolor="#e88f4f"] ;
171 -> 173 ;
174 [label="gini = 0.0\nsamples = 1\nvalue = [0, 1]", fillcolor="#399de5"] ;
173 -> 174 ;
175 [label="gini = 0.0\nsamples = 6\nvalue = [9, 0]", fillcolor="#e58139"] ;
173 -> 175 ;
176 [label="gini = 0.0\nsamples = 1\nvalue = [0, 2]", fillcolor="#399de5"] ;
168 -> 176 ;
177 [label="gini = 0.0\nsamples = 13\nvalue = [24, 0]", fillcolor="#e58139"] ;
165 -> 177 ;
178 [label="memb_leng <= 0.01\ngini = 0.27\nsamples = 22\nvalue = [32, 6]", fillcolor="#ea995e"] ;
162 -> 178 ;
179 [label="gini = 0.0\nsamples = 6\nvalue = [16, 0]", fillcolor="#e58139"] ;
178 -> 179 ;
180 [label="age <= -2.0\ngini = 0.4\nsamples = 16\nvalue = [16, 6]", fillcolor="#efb083"] ;
178 -> 180 ;
181 [label="gini = 0.0\nsamples = 1\nvalue = [0, 1]", fillcolor="#399de5"] ;
180 -> 181 ;
182 [label="memb_leng <= 0.3\ngini = 0.36\nsamples = 15\nvalue = [16, 5]", fillcolor="#eda877"] ;
180 -> 182 ;
183 [label="gini = 0.0\nsamples = 2\nvalue = [0, 2]", fillcolor="#399de5"] ;
182 -> 183 ;
184 [label="time <= 0.73\ngini = 0.27\nsamples = 13\nvalue = [16, 3]", fillcolor="#ea995e"] ;
182 -> 184 ;
185 [label="gini = 0.0\nsamples = 7\nvalue = [11, 0]", fillcolor="#e58139"] ;
184 -> 185 ;
186 [label="income <= -0.09\ngini = 0.47\nsamples = 6\nvalue = [5, 3]", fillcolor="#f5cdb0"] ;
184 -> 186 ;
187 [label="gini = 0.0\nsamples = 1\nvalue = [0, 2]", fillcolor="#399de5"] ;
186 -> 187 ;
188 [label="memb_leng <= 0.92\ngini = 0.28\nsamples = 5\nvalue = [5, 1]", fillcolor="#ea9a61"] ;
186 -> 188 ;
189 [label="memb_leng <= 0.57\ngini = 0.5\nsamples = 2\nvalue = [1, 1]", fillcolor="#ffffff"] ;
188 -> 189 ;
190 [label="gini = 0.0\nsamples = 1\nvalue = [1, 0]", fillcolor="#e58139"] ;
189 -> 190 ;
191 [label="gini = 0.0\nsamples = 1\nvalue = [0, 1]", fillcolor="#399de5"] ;
189 -> 191 ;
192 [label="gini = 0.0\nsamples = 3\nvalue = [4, 0]", fillcolor="#e58139"] ;
188 -> 192 ;
193 [label="age <= -1.54\ngini = 0.31\nsamples = 20\nvalue = [25, 6]", fillcolor="#eb9f69"] ;
161 -> 193 ;
194 [label="income <= -0.43\ngini = 0.38\nsamples = 16\nvalue = [18, 6]", fillcolor="#eeab7b"] ;
193 -> 194 ;
195 [label="time <= 0.44\ngini = 0.49\nsamples = 8\nvalue = [8, 6]", fillcolor="#f8e0ce"] ;
194 -> 195 ;
196 [label="gini = 0.0\nsamples = 2\nvalue = [0, 4]", fillcolor="#399de5"] ;
195 -> 196 ;
197 [label="time <= 0.85\ngini = 0.32\nsamples = 6\nvalue = [8, 2]", fillcolor="#eca06a"] ;
195 -> 197 ;
198 [label="memb_leng <= 2.62\ngini = 0.44\nsamples = 4\nvalue = [4, 2]", fillcolor="#f2c09c"] ;
197 -> 198 ;
199 [label="gini = 0.0\nsamples = 2\nvalue = [0, 2]", fillcolor="#399de5"] ;
198 -> 199 ;
200 [label="gini = 0.0\nsamples = 2\nvalue = [4, 0]", fillcolor="#e58139"] ;
198 -> 200 ;
201 [label="gini = 0.0\nsamples = 2\nvalue = [4, 0]", fillcolor="#e58139"] ;
197 -> 201 ;
202 [label="gini = 0.0\nsamples = 8\nvalue = [10, 0]", fillcolor="#e58139"] ;
194 -> 202 ;
203 [label="gini = 0.0\nsamples = 4\nvalue = [7, 0]", fillcolor="#e58139"] ;
193 -> 203 ;
204 [label="time <= 0.65\ngini = 0.06\nsamples = 20\nvalue = [32, 1]", fillcolor="#e6853f"] ;
160 -> 204 ;
205 [label="gini = 0.0\nsamples = 14\nvalue = [23, 0]", fillcolor="#e58139"] ;
204 -> 205 ;
206 [label="memb_leng <= -0.4\ngini = 0.18\nsamples = 6\nvalue = [9, 1]", fillcolor="#e88f4f"] ;
204 -> 206 ;
207 [label="gini = 0.0\nsamples = 1\nvalue = [0, 1]", fillcolor="#399de5"] ;
206 -> 207 ;
208 [label="gini = 0.0\nsamples = 5\nvalue = [9, 0]", fillcolor="#e58139"] ;
206 -> 208 ;
209 [label="memb_leng <= -0.43\ngini = 0.32\nsamples = 62\nvalue = [83, 21]", fillcolor="#eca16b"] ;
155 -> 209 ;
210 [label="income <= -0.09\ngini = 0.5\nsamples = 3\nvalue = [3, 3]", fillcolor="#ffffff"] ;
209 -> 210 ;
211 [label="time <= 0.5\ngini = 0.38\nsamples = 2\nvalue = [3, 1]", fillcolor="#eeab7b"] ;
210 -> 211 ;
212 [label="gini = 0.0\nsamples = 1\nvalue = [0, 1]", fillcolor="#399de5"] ;
211 -> 212 ;
213 [label="gini = 0.0\nsamples = 1\nvalue = [3, 0]", fillcolor="#e58139"] ;
211 -> 213 ;
214 [label="gini = 0.0\nsamples = 1\nvalue = [0, 2]", fillcolor="#399de5"] ;
210 -> 214 ;
215 [label="age <= -1.83\ngini = 0.3\nsamples = 59\nvalue = [80, 18]", fillcolor="#eb9d66"] ;
209 -> 215 ;
216 [label="age <= -1.89\ngini = 0.06\nsamples = 17\nvalue = [32, 1]", fillcolor="#e6853f"] ;
215 -> 216 ;
217 [label="gini = 0.0\nsamples = 10\nvalue = [21, 0]", fillcolor="#e58139"] ;
216 -> 217 ;
218 [label="time <= 0.5\ngini = 0.15\nsamples = 7\nvalue = [11, 1]", fillcolor="#e78c4b"] ;
216 -> 218 ;
219 [label="gini = 0.0\nsamples = 1\nvalue = [0, 1]", fillcolor="#399de5"] ;
218 -> 219 ;
220 [label="gini = 0.0\nsamples = 6\nvalue = [11, 0]", fillcolor="#e58139"] ;
218 -> 220 ;
221 [label="age <= -1.72\ngini = 0.39\nsamples = 42\nvalue = [48, 17]", fillcolor="#eeae7f"] ;
215 -> 221 ;
222 [label="time <= 0.79\ngini = 0.5\nsamples = 12\nvalue = [9, 9]", fillcolor="#ffffff"] ;
221 -> 222 ;
223 [label="income <= 0.01\ngini = 0.48\nsamples = 9\nvalue = [6, 9]", fillcolor="#bddef6"] ;
222 -> 223 ;
224 [label="memb_leng <= 1.33\ngini = 0.44\nsamples = 7\nvalue = [6, 3]", fillcolor="#f2c09c"] ;
223 -> 224 ;
225 [label="memb_leng <= 0.04\ngini = 0.48\nsamples = 4\nvalue = [2, 3]", fillcolor="#bddef6"] ;
224 -> 225 ;
226 [label="gini = 0.0\nsamples = 1\nvalue = [2, 0]", fillcolor="#e58139"] ;
225 -> 226 ;
227 [label="gini = 0.0\nsamples = 3\nvalue = [0, 3]", fillcolor="#399de5"] ;
225 -> 227 ;
228 [label="gini = 0.0\nsamples = 3\nvalue = [4, 0]", fillcolor="#e58139"] ;
224 -> 228 ;
229 [label="gini = 0.0\nsamples = 2\nvalue = [0, 6]", fillcolor="#399de5"] ;
223 -> 229 ;
230 [label="gini = 0.0\nsamples = 3\nvalue = [3, 0]", fillcolor="#e58139"] ;
222 -> 230 ;
231 [label="age <= -1.43\ngini = 0.28\nsamples = 30\nvalue = [39, 8]", fillcolor="#ea9b62"] ;
221 -> 231 ;
232 [label="age <= -1.54\ngini = 0.07\nsamples = 17\nvalue = [27, 1]", fillcolor="#e68640"] ;
231 -> 232 ;
233 [label="gini = 0.0\nsamples = 10\nvalue = [17, 0]", fillcolor="#e58139"] ;
232 -> 233 ;
234 [label="age <= -1.49\ngini = 0.17\nsamples = 7\nvalue = [10, 1]", fillcolor="#e88e4d"] ;
232 -> 234 ;
235 [label="memb_leng <= 0.05\ngini = 0.44\nsamples = 3\nvalue = [2, 1]", fillcolor="#f2c09c"] ;
234 -> 235 ;
236 [label="gini = 0.0\nsamples = 2\nvalue = [2, 0]", fillcolor="#e58139"] ;
235 -> 236 ;
237 [label="gini = 0.0\nsamples = 1\nvalue = [0, 1]", fillcolor="#399de5"] ;
235 -> 237 ;
238 [label="gini = 0.0\nsamples = 4\nvalue = [8, 0]", fillcolor="#e58139"] ;
234 -> 238 ;
239 [label="time <= 0.44\ngini = 0.47\nsamples = 13\nvalue = [12, 7]", fillcolor="#f4caac"] ;
231 -> 239 ;
240 [label="income <= -1.06\ngini = 0.47\nsamples = 5\nvalue = [3, 5]", fillcolor="#b0d8f5"] ;
239 -> 240 ;
241 [label="gini = 0.0\nsamples = 2\nvalue = [3, 0]", fillcolor="#e58139"] ;
240 -> 241 ;
242 [label="gini = 0.0\nsamples = 3\nvalue = [0, 5]", fillcolor="#399de5"] ;
240 -> 242 ;
243 [label="time <= 0.79\ngini = 0.3\nsamples = 8\nvalue = [9, 2]", fillcolor="#eb9d65"] ;
239 -> 243 ;
244 [label="gini = 0.0\nsamples = 3\nvalue = [4, 0]", fillcolor="#e58139"] ;
243 -> 244 ;
245 [label="age <= -1.34\ngini = 0.41\nsamples = 5\nvalue = [5, 2]", fillcolor="#efb388"] ;
243 -> 245 ;
246 [label="income <= -1.2\ngini = 0.5\nsamples = 3\nvalue = [2, 2]", fillcolor="#ffffff"] ;
245 -> 246 ;
247 [label="gini = 0.0\nsamples = 1\nvalue = [0, 2]", fillcolor="#399de5"] ;
246 -> 247 ;
248 [label="gini = 0.0\nsamples = 2\nvalue = [2, 0]", fillcolor="#e58139"] ;
246 -> 248 ;
249 [label="gini = 0.0\nsamples = 2\nvalue = [3, 0]", fillcolor="#e58139"] ;
245 -> 249 ;
250 [label="age <= -1.2\ngini = 0.24\nsamples = 133\nvalue = [194, 32]", fillcolor="#e9965a"] ;
4 -> 250 ;
251 [label="memb_leng <= -1.13\ngini = 0.15\nsamples = 35\nvalue = [56, 5]", fillcolor="#e78c4b"] ;
250 -> 251 ;
252 [label="memb_leng <= -1.23\ngini = 0.44\nsamples = 2\nvalue = [1, 2]", fillcolor="#9ccef2"] ;
251 -> 252 ;
253 [label="gini = 0.0\nsamples = 1\nvalue = [1, 0]", fillcolor="#e58139"] ;
252 -> 253 ;
254 [label="gini = 0.0\nsamples = 1\nvalue = [0, 2]", fillcolor="#399de5"] ;
252 -> 254 ;
255 [label="gender_M <= 0.5\ngini = 0.1\nsamples = 33\nvalue = [55, 3]", fillcolor="#e68844"] ;
251 -> 255 ;
256 [label="gini = 0.0\nsamples = 13\nvalue = [23, 0]", fillcolor="#e58139"] ;
255 -> 256 ;
257 [label="memb_leng <= 1.02\ngini = 0.16\nsamples = 20\nvalue = [32, 3]", fillcolor="#e78d4c"] ;
255 -> 257 ;
258 [label="income <= -1.47\ngini = 0.07\nsamples = 16\nvalue = [26, 1]", fillcolor="#e68641"] ;
257 -> 258 ;
259 [label="gini = 0.0\nsamples = 1\nvalue = [0, 1]", fillcolor="#399de5"] ;
258 -> 259 ;
260 [label="gini = 0.0\nsamples = 15\nvalue = [26, 0]", fillcolor="#e58139"] ;
258 -> 260 ;
261 [label="memb_leng <= 1.26\ngini = 0.38\nsamples = 4\nvalue = [6, 2]", fillcolor="#eeab7b"] ;
257 -> 261 ;
262 [label="gini = 0.0\nsamples = 1\nvalue = [0, 2]", fillcolor="#399de5"] ;
261 -> 262 ;
263 [label="gini = 0.0\nsamples = 3\nvalue = [6, 0]", fillcolor="#e58139"] ;
261 -> 263 ;
264 [label="gender_M <= 0.5\ngini = 0.27\nsamples = 98\nvalue = [138, 27]", fillcolor="#ea9a60"] ;
250 -> 264 ;
265 [label="age <= -1.08\ngini = 0.43\nsamples = 29\nvalue = [32, 15]", fillcolor="#f1bc96"] ;
264 -> 265 ;
266 [label="memb_leng <= -0.81\ngini = 0.36\nsamples = 19\nvalue = [23, 7]", fillcolor="#eda775"] ;
265 -> 266 ;
267 [label="time <= 0.65\ngini = 0.49\nsamples = 4\nvalue = [3, 4]", fillcolor="#cee6f8"] ;
266 -> 267 ;
268 [label="gini = 0.0\nsamples = 2\nvalue = [3, 0]", fillcolor="#e58139"] ;
267 -> 268 ;
269 [label="gini = 0.0\nsamples = 2\nvalue = [0, 4]", fillcolor="#399de5"] ;
267 -> 269 ;
270 [label="income <= -0.76\ngini = 0.23\nsamples = 15\nvalue = [20, 3]", fillcolor="#e99457"] ;
266 -> 270 ;
271 [label="age <= -1.14\ngini = 0.4\nsamples = 7\nvalue = [8, 3]", fillcolor="#efb083"] ;
270 -> 271 ;
272 [label="time <= 0.5\ngini = 0.41\nsamples = 4\nvalue = [5, 2]", fillcolor="#efb388"] ;
271 -> 272 ;
273 [label="gini = 0.0\nsamples = 1\nvalue = [0, 1]", fillcolor="#399de5"] ;
272 -> 273 ;
274 [label="income <= -0.97\ngini = 0.28\nsamples = 3\nvalue = [5, 1]", fillcolor="#ea9a61"] ;
272 -> 274 ;
275 [label="gini = 0.0\nsamples = 2\nvalue = [5, 0]", fillcolor="#e58139"] ;
274 -> 275 ;
276 [label="gini = 0.0\nsamples = 1\nvalue = [0, 1]", fillcolor="#399de5"] ;
274 -> 276 ;
277 [label="income <= -1.34\ngini = 0.38\nsamples = 3\nvalue = [3, 1]", fillcolor="#eeab7b"] ;
271 -> 277 ;
278 [label="memb_leng <= 0.32\ngini = 0.5\nsamples = 2\nvalue = [1, 1]", fillcolor="#ffffff"] ;
277 -> 278 ;
279 [label="gini = 0.0\nsamples = 1\nvalue = [1, 0]", fillcolor="#e58139"] ;
278 -> 279 ;
280 [label="gini = 0.0\nsamples = 1\nvalue = [0, 1]", fillcolor="#399de5"] ;
278 -> 280 ;
281 [label="gini = 0.0\nsamples = 1\nvalue = [2, 0]", fillcolor="#e58139"] ;
277 -> 281 ;
282 [label="gini = 0.0\nsamples = 8\nvalue = [12, 0]", fillcolor="#e58139"] ;
270 -> 282 ;
283 [label="income <= -0.6\ngini = 0.5\nsamples = 10\nvalue = [9, 8]", fillcolor="#fcf1e9"] ;
265 -> 283 ;
284 [label="income <= -1.01\ngini = 0.35\nsamples = 4\nvalue = [7, 2]", fillcolor="#eca572"] ;
283 -> 284 ;
285 [label="memb_leng <= -0.49\ngini = 0.5\nsamples = 2\nvalue = [2, 2]", fillcolor="#ffffff"] ;
284 -> 285 ;
286 [label="gini = 0.0\nsamples = 1\nvalue = [0, 2]", fillcolor="#399de5"] ;
285 -> 286 ;
287 [label="gini = 0.0\nsamples = 1\nvalue = [2, 0]", fillcolor="#e58139"] ;
285 -> 287 ;
288 [label="gini = 0.0\nsamples = 2\nvalue = [5, 0]", fillcolor="#e58139"] ;
284 -> 288 ;
289 [label="time <= 0.44\ngini = 0.38\nsamples = 6\nvalue = [2, 6]", fillcolor="#7bbeee"] ;
283 -> 289 ;
290 [label="time <= 0.15\ngini = 0.5\nsamples = 2\nvalue = [1, 1]", fillcolor="#ffffff"] ;
289 -> 290 ;
291 [label="gini = 0.0\nsamples = 1\nvalue = [0, 1]", fillcolor="#399de5"] ;
290 -> 291 ;
292 [label="gini = 0.0\nsamples = 1\nvalue = [1, 0]", fillcolor="#e58139"] ;
290 -> 292 ;
293 [label="income <= -0.2\ngini = 0.28\nsamples = 4\nvalue = [1, 5]", fillcolor="#61b1ea"] ;
289 -> 293 ;
294 [label="income <= -0.46\ngini = 0.44\nsamples = 2\nvalue = [1, 2]", fillcolor="#9ccef2"] ;
293 -> 294 ;
295 [label="gini = 0.0\nsamples = 1\nvalue = [0, 2]", fillcolor="#399de5"] ;
294 -> 295 ;
296 [label="gini = 0.0\nsamples = 1\nvalue = [1, 0]", fillcolor="#e58139"] ;
294 -> 296 ;
297 [label="gini = 0.0\nsamples = 2\nvalue = [0, 3]", fillcolor="#399de5"] ;
293 -> 297 ;
298 [label="income <= 0.75\ngini = 0.18\nsamples = 69\nvalue = [106, 12]", fillcolor="#e88f4f"] ;
264 -> 298 ;
299 [label="income <= -0.76\ngini = 0.17\nsamples = 68\nvalue = [106, 11]", fillcolor="#e88e4e"] ;
298 -> 299 ;
300 [label="time <= 0.94\ngini = 0.28\nsamples = 33\nvalue = [50, 10]", fillcolor="#ea9a61"] ;
299 -> 300 ;
301 [label="income <= -0.97\ngini = 0.18\nsamples = 27\nvalue = [46, 5]", fillcolor="#e88f4f"] ;
300 -> 301 ;
302 [label="memb_leng <= 0.25\ngini = 0.13\nsamples = 23\nvalue = [41, 3]", fillcolor="#e78a47"] ;
301 -> 302 ;
303 [label="gini = 0.0\nsamples = 14\nvalue = [27, 0]", fillcolor="#e58139"] ;
302 -> 303 ;
304 [label="memb_leng <= 0.64\ngini = 0.29\nsamples = 9\nvalue = [14, 3]", fillcolor="#eb9c63"] ;
302 -> 304 ;
305 [label="gini = 0.0\nsamples = 1\nvalue = [0, 3]", fillcolor="#399de5"] ;
304 -> 305 ;
306 [label="gini = 0.0\nsamples = 8\nvalue = [14, 0]", fillcolor="#e58139"] ;
304 -> 306 ;
307 [label="time <= 0.15\ngini = 0.41\nsamples = 4\nvalue = [5, 2]", fillcolor="#efb388"] ;
301 -> 307 ;
308 [label="gini = 0.0\nsamples = 2\nvalue = [0, 2]", fillcolor="#399de5"] ;
307 -> 308 ;
309 [label="gini = 0.0\nsamples = 2\nvalue = [5, 0]", fillcolor="#e58139"] ;
307 -> 309 ;
310 [label="memb_leng <= -0.88\ngini = 0.49\nsamples = 6\nvalue = [4, 5]", fillcolor="#d7ebfa"] ;
300 -> 310 ;
311 [label="gini = 0.0\nsamples = 2\nvalue = [0, 4]", fillcolor="#399de5"] ;
310 -> 311 ;
312 [label="memb_leng <= -0.22\ngini = 0.32\nsamples = 4\nvalue = [4, 1]", fillcolor="#eca06a"] ;
310 -> 312 ;
313 [label="gini = 0.0\nsamples = 2\nvalue = [3, 0]", fillcolor="#e58139"] ;
312 -> 313 ;
314 [label="memb_leng <= 1.27\ngini = 0.5\nsamples = 2\nvalue = [1, 1]", fillcolor="#ffffff"] ;
312 -> 314 ;
315 [label="gini = 0.0\nsamples = 1\nvalue = [0, 1]", fillcolor="#399de5"] ;
314 -> 315 ;
316 [label="gini = 0.0\nsamples = 1\nvalue = [1, 0]", fillcolor="#e58139"] ;
314 -> 316 ;
317 [label="memb_leng <= -0.71\ngini = 0.03\nsamples = 35\nvalue = [56, 1]", fillcolor="#e5833d"] ;
299 -> 317 ;
318 [label="memb_leng <= -0.73\ngini = 0.09\nsamples = 16\nvalue = [21, 1]", fillcolor="#e68742"] ;
317 -> 318 ;
319 [label="gini = 0.0\nsamples = 14\nvalue = [19, 0]", fillcolor="#e58139"] ;
318 -> 319 ;
320 [label="time <= 0.15\ngini = 0.44\nsamples = 2\nvalue = [2, 1]", fillcolor="#f2c09c"] ;
318 -> 320 ;
321 [label="gini = 0.0\nsamples = 1\nvalue = [0, 1]", fillcolor="#399de5"] ;
320 -> 321 ;
322 [label="gini = 0.0\nsamples = 1\nvalue = [2, 0]", fillcolor="#e58139"] ;
320 -> 322 ;
323 [label="gini = 0.0\nsamples = 19\nvalue = [35, 0]", fillcolor="#e58139"] ;
317 -> 323 ;
324 [label="gini = 0.0\nsamples = 1\nvalue = [0, 1]", fillcolor="#399de5"] ;
298 -> 324 ;
325 [label="memb_leng <= -0.83\ngini = 0.38\nsamples = 7\nvalue = [6, 2]", fillcolor="#eeab7b"] ;
3 -> 325 ;
326 [label="gini = 0.0\nsamples = 1\nvalue = [0, 1]", fillcolor="#399de5"] ;
325 -> 326 ;
327 [label="age <= -1.46\ngini = 0.24\nsamples = 6\nvalue = [6, 1]", fillcolor="#e9965a"] ;
325 -> 327 ;
328 [label="gini = 0.0\nsamples = 3\nvalue = [3, 0]", fillcolor="#e58139"] ;
327 -> 328 ;
329 [label="memb_leng <= -0.4\ngini = 0.38\nsamples = 3\nvalue = [3, 1]", fillcolor="#eeab7b"] ;
327 -> 329 ;
330 [label="gini = 0.0\nsamples = 1\nvalue = [0, 1]", fillcolor="#399de5"] ;
329 -> 330 ;
331 [label="gini = 0.0\nsamples = 2\nvalue = [3, 0]", fillcolor="#e58139"] ;
329 -> 331 ;
332 [label="income <= 0.54\ngini = 0.45\nsamples = 1520\nvalue = [1584, 832]", fillcolor="#f3c3a1"] ;
2 -> 332 ;
333 [label="memb_leng <= -0.16\ngini = 0.45\nsamples = 1513\nvalue = [1584, 817]", fillcolor="#f2c29f"] ;
332 -> 333 ;
334 [label="gender_M <= 0.5\ngini = 0.42\nsamples = 879\nvalue = [968, 412]", fillcolor="#f0b78d"] ;
333 -> 334 ;
335 [label="income <= 0.01\ngini = 0.46\nsamples = 252\nvalue = [253, 147]", fillcolor="#f4caac"] ;
334 -> 335 ;
336 [label="time <= 0.44\ngini = 0.44\nsamples = 196\nvalue = [210, 103]", fillcolor="#f2bf9a"] ;
335 -> 336 ;
337 [label="offer_discount <= 0.5\ngini = 0.5\nsamples = 73\nvalue = [59, 52]", fillcolor="#fcf0e8"] ;
336 -> 337 ;
338 [label="duration <= 0.36\ngini = 0.49\nsamples = 55\nvalue = [48, 34]", fillcolor="#f7dac5"] ;
337 -> 338 ;
339 [label="gender_F <= 0.5\ngini = 0.45\nsamples = 26\nvalue = [27, 14]", fillcolor="#f2c2a0"] ;
338 -> 339 ;
340 [label="gini = 0.0\nsamples = 1\nvalue = [0, 2]", fillcolor="#399de5"] ;
339 -> 340 ;
341 [label="income <= -0.34\ngini = 0.43\nsamples = 25\nvalue = [27, 12]", fillcolor="#f1b991"] ;
339 -> 341 ;
342 [label="memb_leng <= -0.46\ngini = 0.35\nsamples = 22\nvalue = [24, 7]", fillcolor="#eda673"] ;
341 -> 342 ;
343 [label="income <= -1.52\ngini = 0.42\nsamples = 17\nvalue = [16, 7]", fillcolor="#f0b890"] ;
342 -> 343 ;
344 [label="gini = 0.0\nsamples = 1\nvalue = [0, 1]", fillcolor="#399de5"] ;
343 -> 344 ;
345 [label="income <= -1.24\ngini = 0.4\nsamples = 16\nvalue = [16, 6]", fillcolor="#efb083"] ;
343 -> 345 ;
346 [label="gini = 0.0\nsamples = 3\nvalue = [4, 0]", fillcolor="#e58139"] ;
345 -> 346 ;
347 [label="income <= -1.08\ngini = 0.44\nsamples = 13\nvalue = [12, 6]", fillcolor="#f2c09c"] ;
345 -> 347 ;
348 [label="gini = 0.0\nsamples = 1\nvalue = [0, 2]", fillcolor="#399de5"] ;
347 -> 348 ;
349 [label="memb_leng <= -0.68\ngini = 0.38\nsamples = 12\nvalue = [12, 4]", fillcolor="#eeab7b"] ;
347 -> 349 ;
350 [label="gini = 0.0\nsamples = 6\nvalue = [10, 0]", fillcolor="#e58139"] ;
349 -> 350 ;
351 [label="memb_leng <= -0.61\ngini = 0.44\nsamples = 6\nvalue = [2, 4]", fillcolor="#9ccef2"] ;
349 -> 351 ;
352 [label="gini = 0.0\nsamples = 3\nvalue = [0, 3]", fillcolor="#399de5"] ;
351 -> 352 ;
353 [label="age <= -1.4\ngini = 0.44\nsamples = 3\nvalue = [2, 1]", fillcolor="#f2c09c"] ;
351 -> 353 ;
354 [label="gini = 0.0\nsamples = 2\nvalue = [2, 0]", fillcolor="#e58139"] ;
353 -> 354 ;
355 [label="gini = 0.0\nsamples = 1\nvalue = [0, 1]", fillcolor="#399de5"] ;
353 -> 355 ;
356 [label="gini = 0.0\nsamples = 5\nvalue = [8, 0]", fillcolor="#e58139"] ;
342 -> 356 ;
357 [label="memb_leng <= -0.98\ngini = 0.47\nsamples = 3\nvalue = [3, 5]", fillcolor="#b0d8f5"] ;
341 -> 357 ;
358 [label="gini = 0.0\nsamples = 1\nvalue = [3, 0]", fillcolor="#e58139"] ;
357 -> 358 ;
359 [label="gini = 0.0\nsamples = 2\nvalue = [0, 5]", fillcolor="#399de5"] ;
357 -> 359 ;
360 [label="gender_O <= 0.5\ngini = 0.5\nsamples = 29\nvalue = [21, 20]", fillcolor="#fef9f6"] ;
338 -> 360 ;
361 [label="age <= -1.34\ngini = 0.5\nsamples = 28\nvalue = [21, 19]", fillcolor="#fdf3ec"] ;
360 -> 361 ;
362 [label="memb_leng <= -1.19\ngini = 0.44\nsamples = 18\nvalue = [18, 9]", fillcolor="#f2c09c"] ;
361 -> 362 ;
363 [label="gini = 0.0\nsamples = 2\nvalue = [0, 4]", fillcolor="#399de5"] ;
362 -> 363 ;
364 [label="time <= 0.15\ngini = 0.34\nsamples = 16\nvalue = [18, 5]", fillcolor="#eca470"] ;
362 -> 364 ;
365 [label="memb_leng <= -0.46\ngini = 0.3\nsamples = 9\nvalue = [13, 3]", fillcolor="#eb9e67"] ;
364 -> 365 ;
366 [label="gini = 0.0\nsamples = 5\nvalue = [8, 0]", fillcolor="#e58139"] ;
365 -> 366 ;
367 [label="age <= -1.66\ngini = 0.47\nsamples = 4\nvalue = [5, 3]", fillcolor="#f5cdb0"] ;
365 -> 367 ;
368 [label="gini = 0.0\nsamples = 2\nvalue = [0, 3]", fillcolor="#399de5"] ;
367 -> 368 ;
369 [label="gini = 0.0\nsamples = 2\nvalue = [5, 0]", fillcolor="#e58139"] ;
367 -> 369 ;
370 [label="memb_leng <= -1.0\ngini = 0.41\nsamples = 7\nvalue = [5, 2]", fillcolor="#efb388"] ;
364 -> 370 ;
371 [label="gini = 0.0\nsamples = 2\nvalue = [2, 0]", fillcolor="#e58139"] ;
370 -> 371 ;
372 [label="income <= -0.48\ngini = 0.48\nsamples = 5\nvalue = [3, 2]", fillcolor="#f6d5bd"] ;
370 -> 372 ;
373 [label="age <= -1.52\ngini = 0.44\nsamples = 3\nvalue = [1, 2]", fillcolor="#9ccef2"] ;
372 -> 373 ;
374 [label="gini = 0.0\nsamples = 2\nvalue = [0, 2]", fillcolor="#399de5"] ;
373 -> 374 ;
375 [label="gini = 0.0\nsamples = 1\nvalue = [1, 0]", fillcolor="#e58139"] ;
373 -> 375 ;
376 [label="gini = 0.0\nsamples = 2\nvalue = [2, 0]", fillcolor="#e58139"] ;
372 -> 376 ;
377 [label="income <= -0.76\ngini = 0.36\nsamples = 10\nvalue = [3, 10]", fillcolor="#74baed"] ;
361 -> 377 ;
378 [label="gini = 0.0\nsamples = 5\nvalue = [0, 5]", fillcolor="#399de5"] ;
377 -> 378 ;
379 [label="time <= 0.15\ngini = 0.47\nsamples = 5\nvalue = [3, 5]", fillcolor="#b0d8f5"] ;
377 -> 379 ;
380 [label="memb_leng <= -0.89\ngini = 0.28\nsamples = 3\nvalue = [1, 5]", fillcolor="#61b1ea"] ;
379 -> 380 ;
381 [label="gini = 0.0\nsamples = 2\nvalue = [0, 5]", fillcolor="#399de5"] ;
380 -> 381 ;
382 [label="gini = 0.0\nsamples = 1\nvalue = [1, 0]", fillcolor="#e58139"] ;
380 -> 382 ;
383 [label="gini = 0.0\nsamples = 2\nvalue = [2, 0]", fillcolor="#e58139"] ;
379 -> 383 ;
384 [label="gini = 0.0\nsamples = 1\nvalue = [0, 1]", fillcolor="#399de5"] ;
360 -> 384 ;
385 [label="income <= -1.29\ngini = 0.47\nsamples = 18\nvalue = [11, 18]", fillcolor="#b2d9f5"] ;
337 -> 385 ;
386 [label="gini = 0.0\nsamples = 2\nvalue = [0, 3]", fillcolor="#399de5"] ;
385 -> 386 ;
387 [label="memb_leng <= -0.89\ngini = 0.49\nsamples = 16\nvalue = [11, 15]", fillcolor="#cae5f8"] ;
385 -> 387 ;
388 [label="memb_leng <= -1.13\ngini = 0.38\nsamples = 3\nvalue = [3, 1]", fillcolor="#eeab7b"] ;
387 -> 388 ;
389 [label="gini = 0.0\nsamples = 1\nvalue = [0, 1]", fillcolor="#399de5"] ;
388 -> 389 ;
390 [label="gini = 0.0\nsamples = 2\nvalue = [3, 0]", fillcolor="#e58139"] ;
388 -> 390 ;
391 [label="age <= -1.49\ngini = 0.46\nsamples = 13\nvalue = [8, 14]", fillcolor="#aad5f4"] ;
387 -> 391 ;
392 [label="income <= -0.8\ngini = 0.5\nsamples = 7\nvalue = [5, 6]", fillcolor="#deeffb"] ;
391 -> 392 ;
393 [label="gini = 0.0\nsamples = 1\nvalue = [2, 0]", fillcolor="#e58139"] ;
392 -> 393 ;
394 [label="memb_leng <= -0.87\ngini = 0.44\nsamples = 6\nvalue = [3, 6]", fillcolor="#9ccef2"] ;
392 -> 394 ;
395 [label="gini = 0.0\nsamples = 1\nvalue = [0, 3]", fillcolor="#399de5"] ;
394 -> 395 ;
396 [label="gender_O <= 0.5\ngini = 0.5\nsamples = 5\nvalue = [3, 3]", fillcolor="#ffffff"] ;
394 -> 396 ;
397 [label="time <= 0.15\ngini = 0.48\nsamples = 4\nvalue = [2, 3]", fillcolor="#bddef6"] ;
396 -> 397 ;
398 [label="memb_leng <= -0.77\ngini = 0.5\nsamples = 3\nvalue = [2, 2]", fillcolor="#ffffff"] ;
397 -> 398 ;
399 [label="gini = 0.0\nsamples = 1\nvalue = [1, 0]", fillcolor="#e58139"] ;
398 -> 399 ;
400 [label="age <= -1.75\ngini = 0.44\nsamples = 2\nvalue = [1, 2]", fillcolor="#9ccef2"] ;
398 -> 400 ;
401 [label="gini = 0.0\nsamples = 1\nvalue = [0, 2]", fillcolor="#399de5"] ;
400 -> 401 ;
402 [label="gini = 0.0\nsamples = 1\nvalue = [1, 0]", fillcolor="#e58139"] ;
400 -> 402 ;
403 [label="gini = 0.0\nsamples = 1\nvalue = [0, 1]", fillcolor="#399de5"] ;
397 -> 403 ;
404 [label="gini = 0.0\nsamples = 1\nvalue = [1, 0]", fillcolor="#e58139"] ;
396 -> 404 ;
405 [label="memb_leng <= -0.6\ngini = 0.4\nsamples = 6\nvalue = [3, 8]", fillcolor="#83c2ef"] ;
391 -> 405 ;
406 [label="gini = 0.0\nsamples = 1\nvalue = [2, 0]", fillcolor="#e58139"] ;
405 -> 406 ;
407 [label="memb_leng <= -0.36\ngini = 0.2\nsamples = 5\nvalue = [1, 8]", fillcolor="#52a9e8"] ;
405 -> 407 ;
408 [label="gini = 0.0\nsamples = 4\nvalue = [0, 8]", fillcolor="#399de5"] ;
407 -> 408 ;
409 [label="gini = 0.0\nsamples = 1\nvalue = [1, 0]", fillcolor="#e58139"] ;
407 -> 409 ;
410 [label="memb_leng <= -0.86\ngini = 0.38\nsamples = 123\nvalue = [151, 51]", fillcolor="#eeac7c"] ;
336 -> 410 ;
411 [label="time <= 0.79\ngini = 0.19\nsamples = 36\nvalue = [52, 6]", fillcolor="#e89050"] ;
410 -> 411 ;
412 [label="offer_discount <= 0.5\ngini = 0.06\nsamples = 22\nvalue = [34, 1]", fillcolor="#e6853f"] ;
411 -> 412 ;
413 [label="gini = 0.0\nsamples = 12\nvalue = [20, 0]", fillcolor="#e58139"] ;
412 -> 413 ;
414 [label="memb_leng <= -1.13\ngini = 0.12\nsamples = 10\nvalue = [14, 1]", fillcolor="#e78a47"] ;
412 -> 414 ;
415 [label="memb_leng <= -1.17\ngini = 0.5\nsamples = 2\nvalue = [1, 1]", fillcolor="#ffffff"] ;
414 -> 415 ;
416 [label="gini = 0.0\nsamples = 1\nvalue = [1, 0]", fillcolor="#e58139"] ;
415 -> 416 ;
417 [label="gini = 0.0\nsamples = 1\nvalue = [0, 1]", fillcolor="#399de5"] ;
415 -> 417 ;
418 [label="gini = 0.0\nsamples = 8\nvalue = [13, 0]", fillcolor="#e58139"] ;
414 -> 418 ;
419 [label="memb_leng <= -0.89\ngini = 0.34\nsamples = 14\nvalue = [18, 5]", fillcolor="#eca470"] ;
411 -> 419 ;
420 [label="age <= -1.11\ngini = 0.3\nsamples = 13\nvalue = [18, 4]", fillcolor="#eb9d65"] ;
419 -> 420 ;
421 [label="income <= -1.13\ngini = 0.24\nsamples = 12\nvalue = [18, 3]", fillcolor="#e9965a"] ;
420 -> 421 ;
422 [label="income <= -1.27\ngini = 0.48\nsamples = 3\nvalue = [3, 2]", fillcolor="#f6d5bd"] ;
421 -> 422 ;
423 [label="duration <= 0.36\ngini = 0.38\nsamples = 2\nvalue = [3, 1]", fillcolor="#eeab7b"] ;
422 -> 423 ;
424 [label="gini = 0.0\nsamples = 1\nvalue = [0, 1]", fillcolor="#399de5"] ;
423 -> 424 ;
425 [label="gini = 0.0\nsamples = 1\nvalue = [3, 0]", fillcolor="#e58139"] ;
423 -> 425 ;
426 [label="gini = 0.0\nsamples = 1\nvalue = [0, 1]", fillcolor="#399de5"] ;
422 -> 426 ;
427 [label="time <= 0.94\ngini = 0.12\nsamples = 9\nvalue = [15, 1]", fillcolor="#e78946"] ;
421 -> 427 ;
428 [label="memb_leng <= -0.99\ngini = 0.22\nsamples = 5\nvalue = [7, 1]", fillcolor="#e99355"] ;
427 -> 428 ;
429 [label="gini = 0.0\nsamples = 4\nvalue = [7, 0]", fillcolor="#e58139"] ;
428 -> 429 ;
430 [label="gini = 0.0\nsamples = 1\nvalue = [0, 1]", fillcolor="#399de5"] ;
428 -> 430 ;
431 [label="gini = 0.0\nsamples = 4\nvalue = [8, 0]", fillcolor="#e58139"] ;
427 -> 431 ;
432 [label="gini = 0.0\nsamples = 1\nvalue = [0, 1]", fillcolor="#399de5"] ;
420 -> 432 ;
433 [label="gini = 0.0\nsamples = 1\nvalue = [0, 1]", fillcolor="#399de5"] ;
419 -> 433 ;
434 [label="difficulty <= 0.38\ngini = 0.43\nsamples = 87\nvalue = [99, 45]", fillcolor="#f1ba93"] ;
410 -> 434 ;
435 [label="income <= -0.6\ngini = 0.47\nsamples = 53\nvalue = [52, 32]", fillcolor="#f5cfb3"] ;
434 -> 435 ;
436 [label="gender_F <= 0.5\ngini = 0.5\nsamples = 32\nvalue = [24, 28]", fillcolor="#e3f1fb"] ;
435 -> 436 ;
437 [label="income <= -1.2\ngini = 0.38\nsamples = 2\nvalue = [1, 3]", fillcolor="#7bbeee"] ;
436 -> 437 ;
438 [label="gini = 0.0\nsamples = 1\nvalue = [1, 0]", fillcolor="#e58139"] ;
437 -> 438 ;
439 [label="gini = 0.0\nsamples = 1\nvalue = [0, 3]", fillcolor="#399de5"] ;
437 -> 439 ;
440 [label="age <= -1.52\ngini = 0.5\nsamples = 30\nvalue = [23, 25]", fillcolor="#eff7fd"] ;
436 -> 440 ;
441 [label="age <= -1.77\ngini = 0.35\nsamples = 15\nvalue = [17, 5]", fillcolor="#eda673"] ;
440 -> 441 ;
442 [label="memb_leng <= -0.46\ngini = 0.5\nsamples = 6\nvalue = [4, 4]", fillcolor="#ffffff"] ;
441 -> 442 ;
443 [label="difficulty <= 0.12\ngini = 0.32\nsamples = 4\nvalue = [4, 1]", fillcolor="#eca06a"] ;
442 -> 443 ;
444 [label="gini = 0.0\nsamples = 2\nvalue = [3, 0]", fillcolor="#e58139"] ;
443 -> 444 ;
445 [label="income <= -1.45\ngini = 0.5\nsamples = 2\nvalue = [1, 1]", fillcolor="#ffffff"] ;
443 -> 445 ;
446 [label="gini = 0.0\nsamples = 1\nvalue = [0, 1]", fillcolor="#399de5"] ;
445 -> 446 ;
447 [label="gini = 0.0\nsamples = 1\nvalue = [1, 0]", fillcolor="#e58139"] ;
445 -> 447 ;
448 [label="gini = 0.0\nsamples = 2\nvalue = [0, 3]", fillcolor="#399de5"] ;
442 -> 448 ;
449 [label="reward_offd <= 0.25\ngini = 0.13\nsamples = 9\nvalue = [13, 1]", fillcolor="#e78b48"] ;
441 -> 449 ;
450 [label="gini = 0.0\nsamples = 3\nvalue = [6, 0]", fillcolor="#e58139"] ;
449 -> 450 ;
451 [label="memb_leng <= -0.61\ngini = 0.22\nsamples = 6\nvalue = [7, 1]", fillcolor="#e99355"] ;
449 -> 451 ;
452 [label="memb_leng <= -0.71\ngini = 0.5\nsamples = 2\nvalue = [1, 1]", fillcolor="#ffffff"] ;
451 -> 452 ;
453 [label="gini = 0.0\nsamples = 1\nvalue = [1, 0]", fillcolor="#e58139"] ;
452 -> 453 ;
454 [label="gini = 0.0\nsamples = 1\nvalue = [0, 1]", fillcolor="#399de5"] ;
452 -> 454 ;
455 [label="gini = 0.0\nsamples = 4\nvalue = [6, 0]", fillcolor="#e58139"] ;
451 -> 455 ;
456 [label="age <= -1.31\ngini = 0.36\nsamples = 15\nvalue = [6, 20]", fillcolor="#74baed"] ;
440 -> 456 ;
457 [label="memb_leng <= -0.55\ngini = 0.49\nsamples = 6\nvalue = [3, 4]", fillcolor="#cee6f8"] ;
456 -> 457 ;
458 [label="gini = 0.0\nsamples = 2\nvalue = [0, 3]", fillcolor="#399de5"] ;
457 -> 458 ;
459 [label="memb_leng <= -0.51\ngini = 0.38\nsamples = 4\nvalue = [3, 1]", fillcolor="#eeab7b"] ;
457 -> 459 ;
460 [label="difficulty <= 0.12\ngini = 0.5\nsamples = 2\nvalue = [1, 1]", fillcolor="#ffffff"] ;
459 -> 460 ;
461 [label="gini = 0.0\nsamples = 1\nvalue = [1, 0]", fillcolor="#e58139"] ;
460 -> 461 ;
462 [label="gini = 0.0\nsamples = 1\nvalue = [0, 1]", fillcolor="#399de5"] ;
460 -> 462 ;
463 [label="gini = 0.0\nsamples = 2\nvalue = [2, 0]", fillcolor="#e58139"] ;
459 -> 463 ;
464 [label="income <= -0.64\ngini = 0.27\nsamples = 9\nvalue = [3, 16]", fillcolor="#5eafea"] ;
456 -> 464 ;
465 [label="income <= -1.29\ngini = 0.2\nsamples = 8\nvalue = [2, 16]", fillcolor="#52a9e8"] ;
464 -> 465 ;
466 [label="income <= -1.5\ngini = 0.44\nsamples = 2\nvalue = [1, 2]", fillcolor="#9ccef2"] ;
465 -> 466 ;
467 [label="gini = 0.0\nsamples = 1\nvalue = [0, 2]", fillcolor="#399de5"] ;
466 -> 467 ;
468 [label="gini = 0.0\nsamples = 1\nvalue = [1, 0]", fillcolor="#e58139"] ;
466 -> 468 ;
469 [label="memb_leng <= -0.76\ngini = 0.12\nsamples = 6\nvalue = [1, 14]", fillcolor="#47a4e7"] ;
465 -> 469 ;
470 [label="gini = 0.0\nsamples = 1\nvalue = [1, 0]", fillcolor="#e58139"] ;
469 -> 470 ;
471 [label="gini = 0.0\nsamples = 5\nvalue = [0, 14]", fillcolor="#399de5"] ;
469 -> 471 ;
472 [label="gini = 0.0\nsamples = 1\nvalue = [1, 0]", fillcolor="#e58139"] ;
464 -> 472 ;
473 [label="memb_leng <= -0.62\ngini = 0.22\nsamples = 21\nvalue = [28, 4]", fillcolor="#e99355"] ;
435 -> 473 ;
474 [label="memb_leng <= -0.64\ngini = 0.43\nsamples = 9\nvalue = [9, 4]", fillcolor="#f1b991"] ;
473 -> 474 ;
475 [label="reward_offd <= 0.25\ngini = 0.18\nsamples = 8\nvalue = [9, 1]", fillcolor="#e88f4f"] ;
474 -> 475 ;
476 [label="gini = 0.0\nsamples = 5\nvalue = [6, 0]", fillcolor="#e58139"] ;
475 -> 476 ;
477 [label="age <= -1.34\ngini = 0.38\nsamples = 3\nvalue = [3, 1]", fillcolor="#eeab7b"] ;
475 -> 477 ;
478 [label="gini = 0.0\nsamples = 2\nvalue = [3, 0]", fillcolor="#e58139"] ;
477 -> 478 ;
479 [label="gini = 0.0\nsamples = 1\nvalue = [0, 1]", fillcolor="#399de5"] ;
477 -> 479 ;
480 [label="gini = 0.0\nsamples = 1\nvalue = [0, 3]", fillcolor="#399de5"] ;
474 -> 480 ;
481 [label="gini = 0.0\nsamples = 12\nvalue = [19, 0]", fillcolor="#e58139"] ;
473 -> 481 ;
482 [label="memb_leng <= -0.59\ngini = 0.34\nsamples = 34\nvalue = [47, 13]", fillcolor="#eca470"] ;
434 -> 482 ;
483 [label="time <= 0.79\ngini = 0.12\nsamples = 16\nvalue = [28, 2]", fillcolor="#e78a47"] ;
482 -> 483 ;
484 [label="gini = 0.0\nsamples = 7\nvalue = [14, 0]", fillcolor="#e58139"] ;
483 -> 484 ;
485 [label="memb_leng <= -0.69\ngini = 0.22\nsamples = 9\nvalue = [14, 2]", fillcolor="#e99355"] ;
483 -> 485 ;
486 [label="income <= -1.15\ngini = 0.48\nsamples = 4\nvalue = [3, 2]", fillcolor="#f6d5bd"] ;
485 -> 486 ;
487 [label="gini = 0.0\nsamples = 2\nvalue = [0, 2]", fillcolor="#399de5"] ;
486 -> 487 ;
488 [label="gini = 0.0\nsamples = 2\nvalue = [3, 0]", fillcolor="#e58139"] ;
486 -> 488 ;
489 [label="gini = 0.0\nsamples = 5\nvalue = [11, 0]", fillcolor="#e58139"] ;
485 -> 489 ;
490 [label="memb_leng <= -0.49\ngini = 0.46\nsamples = 18\nvalue = [19, 11]", fillcolor="#f4caac"] ;
482 -> 490 ;
491 [label="gender_F <= 0.5\ngini = 0.32\nsamples = 6\nvalue = [2, 8]", fillcolor="#6ab6ec"] ;
490 -> 491 ;
492 [label="gini = 0.0\nsamples = 1\nvalue = [0, 1]", fillcolor="#399de5"] ;
491 -> 492 ;
493 [label="memb_leng <= -0.55\ngini = 0.35\nsamples = 5\nvalue = [2, 7]", fillcolor="#72b9ec"] ;
491 -> 493 ;
494 [label="time <= 0.85\ngini = 0.44\nsamples = 2\nvalue = [2, 1]", fillcolor="#f2c09c"] ;
493 -> 494 ;
495 [label="gini = 0.0\nsamples = 1\nvalue = [0, 1]", fillcolor="#399de5"] ;
494 -> 495 ;
496 [label="gini = 0.0\nsamples = 1\nvalue = [2, 0]", fillcolor="#e58139"] ;
494 -> 496 ;
497 [label="gini = 0.0\nsamples = 3\nvalue = [0, 6]", fillcolor="#399de5"] ;
493 -> 497 ;
498 [label="income <= -0.94\ngini = 0.26\nsamples = 12\nvalue = [17, 3]", fillcolor="#ea975c"] ;
490 -> 498 ;
499 [label="memb_leng <= -0.39\ngini = 0.41\nsamples = 5\nvalue = [5, 2]", fillcolor="#efb388"] ;
498 -> 499 ;
500 [label="gini = 0.0\nsamples = 3\nvalue = [5, 0]", fillcolor="#e58139"] ;
499 -> 500 ;
501 [label="gini = 0.0\nsamples = 2\nvalue = [0, 2]", fillcolor="#399de5"] ;
499 -> 501 ;
502 [label="age <= -1.89\ngini = 0.14\nsamples = 7\nvalue = [12, 1]", fillcolor="#e78c49"] ;
498 -> 502 ;
503 [label="gini = 0.0\nsamples = 4\nvalue = [9, 0]", fillcolor="#e58139"] ;
502 -> 503 ;
504 [label="time <= 0.85\ngini = 0.38\nsamples = 3\nvalue = [3, 1]", fillcolor="#eeab7b"] ;
502 -> 504 ;
505 [label="gini = 0.0\nsamples = 2\nvalue = [3, 0]", fillcolor="#e58139"] ;
504 -> 505 ;
506 [label="gini = 0.0\nsamples = 1\nvalue = [0, 1]", fillcolor="#399de5"] ;
504 -> 506 ;
507 [label="income <= 0.05\ngini = 0.5\nsamples = 56\nvalue = [43, 44]", fillcolor="#fafdfe"] ;
335 -> 507 ;
508 [label="gini = 0.0\nsamples = 1\nvalue = [0, 2]", fillcolor="#399de5"] ;
507 -> 508 ;
509 [label="offer_informational <= 0.5\ngini = 0.5\nsamples = 55\nvalue = [43, 42]", fillcolor="#fefcfa"] ;
507 -> 509 ;
510 [label="memb_leng <= -0.78\ngini = 0.5\nsamples = 35\nvalue = [25, 26]", fillcolor="#f7fbfe"] ;
509 -> 510 ;
511 [label="memb_leng <= -1.1\ngini = 0.45\nsamples = 17\nvalue = [15, 8]", fillcolor="#f3c4a3"] ;
510 -> 511 ;
512 [label="time <= 0.65\ngini = 0.46\nsamples = 7\nvalue = [4, 7]", fillcolor="#aad5f4"] ;
511 -> 512 ;
513 [label="gini = 0.0\nsamples = 3\nvalue = [0, 3]", fillcolor="#399de5"] ;
512 -> 513 ;
514 [label="offer_discount <= 0.5\ngini = 0.5\nsamples = 4\nvalue = [4, 4]", fillcolor="#ffffff"] ;
512 -> 514 ;
515 [label="age <= -1.37\ngini = 0.44\nsamples = 2\nvalue = [1, 2]", fillcolor="#9ccef2"] ;
514 -> 515 ;
516 [label="gini = 0.0\nsamples = 1\nvalue = [1, 0]", fillcolor="#e58139"] ;
515 -> 516 ;
517 [label="gini = 0.0\nsamples = 1\nvalue = [0, 2]", fillcolor="#399de5"] ;
515 -> 517 ;
518 [label="income <= 0.35\ngini = 0.48\nsamples = 2\nvalue = [3, 2]", fillcolor="#f6d5bd"] ;
514 -> 518 ;
519 [label="gini = 0.0\nsamples = 1\nvalue = [3, 0]", fillcolor="#e58139"] ;
518 -> 519 ;
520 [label="gini = 0.0\nsamples = 1\nvalue = [0, 2]", fillcolor="#399de5"] ;
518 -> 520 ;
521 [label="time <= 0.94\ngini = 0.15\nsamples = 10\nvalue = [11, 1]", fillcolor="#e78c4b"] ;
511 -> 521 ;
522 [label="gini = 0.0\nsamples = 9\nvalue = [11, 0]", fillcolor="#e58139"] ;
521 -> 522 ;
523 [label="gini = 0.0\nsamples = 1\nvalue = [0, 1]", fillcolor="#399de5"] ;
521 -> 523 ;
524 [label="age <= -1.54\ngini = 0.46\nsamples = 18\nvalue = [10, 18]", fillcolor="#a7d3f3"] ;
510 -> 524 ;
525 [label="gini = 0.0\nsamples = 6\nvalue = [0, 9]", fillcolor="#399de5"] ;
524 -> 525 ;
526 [label="offer_discount <= 0.5\ngini = 0.5\nsamples = 12\nvalue = [10, 9]", fillcolor="#fcf2eb"] ;
524 -> 526 ;
527 [label="age <= -1.14\ngini = 0.38\nsamples = 4\nvalue = [6, 2]", fillcolor="#eeab7b"] ;
526 -> 527 ;
528 [label="gini = 0.0\nsamples = 3\nvalue = [6, 0]", fillcolor="#e58139"] ;
527 -> 528 ;
529 [label="gini = 0.0\nsamples = 1\nvalue = [0, 2]", fillcolor="#399de5"] ;
527 -> 529 ;
530 [label="income <= 0.21\ngini = 0.46\nsamples = 8\nvalue = [4, 7]", fillcolor="#aad5f4"] ;
526 -> 530 ;
531 [label="gini = 0.0\nsamples = 1\nvalue = [0, 1]", fillcolor="#399de5"] ;
530 -> 531 ;
532 [label="age <= -1.17\ngini = 0.48\nsamples = 7\nvalue = [4, 6]", fillcolor="#bddef6"] ;
530 -> 532 ;
533 [label="age <= -1.43\ngini = 0.41\nsamples = 5\nvalue = [2, 5]", fillcolor="#88c4ef"] ;
532 -> 533 ;
534 [label="time <= 0.58\ngini = 0.5\nsamples = 3\nvalue = [2, 2]", fillcolor="#ffffff"] ;
533 -> 534 ;
535 [label="gini = 0.0\nsamples = 1\nvalue = [0, 2]", fillcolor="#399de5"] ;
534 -> 535 ;
536 [label="gini = 0.0\nsamples = 2\nvalue = [2, 0]", fillcolor="#e58139"] ;
534 -> 536 ;
537 [label="gini = 0.0\nsamples = 2\nvalue = [0, 3]", fillcolor="#399de5"] ;
533 -> 537 ;
538 [label="memb_leng <= -0.67\ngini = 0.44\nsamples = 2\nvalue = [2, 1]", fillcolor="#f2c09c"] ;
532 -> 538 ;
539 [label="gini = 0.0\nsamples = 1\nvalue = [2, 0]", fillcolor="#e58139"] ;
538 -> 539 ;
540 [label="gini = 0.0\nsamples = 1\nvalue = [0, 1]", fillcolor="#399de5"] ;
538 -> 540 ;
541 [label="income <= 0.14\ngini = 0.5\nsamples = 20\nvalue = [18, 16]", fillcolor="#fcf1e9"] ;
509 -> 541 ;
542 [label="memb_leng <= -0.79\ngini = 0.41\nsamples = 8\nvalue = [10, 4]", fillcolor="#efb388"] ;
541 -> 542 ;
543 [label="time <= 0.44\ngini = 0.38\nsamples = 3\nvalue = [1, 3]", fillcolor="#7bbeee"] ;
542 -> 543 ;
544 [label="gini = 0.0\nsamples = 1\nvalue = [1, 0]", fillcolor="#e58139"] ;
543 -> 544 ;
545 [label="gini = 0.0\nsamples = 2\nvalue = [0, 3]", fillcolor="#399de5"] ;
543 -> 545 ;
546 [label="income <= 0.1\ngini = 0.18\nsamples = 5\nvalue = [9, 1]", fillcolor="#e88f4f"] ;
542 -> 546 ;
547 [label="gini = 0.0\nsamples = 1\nvalue = [2, 0]", fillcolor="#e58139"] ;
546 -> 547 ;
548 [label="memb_leng <= -0.6\ngini = 0.22\nsamples = 4\nvalue = [7, 1]", fillcolor="#e99355"] ;
546 -> 548 ;
549 [label="time <= 0.65\ngini = 0.44\nsamples = 2\nvalue = [2, 1]", fillcolor="#f2c09c"] ;
548 -> 549 ;
550 [label="gini = 0.0\nsamples = 1\nvalue = [2, 0]", fillcolor="#e58139"] ;
549 -> 550 ;
551 [label="gini = 0.0\nsamples = 1\nvalue = [0, 1]", fillcolor="#399de5"] ;
549 -> 551 ;
552 [label="gini = 0.0\nsamples = 2\nvalue = [5, 0]", fillcolor="#e58139"] ;
548 -> 552 ;
553 [label="income <= 0.38\ngini = 0.48\nsamples = 12\nvalue = [8, 12]", fillcolor="#bddef6"] ;
541 -> 553 ;
554 [label="age <= -1.69\ngini = 0.28\nsamples = 7\nvalue = [2, 10]", fillcolor="#61b1ea"] ;
553 -> 554 ;
555 [label="age <= -1.89\ngini = 0.5\nsamples = 2\nvalue = [1, 1]", fillcolor="#ffffff"] ;
554 -> 555 ;
556 [label="gini = 0.0\nsamples = 1\nvalue = [0, 1]", fillcolor="#399de5"] ;
555 -> 556 ;
557 [label="gini = 0.0\nsamples = 1\nvalue = [1, 0]", fillcolor="#e58139"] ;
555 -> 557 ;
558 [label="time <= 0.65\ngini = 0.18\nsamples = 5\nvalue = [1, 9]", fillcolor="#4fa8e8"] ;
554 -> 558 ;
559 [label="gini = 0.0\nsamples = 2\nvalue = [0, 3]", fillcolor="#399de5"] ;
558 -> 559 ;
560 [label="income <= 0.26\ngini = 0.24\nsamples = 3\nvalue = [1, 6]", fillcolor="#5aade9"] ;
558 -> 560 ;
561 [label="gini = 0.0\nsamples = 1\nvalue = [0, 2]", fillcolor="#399de5"] ;
560 -> 561 ;
562 [label="age <= -1.17\ngini = 0.32\nsamples = 2\nvalue = [1, 4]", fillcolor="#6ab6ec"] ;
560 -> 562 ;
563 [label="gini = 0.0\nsamples = 1\nvalue = [0, 4]", fillcolor="#399de5"] ;
562 -> 563 ;
564 [label="gini = 0.0\nsamples = 1\nvalue = [1, 0]", fillcolor="#e58139"] ;
562 -> 564 ;
565 [label="age <= -1.37\ngini = 0.38\nsamples = 5\nvalue = [6, 2]", fillcolor="#eeab7b"] ;
553 -> 565 ;
566 [label="gini = 0.0\nsamples = 2\nvalue = [0, 2]", fillcolor="#399de5"] ;
565 -> 566 ;
567 [label="gini = 0.0\nsamples = 3\nvalue = [6, 0]", fillcolor="#e58139"] ;
565 -> 567 ;
568 [label="age <= -1.6\ngini = 0.39\nsamples = 627\nvalue = [715, 265]", fillcolor="#efb082"] ;
334 -> 568 ;
569 [label="age <= -1.77\ngini = 0.33\nsamples = 282\nvalue = [344, 89]", fillcolor="#eca26c"] ;
568 -> 569 ;
570 [label="reward_offd <= 0.35\ngini = 0.37\nsamples = 184\nvalue = [207, 67]", fillcolor="#edaa79"] ;
569 -> 570 ;
571 [label="difficulty <= 0.25\ngini = 0.39\nsamples = 127\nvalue = [144, 52]", fillcolor="#eeae80"] ;
570 -> 571 ;
572 [label="memb_leng <= -0.45\ngini = 0.34\nsamples = 58\nvalue = [67, 19]", fillcolor="#eca571"] ;
571 -> 572 ;
573 [label="income <= 0.42\ngini = 0.39\nsamples = 50\nvalue = [53, 19]", fillcolor="#eeae80"] ;
572 -> 573 ;
574 [label="age <= -2.06\ngini = 0.37\nsamples = 48\nvalue = [53, 17]", fillcolor="#eda979"] ;
573 -> 574 ;
575 [label="income <= -0.92\ngini = 0.2\nsamples = 7\nvalue = [8, 1]", fillcolor="#e89152"] ;
574 -> 575 ;
576 [label="income <= -1.24\ngini = 0.5\nsamples = 2\nvalue = [1, 1]", fillcolor="#ffffff"] ;
575 -> 576 ;
577 [label="gini = 0.0\nsamples = 1\nvalue = [1, 0]", fillcolor="#e58139"] ;
576 -> 577 ;
578 [label="gini = 0.0\nsamples = 1\nvalue = [0, 1]", fillcolor="#399de5"] ;
576 -> 578 ;
579 [label="gini = 0.0\nsamples = 5\nvalue = [7, 0]", fillcolor="#e58139"] ;
575 -> 579 ;
580 [label="time <= 0.44\ngini = 0.39\nsamples = 41\nvalue = [45, 16]", fillcolor="#eeae7f"] ;
574 -> 580 ;
581 [label="memb_leng <= -1.22\ngini = 0.22\nsamples = 10\nvalue = [14, 2]", fillcolor="#e99355"] ;
580 -> 581 ;
582 [label="gini = 0.0\nsamples = 1\nvalue = [0, 2]", fillcolor="#399de5"] ;
581 -> 582 ;
583 [label="gini = 0.0\nsamples = 9\nvalue = [14, 0]", fillcolor="#e58139"] ;
581 -> 583 ;
584 [label="age <= -1.89\ngini = 0.43\nsamples = 31\nvalue = [31, 14]", fillcolor="#f1ba92"] ;
580 -> 584 ;
585 [label="time <= 0.65\ngini = 0.41\nsamples = 25\nvalue = [27, 11]", fillcolor="#f0b48a"] ;
584 -> 585 ;
586 [label="age <= -2.0\ngini = 0.5\nsamples = 4\nvalue = [3, 3]", fillcolor="#ffffff"] ;
585 -> 586 ;
587 [label="memb_leng <= -0.66\ngini = 0.48\nsamples = 3\nvalue = [2, 3]", fillcolor="#bddef6"] ;
586 -> 587 ;
588 [label="gini = 0.0\nsamples = 2\nvalue = [2, 0]", fillcolor="#e58139"] ;
587 -> 588 ;
589 [label="gini = 0.0\nsamples = 1\nvalue = [0, 3]", fillcolor="#399de5"] ;
587 -> 589 ;
590 [label="gini = 0.0\nsamples = 1\nvalue = [1, 0]", fillcolor="#e58139"] ;
586 -> 590 ;
591 [label="memb_leng <= -0.48\ngini = 0.38\nsamples = 21\nvalue = [24, 8]", fillcolor="#eeab7b"] ;
585 -> 591 ;
592 [label="income <= -0.73\ngini = 0.32\nsamples = 19\nvalue = [24, 6]", fillcolor="#eca06a"] ;
591 -> 592 ;
593 [label="income <= -1.06\ngini = 0.4\nsamples = 11\nvalue = [13, 5]", fillcolor="#efb185"] ;
592 -> 593 ;
594 [label="memb_leng <= -1.04\ngini = 0.18\nsamples = 6\nvalue = [9, 1]", fillcolor="#e88f4f"] ;
593 -> 594 ;
595 [label="age <= -2.0\ngini = 0.32\nsamples = 3\nvalue = [4, 1]", fillcolor="#eca06a"] ;
594 -> 595 ;
596 [label="gini = 0.0\nsamples = 1\nvalue = [2, 0]", fillcolor="#e58139"] ;
595 -> 596 ;
597 [label="income <= -1.34\ngini = 0.44\nsamples = 2\nvalue = [2, 1]", fillcolor="#f2c09c"] ;
595 -> 597 ;
598 [label="gini = 0.0\nsamples = 1\nvalue = [0, 1]", fillcolor="#399de5"] ;
597 -> 598 ;
599 [label="gini = 0.0\nsamples = 1\nvalue = [2, 0]", fillcolor="#e58139"] ;
597 -> 599 ;
600 [label="gini = 0.0\nsamples = 3\nvalue = [5, 0]", fillcolor="#e58139"] ;
594 -> 600 ;
601 [label="age <= -1.95\ngini = 0.5\nsamples = 5\nvalue = [4, 4]", fillcolor="#ffffff"] ;
593 -> 601 ;
602 [label="memb_leng <= -0.76\ngini = 0.44\nsamples = 2\nvalue = [1, 2]", fillcolor="#9ccef2"] ;
601 -> 602 ;
603 [label="gini = 0.0\nsamples = 1\nvalue = [1, 0]", fillcolor="#e58139"] ;
602 -> 603 ;
604 [label="gini = 0.0\nsamples = 1\nvalue = [0, 2]", fillcolor="#399de5"] ;
602 -> 604 ;
605 [label="memb_leng <= -0.51\ngini = 0.48\nsamples = 3\nvalue = [3, 2]", fillcolor="#f6d5bd"] ;
601 -> 605 ;
606 [label="gini = 0.0\nsamples = 1\nvalue = [0, 2]", fillcolor="#399de5"] ;
605 -> 606 ;
607 [label="gini = 0.0\nsamples = 2\nvalue = [3, 0]", fillcolor="#e58139"] ;
605 -> 607 ;
608 [label="age <= -2.0\ngini = 0.15\nsamples = 8\nvalue = [11, 1]", fillcolor="#e78c4b"] ;
592 -> 608 ;
609 [label="time <= 0.79\ngini = 0.38\nsamples = 4\nvalue = [3, 1]", fillcolor="#eeab7b"] ;
608 -> 609 ;
610 [label="income <= 0.31\ngini = 0.5\nsamples = 2\nvalue = [1, 1]", fillcolor="#ffffff"] ;
609 -> 610 ;
611 [label="gini = 0.0\nsamples = 1\nvalue = [1, 0]", fillcolor="#e58139"] ;
610 -> 611 ;
612 [label="gini = 0.0\nsamples = 1\nvalue = [0, 1]", fillcolor="#399de5"] ;
610 -> 612 ;
613 [label="gini = 0.0\nsamples = 2\nvalue = [2, 0]", fillcolor="#e58139"] ;
609 -> 613 ;
614 [label="gini = 0.0\nsamples = 4\nvalue = [8, 0]", fillcolor="#e58139"] ;
608 -> 614 ;
615 [label="gini = 0.0\nsamples = 2\nvalue = [0, 2]", fillcolor="#399de5"] ;
591 -> 615 ;
616 [label="age <= -1.83\ngini = 0.49\nsamples = 6\nvalue = [4, 3]", fillcolor="#f8e0ce"] ;
584 -> 616 ;
617 [label="time <= 0.94\ngini = 0.5\nsamples = 5\nvalue = [3, 3]", fillcolor="#ffffff"] ;
616 -> 617 ;
618 [label="memb_leng <= -0.83\ngini = 0.38\nsamples = 3\nvalue = [1, 3]", fillcolor="#7bbeee"] ;
617 -> 618 ;
619 [label="income <= -0.55\ngini = 0.5\nsamples = 2\nvalue = [1, 1]", fillcolor="#ffffff"] ;
618 -> 619 ;
620 [label="gini = 0.0\nsamples = 1\nvalue = [0, 1]", fillcolor="#399de5"] ;
619 -> 620 ;
621 [label="gini = 0.0\nsamples = 1\nvalue = [1, 0]", fillcolor="#e58139"] ;
619 -> 621 ;
622 [label="gini = 0.0\nsamples = 1\nvalue = [0, 2]", fillcolor="#399de5"] ;
618 -> 622 ;
623 [label="gini = 0.0\nsamples = 2\nvalue = [2, 0]", fillcolor="#e58139"] ;
617 -> 623 ;
624 [label="gini = 0.0\nsamples = 1\nvalue = [1, 0]", fillcolor="#e58139"] ;
616 -> 624 ;
625 [label="gini = 0.0\nsamples = 2\nvalue = [0, 2]", fillcolor="#399de5"] ;
573 -> 625 ;
626 [label="gini = 0.0\nsamples = 8\nvalue = [14, 0]", fillcolor="#e58139"] ;
572 -> 626 ;
627 [label="age <= -1.89\ngini = 0.42\nsamples = 69\nvalue = [77, 33]", fillcolor="#f0b78e"] ;
571 -> 627 ;
628 [label="time <= 0.44\ngini = 0.36\nsamples = 40\nvalue = [51, 16]", fillcolor="#eda977"] ;
627 -> 628 ;
629 [label="time <= 0.15\ngini = 0.5\nsamples = 8\nvalue = [6, 6]", fillcolor="#ffffff"] ;
628 -> 629 ;
630 [label="memb_leng <= -1.07\ngini = 0.38\nsamples = 2\nvalue = [3, 1]", fillcolor="#eeab7b"] ;
629 -> 630 ;
631 [label="gini = 0.0\nsamples = 1\nvalue = [3, 0]", fillcolor="#e58139"] ;
630 -> 631 ;
632 [label="gini = 0.0\nsamples = 1\nvalue = [0, 1]", fillcolor="#399de5"] ;
630 -> 632 ;
633 [label="age <= -2.0\ngini = 0.47\nsamples = 6\nvalue = [3, 5]", fillcolor="#b0d8f5"] ;
629 -> 633 ;
634 [label="gini = 0.0\nsamples = 1\nvalue = [0, 2]", fillcolor="#399de5"] ;
633 -> 634 ;
635 [label="age <= -1.95\ngini = 0.5\nsamples = 5\nvalue = [3, 3]", fillcolor="#ffffff"] ;
633 -> 635 ;
636 [label="memb_leng <= -0.83\ngini = 0.5\nsamples = 2\nvalue = [1, 1]", fillcolor="#ffffff"] ;
635 -> 636 ;
637 [label="gini = 0.0\nsamples = 1\nvalue = [0, 1]", fillcolor="#399de5"] ;
636 -> 637 ;
638 [label="gini = 0.0\nsamples = 1\nvalue = [1, 0]", fillcolor="#e58139"] ;
636 -> 638 ;
639 [label="memb_leng <= -0.94\ngini = 0.5\nsamples = 3\nvalue = [2, 2]", fillcolor="#ffffff"] ;
635 -> 639 ;
640 [label="gini = 0.0\nsamples = 1\nvalue = [1, 0]", fillcolor="#e58139"] ;
639 -> 640 ;
641 [label="income <= -0.62\ngini = 0.44\nsamples = 2\nvalue = [1, 2]", fillcolor="#9ccef2"] ;
639 -> 641 ;
642 [label="gini = 0.0\nsamples = 1\nvalue = [1, 0]", fillcolor="#e58139"] ;
641 -> 642 ;
643 [label="gini = 0.0\nsamples = 1\nvalue = [0, 2]", fillcolor="#399de5"] ;
641 -> 643 ;
644 [label="memb_leng <= -0.61\ngini = 0.3\nsamples = 32\nvalue = [45, 10]", fillcolor="#eb9d65"] ;
628 -> 644 ;
645 [label="memb_leng <= -1.04\ngini = 0.2\nsamples = 22\nvalue = [32, 4]", fillcolor="#e89152"] ;
644 -> 645 ;
646 [label="time <= 0.79\ngini = 0.44\nsamples = 9\nvalue = [8, 4]", fillcolor="#f2c09c"] ;
645 -> 646 ;
647 [label="gini = 0.0\nsamples = 5\nvalue = [7, 0]", fillcolor="#e58139"] ;
646 -> 647 ;
648 [label="memb_leng <= -1.21\ngini = 0.32\nsamples = 4\nvalue = [1, 4]", fillcolor="#6ab6ec"] ;
646 -> 648 ;
649 [label="gini = 0.0\nsamples = 1\nvalue = [1, 0]", fillcolor="#e58139"] ;
648 -> 649 ;
650 [label="gini = 0.0\nsamples = 3\nvalue = [0, 4]", fillcolor="#399de5"] ;
648 -> 650 ;
651 [label="gini = 0.0\nsamples = 13\nvalue = [24, 0]", fillcolor="#e58139"] ;
645 -> 651 ;
652 [label="income <= -0.92\ngini = 0.43\nsamples = 10\nvalue = [13, 6]", fillcolor="#f1bb94"] ;
644 -> 652 ;
653 [label="gini = 0.0\nsamples = 2\nvalue = [0, 4]", fillcolor="#399de5"] ;
652 -> 653 ;
654 [label="memb_leng <= -0.54\ngini = 0.23\nsamples = 8\nvalue = [13, 2]", fillcolor="#e99457"] ;
652 -> 654 ;
655 [label="gini = 0.0\nsamples = 1\nvalue = [0, 1]", fillcolor="#399de5"] ;
654 -> 655 ;
656 [label="income <= 0.05\ngini = 0.13\nsamples = 7\nvalue = [13, 1]", fillcolor="#e78b48"] ;
654 -> 656 ;
657 [label="gini = 0.0\nsamples = 6\nvalue = [13, 0]", fillcolor="#e58139"] ;
656 -> 657 ;
658 [label="gini = 0.0\nsamples = 1\nvalue = [0, 1]", fillcolor="#399de5"] ;
656 -> 658 ;
659 [label="time <= 0.79\ngini = 0.48\nsamples = 29\nvalue = [26, 17]", fillcolor="#f6d3ba"] ;
627 -> 659 ;
660 [label="age <= -1.83\ngini = 0.5\nsamples = 22\nvalue = [16, 16]", fillcolor="#ffffff"] ;
659 -> 660 ;
661 [label="income <= -1.34\ngini = 0.49\nsamples = 13\nvalue = [11, 8]", fillcolor="#f8ddc9"] ;
660 -> 661 ;
662 [label="gini = 0.0\nsamples = 2\nvalue = [0, 4]", fillcolor="#399de5"] ;
661 -> 662 ;
663 [label="memb_leng <= -0.73\ngini = 0.39\nsamples = 11\nvalue = [11, 4]", fillcolor="#eeaf81"] ;
661 -> 663 ;
664 [label="gini = 0.0\nsamples = 5\nvalue = [6, 0]", fillcolor="#e58139"] ;
663 -> 664 ;
665 [label="income <= -0.85\ngini = 0.49\nsamples = 6\nvalue = [5, 4]", fillcolor="#fae6d7"] ;
663 -> 665 ;
666 [label="gini = 0.0\nsamples = 2\nvalue = [3, 0]", fillcolor="#e58139"] ;
665 -> 666 ;
667 [label="income <= -0.09\ngini = 0.44\nsamples = 4\nvalue = [2, 4]", fillcolor="#9ccef2"] ;
665 -> 667 ;
668 [label="gini = 0.0\nsamples = 3\nvalue = [0, 4]", fillcolor="#399de5"] ;
667 -> 668 ;
669 [label="gini = 0.0\nsamples = 1\nvalue = [2, 0]", fillcolor="#e58139"] ;
667 -> 669 ;
670 [label="income <= -1.15\ngini = 0.47\nsamples = 9\nvalue = [5, 8]", fillcolor="#b5daf5"] ;
660 -> 670 ;
671 [label="time <= 0.29\ngini = 0.28\nsamples = 4\nvalue = [1, 5]", fillcolor="#61b1ea"] ;
670 -> 671 ;
672 [label="gini = 0.0\nsamples = 1\nvalue = [0, 2]", fillcolor="#399de5"] ;
671 -> 672 ;
673 [label="memb_leng <= -0.83\ngini = 0.38\nsamples = 3\nvalue = [1, 3]", fillcolor="#7bbeee"] ;
671 -> 673 ;
674 [label="gini = 0.0\nsamples = 1\nvalue = [1, 0]", fillcolor="#e58139"] ;
673 -> 674 ;
675 [label="gini = 0.0\nsamples = 2\nvalue = [0, 3]", fillcolor="#399de5"] ;
673 -> 675 ;
676 [label="memb_leng <= -0.28\ngini = 0.49\nsamples = 5\nvalue = [4, 3]", fillcolor="#f8e0ce"] ;
670 -> 676 ;
677 [label="time <= 0.5\ngini = 0.32\nsamples = 4\nvalue = [4, 1]", fillcolor="#eca06a"] ;
676 -> 677 ;
678 [label="income <= 0.26\ngini = 0.5\nsamples = 2\nvalue = [1, 1]", fillcolor="#ffffff"] ;
677 -> 678 ;
679 [label="gini = 0.0\nsamples = 1\nvalue = [1, 0]", fillcolor="#e58139"] ;
678 -> 679 ;
680 [label="gini = 0.0\nsamples = 1\nvalue = [0, 1]", fillcolor="#399de5"] ;
678 -> 680 ;
681 [label="gini = 0.0\nsamples = 2\nvalue = [3, 0]", fillcolor="#e58139"] ;
677 -> 681 ;
682 [label="gini = 0.0\nsamples = 1\nvalue = [0, 2]", fillcolor="#399de5"] ;
676 -> 682 ;
683 [label="age <= -1.83\ngini = 0.17\nsamples = 7\nvalue = [10, 1]", fillcolor="#e88e4d"] ;
659 -> 683 ;
684 [label="gini = 0.0\nsamples = 3\nvalue = [4, 0]", fillcolor="#e58139"] ;
683 -> 684 ;
685 [label="income <= -0.57\ngini = 0.24\nsamples = 4\nvalue = [6, 1]", fillcolor="#e9965a"] ;
683 -> 685 ;
686 [label="gini = 0.0\nsamples = 3\nvalue = [6, 0]", fillcolor="#e58139"] ;
685 -> 686 ;
687 [label="gini = 0.0\nsamples = 1\nvalue = [0, 1]", fillcolor="#399de5"] ;
685 -> 687 ;
688 [label="age <= -2.0\ngini = 0.31\nsamples = 57\nvalue = [63, 15]", fillcolor="#eb9f68"] ;
570 -> 688 ;
689 [label="income <= -0.04\ngini = 0.07\nsamples = 17\nvalue = [26, 1]", fillcolor="#e68641"] ;
688 -> 689 ;
690 [label="gini = 0.0\nsamples = 14\nvalue = [24, 0]", fillcolor="#e58139"] ;
689 -> 690 ;
691 [label="time <= 0.44\ngini = 0.44\nsamples = 3\nvalue = [2, 1]", fillcolor="#f2c09c"] ;
689 -> 691 ;
692 [label="gini = 0.0\nsamples = 1\nvalue = [0, 1]", fillcolor="#399de5"] ;
691 -> 692 ;
693 [label="gini = 0.0\nsamples = 2\nvalue = [2, 0]", fillcolor="#e58139"] ;
691 -> 693 ;
694 [label="memb_leng <= -1.02\ngini = 0.4\nsamples = 40\nvalue = [37, 14]", fillcolor="#efb184"] ;
688 -> 694 ;
695 [label="gini = 0.0\nsamples = 7\nvalue = [7, 0]", fillcolor="#e58139"] ;
694 -> 695 ;
696 [label="age <= -1.83\ngini = 0.43\nsamples = 33\nvalue = [30, 14]", fillcolor="#f1bc95"] ;
694 -> 696 ;
697 [label="income <= -0.97\ngini = 0.39\nsamples = 26\nvalue = [25, 9]", fillcolor="#eeae80"] ;
696 -> 697 ;
698 [label="income <= -1.5\ngini = 0.5\nsamples = 8\nvalue = [5, 5]", fillcolor="#ffffff"] ;
697 -> 698 ;
699 [label="gini = 0.0\nsamples = 2\nvalue = [3, 0]", fillcolor="#e58139"] ;
698 -> 699 ;
700 [label="income <= -1.1\ngini = 0.41\nsamples = 6\nvalue = [2, 5]", fillcolor="#88c4ef"] ;
698 -> 700 ;
701 [label="time <= 0.79\ngini = 0.48\nsamples = 5\nvalue = [2, 3]", fillcolor="#bddef6"] ;
700 -> 701 ;
702 [label="income <= -1.2\ngini = 0.5\nsamples = 4\nvalue = [2, 2]", fillcolor="#ffffff"] ;
701 -> 702 ;
703 [label="income <= -1.27\ngini = 0.44\nsamples = 3\nvalue = [1, 2]", fillcolor="#9ccef2"] ;
702 -> 703 ;
704 [label="memb_leng <= -0.38\ngini = 0.5\nsamples = 2\nvalue = [1, 1]", fillcolor="#ffffff"] ;
703 -> 704 ;
705 [label="gini = 0.0\nsamples = 1\nvalue = [1, 0]", fillcolor="#e58139"] ;
704 -> 705 ;
706 [label="gini = 0.0\nsamples = 1\nvalue = [0, 1]", fillcolor="#399de5"] ;
704 -> 706 ;
707 [label="gini = 0.0\nsamples = 1\nvalue = [0, 1]", fillcolor="#399de5"] ;
703 -> 707 ;
708 [label="gini = 0.0\nsamples = 1\nvalue = [1, 0]", fillcolor="#e58139"] ;
702 -> 708 ;
709 [label="gini = 0.0\nsamples = 1\nvalue = [0, 1]", fillcolor="#399de5"] ;
701 -> 709 ;
710 [label="gini = 0.0\nsamples = 1\nvalue = [0, 2]", fillcolor="#399de5"] ;
700 -> 710 ;
711 [label="memb_leng <= -0.89\ngini = 0.28\nsamples = 18\nvalue = [20, 4]", fillcolor="#ea9a61"] ;
697 -> 711 ;
712 [label="gini = 0.0\nsamples = 1\nvalue = [0, 1]", fillcolor="#399de5"] ;
711 -> 712 ;
713 [label="age <= -1.89\ngini = 0.23\nsamples = 17\nvalue = [20, 3]", fillcolor="#e99457"] ;
711 -> 713 ;
714 [label="memb_leng <= -0.5\ngini = 0.34\nsamples = 11\nvalue = [11, 3]", fillcolor="#eca36f"] ;
713 -> 714 ;
715 [label="memb_leng <= -0.52\ngini = 0.42\nsamples = 7\nvalue = [7, 3]", fillcolor="#f0b78e"] ;
714 -> 715 ;
716 [label="income <= -0.23\ngini = 0.22\nsamples = 6\nvalue = [7, 1]", fillcolor="#e99355"] ;
715 -> 716 ;
717 [label="gini = 0.0\nsamples = 2\nvalue = [2, 0]", fillcolor="#e58139"] ;
716 -> 717 ;
718 [label="income <= 0.14\ngini = 0.28\nsamples = 4\nvalue = [5, 1]", fillcolor="#ea9a61"] ;
716 -> 718 ;
719 [label="time <= 0.15\ngini = 0.38\nsamples = 2\nvalue = [3, 1]", fillcolor="#eeab7b"] ;
718 -> 719 ;
720 [label="gini = 0.0\nsamples = 1\nvalue = [0, 1]", fillcolor="#399de5"] ;
719 -> 720 ;
721 [label="gini = 0.0\nsamples = 1\nvalue = [3, 0]", fillcolor="#e58139"] ;
719 -> 721 ;
722 [label="gini = 0.0\nsamples = 2\nvalue = [2, 0]", fillcolor="#e58139"] ;
718 -> 722 ;
723 [label="gini = 0.0\nsamples = 1\nvalue = [0, 2]", fillcolor="#399de5"] ;
715 -> 723 ;
724 [label="gini = 0.0\nsamples = 4\nvalue = [4, 0]", fillcolor="#e58139"] ;
714 -> 724 ;
725 [label="gini = 0.0\nsamples = 6\nvalue = [9, 0]", fillcolor="#e58139"] ;
713 -> 725 ;
726 [label="income <= -0.23\ngini = 0.5\nsamples = 7\nvalue = [5, 5]", fillcolor="#ffffff"] ;
696 -> 726 ;
727 [label="memb_leng <= -0.83\ngini = 0.41\nsamples = 5\nvalue = [5, 2]", fillcolor="#efb388"] ;
726 -> 727 ;
728 [label="gini = 0.0\nsamples = 1\nvalue = [0, 1]", fillcolor="#399de5"] ;
727 -> 728 ;
729 [label="time <= 0.35\ngini = 0.28\nsamples = 4\nvalue = [5, 1]", fillcolor="#ea9a61"] ;
727 -> 729 ;
730 [label="gini = 0.0\nsamples = 1\nvalue = [0, 1]", fillcolor="#399de5"] ;
729 -> 730 ;
731 [label="gini = 0.0\nsamples = 3\nvalue = [5, 0]", fillcolor="#e58139"] ;
729 -> 731 ;
732 [label="gini = 0.0\nsamples = 2\nvalue = [0, 3]", fillcolor="#399de5"] ;
726 -> 732 ;
733 [label="reward_offd <= 0.35\ngini = 0.24\nsamples = 98\nvalue = [137, 22]", fillcolor="#e99559"] ;
569 -> 733 ;
734 [label="time <= 0.44\ngini = 0.19\nsamples = 68\nvalue = [102, 12]", fillcolor="#e89050"] ;
733 -> 734 ;
735 [label="time <= 0.15\ngini = 0.38\nsamples = 22\nvalue = [26, 9]", fillcolor="#eead7e"] ;
734 -> 735 ;
736 [label="memb_leng <= -0.61\ngini = 0.29\nsamples = 14\nvalue = [19, 4]", fillcolor="#ea9c63"] ;
735 -> 736 ;
737 [label="gini = 0.0\nsamples = 9\nvalue = [16, 0]", fillcolor="#e58139"] ;
736 -> 737 ;
738 [label="offer_discount <= 0.5\ngini = 0.49\nsamples = 5\nvalue = [3, 4]", fillcolor="#cee6f8"] ;
736 -> 738 ;
739 [label="gini = 0.0\nsamples = 1\nvalue = [0, 2]", fillcolor="#399de5"] ;
738 -> 739 ;
740 [label="income <= -0.71\ngini = 0.48\nsamples = 4\nvalue = [3, 2]", fillcolor="#f6d5bd"] ;
738 -> 740 ;
741 [label="gini = 0.0\nsamples = 2\nvalue = [0, 2]", fillcolor="#399de5"] ;
740 -> 741 ;
742 [label="gini = 0.0\nsamples = 2\nvalue = [3, 0]", fillcolor="#e58139"] ;
740 -> 742 ;
743 [label="income <= -0.64\ngini = 0.49\nsamples = 8\nvalue = [7, 5]", fillcolor="#f8dbc6"] ;
735 -> 743 ;
744 [label="reward_offd <= 0.1\ngini = 0.28\nsamples = 4\nvalue = [5, 1]", fillcolor="#ea9a61"] ;
743 -> 744 ;
745 [label="gini = 0.0\nsamples = 2\nvalue = [4, 0]", fillcolor="#e58139"] ;
744 -> 745 ;
746 [label="age <= -1.69\ngini = 0.5\nsamples = 2\nvalue = [1, 1]", fillcolor="#ffffff"] ;
744 -> 746 ;
747 [label="gini = 0.0\nsamples = 1\nvalue = [1, 0]", fillcolor="#e58139"] ;
746 -> 747 ;
748 [label="gini = 0.0\nsamples = 1\nvalue = [0, 1]", fillcolor="#399de5"] ;
746 -> 748 ;
749 [label="reward_offd <= 0.1\ngini = 0.44\nsamples = 4\nvalue = [2, 4]", fillcolor="#9ccef2"] ;
743 -> 749 ;
750 [label="gini = 0.0\nsamples = 1\nvalue = [0, 1]", fillcolor="#399de5"] ;
749 -> 750 ;
751 [label="income <= 0.17\ngini = 0.48\nsamples = 3\nvalue = [2, 3]", fillcolor="#bddef6"] ;
749 -> 751 ;
752 [label="gini = 0.0\nsamples = 2\nvalue = [0, 3]", fillcolor="#399de5"] ;
751 -> 752 ;
753 [label="gini = 0.0\nsamples = 1\nvalue = [2, 0]", fillcolor="#e58139"] ;
751 -> 753 ;
754 [label="reward_offd <= 0.1\ngini = 0.07\nsamples = 46\nvalue = [76, 3]", fillcolor="#e68641"] ;
734 -> 754 ;
755 [label="memb_leng <= -1.14\ngini = 0.1\nsamples = 23\nvalue = [35, 2]", fillcolor="#e68844"] ;
754 -> 755 ;
756 [label="time <= 0.79\ngini = 0.44\nsamples = 5\nvalue = [4, 2]", fillcolor="#f2c09c"] ;
755 -> 756 ;
757 [label="income <= -0.13\ngini = 0.48\nsamples = 4\nvalue = [3, 2]", fillcolor="#f6d5bd"] ;
756 -> 757 ;
758 [label="income <= -0.34\ngini = 0.44\nsamples = 3\nvalue = [1, 2]", fillcolor="#9ccef2"] ;
757 -> 758 ;
759 [label="gini = 0.0\nsamples = 1\nvalue = [0, 1]", fillcolor="#399de5"] ;
758 -> 759 ;
760 [label="time <= 0.65\ngini = 0.5\nsamples = 2\nvalue = [1, 1]", fillcolor="#ffffff"] ;
758 -> 760 ;
761 [label="gini = 0.0\nsamples = 1\nvalue = [1, 0]", fillcolor="#e58139"] ;
760 -> 761 ;
762 [label="gini = 0.0\nsamples = 1\nvalue = [0, 1]", fillcolor="#399de5"] ;
760 -> 762 ;
763 [label="gini = 0.0\nsamples = 1\nvalue = [2, 0]", fillcolor="#e58139"] ;
757 -> 763 ;
764 [label="gini = 0.0\nsamples = 1\nvalue = [1, 0]", fillcolor="#e58139"] ;
756 -> 764 ;
765 [label="gini = 0.0\nsamples = 18\nvalue = [31, 0]", fillcolor="#e58139"] ;
755 -> 765 ;
766 [label="income <= -0.73\ngini = 0.05\nsamples = 23\nvalue = [41, 1]", fillcolor="#e6843e"] ;
754 -> 766 ;
767 [label="memb_leng <= -0.85\ngini = 0.12\nsamples = 7\nvalue = [14, 1]", fillcolor="#e78a47"] ;
766 -> 767 ;
768 [label="gini = 0.0\nsamples = 1\nvalue = [0, 1]", fillcolor="#399de5"] ;
767 -> 768 ;
769 [label="gini = 0.0\nsamples = 6\nvalue = [14, 0]", fillcolor="#e58139"] ;
767 -> 769 ;
770 [label="gini = 0.0\nsamples = 16\nvalue = [27, 0]", fillcolor="#e58139"] ;
766 -> 770 ;
771 [label="income <= -0.92\ngini = 0.35\nsamples = 30\nvalue = [35, 10]", fillcolor="#eca572"] ;
733 -> 771 ;
772 [label="memb_leng <= -0.44\ngini = 0.49\nsamples = 5\nvalue = [4, 5]", fillcolor="#d7ebfa"] ;
771 -> 772 ;
773 [label="income <= -1.5\ngini = 0.28\nsamples = 3\nvalue = [1, 5]", fillcolor="#61b1ea"] ;
772 -> 773 ;
774 [label="gini = 0.0\nsamples = 1\nvalue = [1, 0]", fillcolor="#e58139"] ;
773 -> 774 ;
775 [label="gini = 0.0\nsamples = 2\nvalue = [0, 5]", fillcolor="#399de5"] ;
773 -> 775 ;
776 [label="gini = 0.0\nsamples = 2\nvalue = [3, 0]", fillcolor="#e58139"] ;
772 -> 776 ;
777 [label="income <= 0.14\ngini = 0.24\nsamples = 25\nvalue = [31, 5]", fillcolor="#e99559"] ;
771 -> 777 ;
778 [label="memb_leng <= -0.83\ngini = 0.32\nsamples = 19\nvalue = [20, 5]", fillcolor="#eca06a"] ;
777 -> 778 ;
779 [label="income <= -0.6\ngini = 0.5\nsamples = 7\nvalue = [4, 4]", fillcolor="#ffffff"] ;
778 -> 779 ;
780 [label="gini = 0.0\nsamples = 2\nvalue = [2, 0]", fillcolor="#e58139"] ;
779 -> 780 ;
781 [label="memb_leng <= -1.09\ngini = 0.44\nsamples = 5\nvalue = [2, 4]", fillcolor="#9ccef2"] ;
779 -> 781 ;
782 [label="gini = 0.0\nsamples = 2\nvalue = [2, 0]", fillcolor="#e58139"] ;
781 -> 782 ;
783 [label="gini = 0.0\nsamples = 3\nvalue = [0, 4]", fillcolor="#399de5"] ;
781 -> 783 ;
784 [label="income <= 0.05\ngini = 0.11\nsamples = 12\nvalue = [16, 1]", fillcolor="#e78945"] ;
778 -> 784 ;
785 [label="gini = 0.0\nsamples = 10\nvalue = [15, 0]", fillcolor="#e58139"] ;
784 -> 785 ;
786 [label="memb_leng <= -0.48\ngini = 0.5\nsamples = 2\nvalue = [1, 1]", fillcolor="#ffffff"] ;
784 -> 786 ;
787 [label="gini = 0.0\nsamples = 1\nvalue = [0, 1]", fillcolor="#399de5"] ;
786 -> 787 ;
788 [label="gini = 0.0\nsamples = 1\nvalue = [1, 0]", fillcolor="#e58139"] ;
786 -> 788 ;
789 [label="gini = 0.0\nsamples = 6\nvalue = [11, 0]", fillcolor="#e58139"] ;
777 -> 789 ;
790 [label="time <= 0.94\ngini = 0.44\nsamples = 345\nvalue = [371, 176]", fillcolor="#f1bd97"] ;
568 -> 790 ;
791 [label="offer_discount <= 0.5\ngini = 0.42\nsamples = 280\nvalue = [317, 134]", fillcolor="#f0b68d"] ;
790 -> 791 ;
792 [label="age <= -1.49\ngini = 0.43\nsamples = 192\nvalue = [221, 100]", fillcolor="#f1ba93"] ;
791 -> 792 ;
793 [label="time <= 0.44\ngini = 0.5\nsamples = 34\nvalue = [26, 31]", fillcolor="#dfeffb"] ;
792 -> 793 ;
794 [label="time <= 0.15\ngini = 0.42\nsamples = 13\nvalue = [6, 14]", fillcolor="#8ec7f0"] ;
793 -> 794 ;
795 [label="difficulty <= 0.12\ngini = 0.44\nsamples = 5\nvalue = [4, 2]", fillcolor="#f2c09c"] ;
794 -> 795 ;
796 [label="income <= -0.53\ngini = 0.44\nsamples = 3\nvalue = [1, 2]", fillcolor="#9ccef2"] ;
795 -> 796 ;
797 [label="gini = 0.0\nsamples = 2\nvalue = [0, 2]", fillcolor="#399de5"] ;
796 -> 797 ;
798 [label="gini = 0.0\nsamples = 1\nvalue = [1, 0]", fillcolor="#e58139"] ;
796 -> 798 ;
799 [label="gini = 0.0\nsamples = 2\nvalue = [3, 0]", fillcolor="#e58139"] ;
795 -> 799 ;
800 [label="income <= 0.21\ngini = 0.24\nsamples = 8\nvalue = [2, 12]", fillcolor="#5aade9"] ;
794 -> 800 ;
801 [label="duration <= 0.36\ngini = 0.14\nsamples = 7\nvalue = [1, 12]", fillcolor="#49a5e7"] ;
800 -> 801 ;
802 [label="gini = 0.0\nsamples = 2\nvalue = [0, 4]", fillcolor="#399de5"] ;
801 -> 802 ;
803 [label="age <= -1.54\ngini = 0.2\nsamples = 5\nvalue = [1, 8]", fillcolor="#52a9e8"] ;
801 -> 803 ;
804 [label="income <= -1.01\ngini = 0.22\nsamples = 4\nvalue = [1, 7]", fillcolor="#55abe9"] ;
803 -> 804 ;
805 [label="memb_leng <= -0.82\ngini = 0.44\nsamples = 2\nvalue = [1, 2]", fillcolor="#9ccef2"] ;
804 -> 805 ;
806 [label="gini = 0.0\nsamples = 1\nvalue = [1, 0]", fillcolor="#e58139"] ;
805 -> 806 ;
807 [label="gini = 0.0\nsamples = 1\nvalue = [0, 2]", fillcolor="#399de5"] ;
805 -> 807 ;
808 [label="gini = 0.0\nsamples = 2\nvalue = [0, 5]", fillcolor="#399de5"] ;
804 -> 808 ;
809 [label="gini = 0.0\nsamples = 1\nvalue = [0, 1]", fillcolor="#399de5"] ;
803 -> 809 ;
810 [label="gini = 0.0\nsamples = 1\nvalue = [1, 0]", fillcolor="#e58139"] ;
800 -> 810 ;
811 [label="duration <= 0.36\ngini = 0.5\nsamples = 21\nvalue = [20, 17]", fillcolor="#fbece1"] ;
793 -> 811 ;
812 [label="time <= 0.65\ngini = 0.5\nsamples = 11\nvalue = [10, 12]", fillcolor="#deeffb"] ;
811 -> 812 ;
813 [label="memb_leng <= -0.28\ngini = 0.48\nsamples = 5\nvalue = [4, 6]", fillcolor="#bddef6"] ;
812 -> 813 ;
814 [label="income <= -0.2\ngini = 0.44\nsamples = 3\nvalue = [4, 2]", fillcolor="#f2c09c"] ;
813 -> 814 ;
815 [label="memb_leng <= -0.52\ngini = 0.44\nsamples = 2\nvalue = [1, 2]", fillcolor="#9ccef2"] ;
814 -> 815 ;
816 [label="gini = 0.0\nsamples = 1\nvalue = [1, 0]", fillcolor="#e58139"] ;
815 -> 816 ;
817 [label="gini = 0.0\nsamples = 1\nvalue = [0, 2]", fillcolor="#399de5"] ;
815 -> 817 ;
818 [label="gini = 0.0\nsamples = 1\nvalue = [3, 0]", fillcolor="#e58139"] ;
814 -> 818 ;
819 [label="gini = 0.0\nsamples = 2\nvalue = [0, 4]", fillcolor="#399de5"] ;
813 -> 819 ;
820 [label="time <= 0.79\ngini = 0.5\nsamples = 6\nvalue = [6, 6]", fillcolor="#ffffff"] ;
812 -> 820 ;
821 [label="memb_leng <= -0.64\ngini = 0.48\nsamples = 3\nvalue = [3, 2]", fillcolor="#f6d5bd"] ;
820 -> 821 ;
822 [label="gini = 0.0\nsamples = 2\nvalue = [3, 0]", fillcolor="#e58139"] ;
821 -> 822 ;
823 [label="gini = 0.0\nsamples = 1\nvalue = [0, 2]", fillcolor="#399de5"] ;
821 -> 823 ;
824 [label="age <= -1.54\ngini = 0.49\nsamples = 3\nvalue = [3, 4]", fillcolor="#cee6f8"] ;
820 -> 824 ;
825 [label="gini = 0.0\nsamples = 1\nvalue = [3, 0]", fillcolor="#e58139"] ;
824 -> 825 ;
826 [label="gini = 0.0\nsamples = 2\nvalue = [0, 4]", fillcolor="#399de5"] ;
824 -> 826 ;
827 [label="memb_leng <= -1.01\ngini = 0.44\nsamples = 10\nvalue = [10, 5]", fillcolor="#f2c09c"] ;
811 -> 827 ;
828 [label="gini = 0.0\nsamples = 5\nvalue = [9, 0]", fillcolor="#e58139"] ;
827 -> 828 ;
829 [label="income <= -0.02\ngini = 0.28\nsamples = 5\nvalue = [1, 5]", fillcolor="#61b1ea"] ;
827 -> 829 ;
830 [label="gini = 0.0\nsamples = 4\nvalue = [0, 5]", fillcolor="#399de5"] ;
829 -> 830 ;
831 [label="gini = 0.0\nsamples = 1\nvalue = [1, 0]", fillcolor="#e58139"] ;
829 -> 831 ;
832 [label="time <= 0.65\ngini = 0.39\nsamples = 158\nvalue = [195, 69]", fillcolor="#eeae7f"] ;
792 -> 832 ;
833 [label="income <= -1.47\ngini = 0.34\nsamples = 102\nvalue = [128, 36]", fillcolor="#eca471"] ;
832 -> 833 ;
834 [label="gini = 0.0\nsamples = 10\nvalue = [14, 0]", fillcolor="#e58139"] ;
833 -> 834 ;
835 [label="age <= -1.2\ngini = 0.36\nsamples = 92\nvalue = [114, 36]", fillcolor="#eda978"] ;
833 -> 835 ;
836 [label="duration <= 0.36\ngini = 0.21\nsamples = 51\nvalue = [76, 10]", fillcolor="#e89253"] ;
835 -> 836 ;
837 [label="income <= -0.73\ngini = 0.23\nsamples = 25\nvalue = [40, 6]", fillcolor="#e99457"] ;
836 -> 837 ;
838 [label="memb_leng <= -1.01\ngini = 0.36\nsamples = 13\nvalue = [20, 6]", fillcolor="#eda774"] ;
837 -> 838 ;
839 [label="memb_leng <= -1.21\ngini = 0.41\nsamples = 3\nvalue = [2, 5]", fillcolor="#88c4ef"] ;
838 -> 839 ;
840 [label="gini = 0.0\nsamples = 1\nvalue = [2, 0]", fillcolor="#e58139"] ;
839 -> 840 ;
841 [label="gini = 0.0\nsamples = 2\nvalue = [0, 5]", fillcolor="#399de5"] ;
839 -> 841 ;
842 [label="memb_leng <= -0.53\ngini = 0.1\nsamples = 10\nvalue = [18, 1]", fillcolor="#e68844"] ;
838 -> 842 ;
843 [label="gini = 0.0\nsamples = 7\nvalue = [13, 0]", fillcolor="#e58139"] ;
842 -> 843 ;
844 [label="income <= -1.2\ngini = 0.28\nsamples = 3\nvalue = [5, 1]", fillcolor="#ea9a61"] ;
842 -> 844 ;
845 [label="gini = 0.0\nsamples = 1\nvalue = [3, 0]", fillcolor="#e58139"] ;
844 -> 845 ;
846 [label="time <= 0.15\ngini = 0.44\nsamples = 2\nvalue = [2, 1]", fillcolor="#f2c09c"] ;
844 -> 846 ;
847 [label="gini = 0.0\nsamples = 1\nvalue = [0, 1]", fillcolor="#399de5"] ;
846 -> 847 ;
848 [label="gini = 0.0\nsamples = 1\nvalue = [2, 0]", fillcolor="#e58139"] ;
846 -> 848 ;
849 [label="gini = 0.0\nsamples = 12\nvalue = [20, 0]", fillcolor="#e58139"] ;
837 -> 849 ;
850 [label="age <= -1.31\ngini = 0.18\nsamples = 26\nvalue = [36, 4]", fillcolor="#e88f4f"] ;
836 -> 850 ;
851 [label="age <= -1.43\ngini = 0.29\nsamples = 13\nvalue = [14, 3]", fillcolor="#eb9c63"] ;
850 -> 851 ;
852 [label="gini = 0.0\nsamples = 4\nvalue = [6, 0]", fillcolor="#e58139"] ;
851 -> 852 ;
853 [label="memb_leng <= -0.92\ngini = 0.4\nsamples = 9\nvalue = [8, 3]", fillcolor="#efb083"] ;
851 -> 853 ;
854 [label="memb_leng <= -1.0\ngini = 0.44\nsamples = 2\nvalue = [1, 2]", fillcolor="#9ccef2"] ;
853 -> 854 ;
855 [label="gini = 0.0\nsamples = 1\nvalue = [1, 0]", fillcolor="#e58139"] ;
854 -> 855 ;
856 [label="gini = 0.0\nsamples = 1\nvalue = [0, 2]", fillcolor="#399de5"] ;
854 -> 856 ;
857 [label="age <= -1.37\ngini = 0.22\nsamples = 7\nvalue = [7, 1]", fillcolor="#e99355"] ;
853 -> 857 ;
858 [label="gini = 0.0\nsamples = 4\nvalue = [5, 0]", fillcolor="#e58139"] ;
857 -> 858 ;
859 [label="income <= -0.69\ngini = 0.44\nsamples = 3\nvalue = [2, 1]", fillcolor="#f2c09c"] ;
857 -> 859 ;
860 [label="gini = 0.0\nsamples = 1\nvalue = [0, 1]", fillcolor="#399de5"] ;
859 -> 860 ;
861 [label="gini = 0.0\nsamples = 2\nvalue = [2, 0]", fillcolor="#e58139"] ;
859 -> 861 ;
862 [label="age <= -1.26\ngini = 0.08\nsamples = 13\nvalue = [22, 1]", fillcolor="#e68742"] ;
850 -> 862 ;
863 [label="memb_leng <= -0.72\ngini = 0.17\nsamples = 4\nvalue = [10, 1]", fillcolor="#e88e4d"] ;
862 -> 863 ;
864 [label="gini = 0.0\nsamples = 1\nvalue = [0, 1]", fillcolor="#399de5"] ;
863 -> 864 ;
865 [label="gini = 0.0\nsamples = 3\nvalue = [10, 0]", fillcolor="#e58139"] ;
863 -> 865 ;
866 [label="gini = 0.0\nsamples = 9\nvalue = [12, 0]", fillcolor="#e58139"] ;
862 -> 866 ;
867 [label="duration <= 0.36\ngini = 0.48\nsamples = 41\nvalue = [38, 26]", fillcolor="#f7d7c0"] ;
835 -> 867 ;
868 [label="memb_leng <= -1.01\ngini = 0.5\nsamples = 21\nvalue = [16, 15]", fillcolor="#fdf7f3"] ;
867 -> 868 ;
869 [label="gini = 0.0\nsamples = 3\nvalue = [4, 0]", fillcolor="#e58139"] ;
868 -> 869 ;
870 [label="memb_leng <= -0.55\ngini = 0.49\nsamples = 18\nvalue = [12, 15]", fillcolor="#d7ebfa"] ;
868 -> 870 ;
871 [label="memb_leng <= -0.8\ngini = 0.38\nsamples = 9\nvalue = [4, 12]", fillcolor="#7bbeee"] ;
870 -> 871 ;
872 [label="memb_leng <= -0.88\ngini = 0.49\nsamples = 4\nvalue = [4, 3]", fillcolor="#f8e0ce"] ;
871 -> 872 ;
873 [label="memb_leng <= -0.89\ngini = 0.38\nsamples = 3\nvalue = [1, 3]", fillcolor="#7bbeee"] ;
872 -> 873 ;
874 [label="income <= -0.99\ngini = 0.5\nsamples = 2\nvalue = [1, 1]", fillcolor="#ffffff"] ;
873 -> 874 ;
875 [label="gini = 0.0\nsamples = 1\nvalue = [0, 1]", fillcolor="#399de5"] ;
874 -> 875 ;
876 [label="gini = 0.0\nsamples = 1\nvalue = [1, 0]", fillcolor="#e58139"] ;
874 -> 876 ;
877 [label="gini = 0.0\nsamples = 1\nvalue = [0, 2]", fillcolor="#399de5"] ;
873 -> 877 ;
878 [label="gini = 0.0\nsamples = 1\nvalue = [3, 0]", fillcolor="#e58139"] ;
872 -> 878 ;
879 [label="gini = 0.0\nsamples = 5\nvalue = [0, 9]", fillcolor="#399de5"] ;
871 -> 879 ;
880 [label="income <= -0.29\ngini = 0.4\nsamples = 9\nvalue = [8, 3]", fillcolor="#efb083"] ;
870 -> 880 ;
881 [label="time <= 0.15\ngini = 0.49\nsamples = 6\nvalue = [4, 3]", fillcolor="#f8e0ce"] ;
880 -> 881 ;
882 [label="gini = 0.0\nsamples = 2\nvalue = [3, 0]", fillcolor="#e58139"] ;
881 -> 882 ;
883 [label="time <= 0.44\ngini = 0.38\nsamples = 4\nvalue = [1, 3]", fillcolor="#7bbeee"] ;
881 -> 883 ;
884 [label="gini = 0.0\nsamples = 2\nvalue = [0, 2]", fillcolor="#399de5"] ;
883 -> 884 ;
885 [label="age <= -1.11\ngini = 0.5\nsamples = 2\nvalue = [1, 1]", fillcolor="#ffffff"] ;
883 -> 885 ;
886 [label="gini = 0.0\nsamples = 1\nvalue = [1, 0]", fillcolor="#e58139"] ;
885 -> 886 ;
887 [label="gini = 0.0\nsamples = 1\nvalue = [0, 1]", fillcolor="#399de5"] ;
885 -> 887 ;
888 [label="gini = 0.0\nsamples = 3\nvalue = [4, 0]", fillcolor="#e58139"] ;
880 -> 888 ;
889 [label="time <= 0.44\ngini = 0.44\nsamples = 20\nvalue = [22, 11]", fillcolor="#f2c09c"] ;
867 -> 889 ;
890 [label="memb_leng <= -1.11\ngini = 0.5\nsamples = 10\nvalue = [9, 10]", fillcolor="#ebf5fc"] ;
889 -> 890 ;
891 [label="gini = 0.0\nsamples = 1\nvalue = [0, 3]", fillcolor="#399de5"] ;
890 -> 891 ;
892 [label="time <= 0.15\ngini = 0.49\nsamples = 9\nvalue = [9, 7]", fillcolor="#f9e3d3"] ;
890 -> 892 ;
893 [label="age <= -1.14\ngini = 0.22\nsamples = 6\nvalue = [7, 1]", fillcolor="#e99355"] ;
892 -> 893 ;
894 [label="memb_leng <= -0.91\ngini = 0.5\nsamples = 2\nvalue = [1, 1]", fillcolor="#ffffff"] ;
893 -> 894 ;
895 [label="gini = 0.0\nsamples = 1\nvalue = [1, 0]", fillcolor="#e58139"] ;
894 -> 895 ;
896 [label="gini = 0.0\nsamples = 1\nvalue = [0, 1]", fillcolor="#399de5"] ;
894 -> 896 ;
897 [label="gini = 0.0\nsamples = 4\nvalue = [6, 0]", fillcolor="#e58139"] ;
893 -> 897 ;
898 [label="income <= -1.4\ngini = 0.38\nsamples = 3\nvalue = [2, 6]", fillcolor="#7bbeee"] ;
892 -> 898 ;
899 [label="gini = 0.0\nsamples = 1\nvalue = [0, 3]", fillcolor="#399de5"] ;
898 -> 899 ;
900 [label="memb_leng <= -0.82\ngini = 0.48\nsamples = 2\nvalue = [2, 3]", fillcolor="#bddef6"] ;
898 -> 900 ;
901 [label="gini = 0.0\nsamples = 1\nvalue = [2, 0]", fillcolor="#e58139"] ;
900 -> 901 ;
902 [label="gini = 0.0\nsamples = 1\nvalue = [0, 3]", fillcolor="#399de5"] ;
900 -> 902 ;
903 [label="age <= -1.08\ngini = 0.13\nsamples = 10\nvalue = [13, 1]", fillcolor="#e78b48"] ;
889 -> 903 ;
904 [label="gini = 0.0\nsamples = 6\nvalue = [7, 0]", fillcolor="#e58139"] ;
903 -> 904 ;
905 [label="income <= -1.36\ngini = 0.24\nsamples = 4\nvalue = [6, 1]", fillcolor="#e9965a"] ;
903 -> 905 ;
906 [label="gini = 0.0\nsamples = 1\nvalue = [0, 1]", fillcolor="#399de5"] ;
905 -> 906 ;
907 [label="gini = 0.0\nsamples = 3\nvalue = [6, 0]", fillcolor="#e58139"] ;
905 -> 907 ;
908 [label="age <= -1.37\ngini = 0.44\nsamples = 56\nvalue = [67, 33]", fillcolor="#f2bf9b"] ;
832 -> 908 ;
909 [label="memb_leng <= -0.89\ngini = 0.5\nsamples = 12\nvalue = [14, 15]", fillcolor="#f2f8fd"] ;
908 -> 909 ;
910 [label="gini = 0.0\nsamples = 5\nvalue = [0, 13]", fillcolor="#399de5"] ;
909 -> 910 ;
911 [label="income <= -0.11\ngini = 0.22\nsamples = 7\nvalue = [14, 2]", fillcolor="#e99355"] ;
909 -> 911 ;
912 [label="gini = 0.0\nsamples = 6\nvalue = [14, 0]", fillcolor="#e58139"] ;
911 -> 912 ;
913 [label="gini = 0.0\nsamples = 1\nvalue = [0, 2]", fillcolor="#399de5"] ;
911 -> 913 ;
914 [label="memb_leng <= -1.15\ngini = 0.38\nsamples = 44\nvalue = [53, 18]", fillcolor="#eeac7c"] ;
908 -> 914 ;
915 [label="difficulty <= 0.12\ngini = 0.41\nsamples = 3\nvalue = [2, 5]", fillcolor="#88c4ef"] ;
914 -> 915 ;
916 [label="gini = 0.0\nsamples = 1\nvalue = [2, 0]", fillcolor="#e58139"] ;
915 -> 916 ;
917 [label="gini = 0.0\nsamples = 2\nvalue = [0, 5]", fillcolor="#399de5"] ;
915 -> 917 ;
918 [label="memb_leng <= -0.39\ngini = 0.32\nsamples = 41\nvalue = [51, 13]", fillcolor="#eca16b"] ;
914 -> 918 ;
919 [label="reward_offd <= 0.25\ngini = 0.29\nsamples = 39\nvalue = [51, 11]", fillcolor="#eb9c64"] ;
918 -> 919 ;
920 [label="income <= 0.21\ngini = 0.34\nsamples = 16\nvalue = [18, 5]", fillcolor="#eca470"] ;
919 -> 920 ;
921 [label="time <= 0.79\ngini = 0.3\nsamples = 15\nvalue = [18, 4]", fillcolor="#eb9d65"] ;
920 -> 921 ;
922 [label="gini = 0.0\nsamples = 5\nvalue = [6, 0]", fillcolor="#e58139"] ;
921 -> 922 ;
923 [label="income <= -0.69\ngini = 0.38\nsamples = 10\nvalue = [12, 4]", fillcolor="#eeab7b"] ;
921 -> 923 ;
924 [label="memb_leng <= -0.89\ngini = 0.44\nsamples = 7\nvalue = [8, 4]", fillcolor="#f2c09c"] ;
923 -> 924 ;
925 [label="income <= -1.36\ngini = 0.35\nsamples = 5\nvalue = [7, 2]", fillcolor="#eca572"] ;
924 -> 925 ;
926 [label="age <= -1.11\ngini = 0.48\nsamples = 3\nvalue = [3, 2]", fillcolor="#f6d5bd"] ;
925 -> 926 ;
927 [label="income <= -1.47\ngini = 0.5\nsamples = 2\nvalue = [2, 2]", fillcolor="#ffffff"] ;
926 -> 927 ;
928 [label="gini = 0.0\nsamples = 1\nvalue = [2, 0]", fillcolor="#e58139"] ;
927 -> 928 ;
929 [label="gini = 0.0\nsamples = 1\nvalue = [0, 2]", fillcolor="#399de5"] ;
927 -> 929 ;
930 [label="gini = 0.0\nsamples = 1\nvalue = [1, 0]", fillcolor="#e58139"] ;
926 -> 930 ;
931 [label="gini = 0.0\nsamples = 2\nvalue = [4, 0]", fillcolor="#e58139"] ;
925 -> 931 ;
932 [label="age <= -1.23\ngini = 0.44\nsamples = 2\nvalue = [1, 2]", fillcolor="#9ccef2"] ;
924 -> 932 ;
933 [label="gini = 0.0\nsamples = 1\nvalue = [1, 0]", fillcolor="#e58139"] ;
932 -> 933 ;
934 [label="gini = 0.0\nsamples = 1\nvalue = [0, 2]", fillcolor="#399de5"] ;
932 -> 934 ;
935 [label="gini = 0.0\nsamples = 3\nvalue = [4, 0]", fillcolor="#e58139"] ;
923 -> 935 ;
936 [label="gini = 0.0\nsamples = 1\nvalue = [0, 1]", fillcolor="#399de5"] ;
920 -> 936 ;
937 [label="memb_leng <= -0.7\ngini = 0.26\nsamples = 23\nvalue = [33, 6]", fillcolor="#ea985d"] ;
919 -> 937 ;
938 [label="time <= 0.79\ngini = 0.36\nsamples = 14\nvalue = [19, 6]", fillcolor="#eda978"] ;
937 -> 938 ;
939 [label="income <= -0.02\ngini = 0.24\nsamples = 8\nvalue = [12, 2]", fillcolor="#e9965a"] ;
938 -> 939 ;
940 [label="gini = 0.0\nsamples = 7\nvalue = [12, 0]", fillcolor="#e58139"] ;
939 -> 940 ;
941 [label="gini = 0.0\nsamples = 1\nvalue = [0, 2]", fillcolor="#399de5"] ;
939 -> 941 ;
942 [label="age <= -1.08\ngini = 0.46\nsamples = 6\nvalue = [7, 4]", fillcolor="#f4c9aa"] ;
938 -> 942 ;
943 [label="gini = 0.0\nsamples = 4\nvalue = [7, 0]", fillcolor="#e58139"] ;
942 -> 943 ;
944 [label="gini = 0.0\nsamples = 2\nvalue = [0, 4]", fillcolor="#399de5"] ;
942 -> 944 ;
945 [label="gini = 0.0\nsamples = 9\nvalue = [14, 0]", fillcolor="#e58139"] ;
937 -> 945 ;
946 [label="gini = 0.0\nsamples = 2\nvalue = [0, 2]", fillcolor="#399de5"] ;
918 -> 946 ;
947 [label="income <= -1.34\ngini = 0.39\nsamples = 88\nvalue = [96, 34]", fillcolor="#eeae7f"] ;
791 -> 947 ;
948 [label="income <= -1.38\ngini = 0.5\nsamples = 14\nvalue = [10, 9]", fillcolor="#fcf2eb"] ;
947 -> 948 ;
949 [label="time <= 0.65\ngini = 0.48\nsamples = 13\nvalue = [10, 7]", fillcolor="#f7d9c4"] ;
948 -> 949 ;
950 [label="time <= 0.44\ngini = 0.49\nsamples = 9\nvalue = [5, 7]", fillcolor="#c6e3f8"] ;
949 -> 950 ;
951 [label="income <= -1.47\ngini = 0.49\nsamples = 6\nvalue = [4, 3]", fillcolor="#f8e0ce"] ;
950 -> 951 ;
952 [label="memb_leng <= -0.94\ngini = 0.48\nsamples = 4\nvalue = [2, 3]", fillcolor="#bddef6"] ;
951 -> 952 ;
953 [label="gini = 0.0\nsamples = 1\nvalue = [0, 2]", fillcolor="#399de5"] ;
952 -> 953 ;
954 [label="time <= 0.15\ngini = 0.44\nsamples = 3\nvalue = [2, 1]", fillcolor="#f2c09c"] ;
952 -> 954 ;
955 [label="gini = 0.0\nsamples = 1\nvalue = [1, 0]", fillcolor="#e58139"] ;
954 -> 955 ;
956 [label="memb_leng <= -0.67\ngini = 0.5\nsamples = 2\nvalue = [1, 1]", fillcolor="#ffffff"] ;
954 -> 956 ;
957 [label="gini = 0.0\nsamples = 1\nvalue = [1, 0]", fillcolor="#e58139"] ;
956 -> 957 ;
958 [label="gini = 0.0\nsamples = 1\nvalue = [0, 1]", fillcolor="#399de5"] ;
956 -> 958 ;
959 [label="gini = 0.0\nsamples = 2\nvalue = [2, 0]", fillcolor="#e58139"] ;
951 -> 959 ;
960 [label="age <= -1.49\ngini = 0.32\nsamples = 3\nvalue = [1, 4]", fillcolor="#6ab6ec"] ;
950 -> 960 ;
961 [label="gini = 0.0\nsamples = 1\nvalue = [1, 0]", fillcolor="#e58139"] ;
960 -> 961 ;
962 [label="gini = 0.0\nsamples = 2\nvalue = [0, 4]", fillcolor="#399de5"] ;
960 -> 962 ;
963 [label="gini = 0.0\nsamples = 4\nvalue = [5, 0]", fillcolor="#e58139"] ;
949 -> 963 ;
964 [label="gini = 0.0\nsamples = 1\nvalue = [0, 2]", fillcolor="#399de5"] ;
948 -> 964 ;
965 [label="time <= 0.65\ngini = 0.35\nsamples = 74\nvalue = [86, 25]", fillcolor="#eda673"] ;
947 -> 965 ;
966 [label="memb_leng <= -0.34\ngini = 0.32\nsamples = 41\nvalue = [52, 13]", fillcolor="#eca06a"] ;
965 -> 966 ;
967 [label="time <= 0.44\ngini = 0.3\nsamples = 40\nvalue = [52, 12]", fillcolor="#eb9e67"] ;
966 -> 967 ;
968 [label="age <= -1.26\ngini = 0.34\nsamples = 32\nvalue = [39, 11]", fillcolor="#eca571"] ;
967 -> 968 ;
969 [label="age <= -1.31\ngini = 0.46\nsamples = 19\nvalue = [18, 10]", fillcolor="#f3c7a7"] ;
968 -> 969 ;
970 [label="memb_leng <= -0.75\ngini = 0.4\nsamples = 17\nvalue = [18, 7]", fillcolor="#efb286"] ;
969 -> 970 ;
971 [label="memb_leng <= -0.8\ngini = 0.48\nsamples = 12\nvalue = [10, 7]", fillcolor="#f7d9c4"] ;
970 -> 971 ;
972 [label="time <= 0.15\ngini = 0.28\nsamples = 9\nvalue = [10, 2]", fillcolor="#ea9a61"] ;
971 -> 972 ;
973 [label="memb_leng <= -1.03\ngini = 0.38\nsamples = 6\nvalue = [6, 2]", fillcolor="#eeab7b"] ;
972 -> 973 ;
974 [label="gini = 0.0\nsamples = 3\nvalue = [5, 0]", fillcolor="#e58139"] ;
973 -> 974 ;
975 [label="memb_leng <= -0.87\ngini = 0.44\nsamples = 3\nvalue = [1, 2]", fillcolor="#9ccef2"] ;
973 -> 975 ;
976 [label="gini = 0.0\nsamples = 2\nvalue = [0, 2]", fillcolor="#399de5"] ;
975 -> 976 ;
977 [label="gini = 0.0\nsamples = 1\nvalue = [1, 0]", fillcolor="#e58139"] ;
975 -> 977 ;
978 [label="gini = 0.0\nsamples = 3\nvalue = [4, 0]", fillcolor="#e58139"] ;
972 -> 978 ;
979 [label="gini = 0.0\nsamples = 3\nvalue = [0, 5]", fillcolor="#399de5"] ;
971 -> 979 ;
980 [label="gini = 0.0\nsamples = 5\nvalue = [8, 0]", fillcolor="#e58139"] ;
970 -> 980 ;
981 [label="gini = 0.0\nsamples = 2\nvalue = [0, 3]", fillcolor="#399de5"] ;
969 -> 981 ;
982 [label="time <= 0.15\ngini = 0.09\nsamples = 13\nvalue = [21, 1]", fillcolor="#e68742"] ;
968 -> 982 ;
983 [label="income <= -0.76\ngini = 0.17\nsamples = 5\nvalue = [10, 1]", fillcolor="#e88e4d"] ;
982 -> 983 ;
984 [label="income <= -0.97\ngini = 0.32\nsamples = 3\nvalue = [4, 1]", fillcolor="#eca06a"] ;
983 -> 984 ;
985 [label="gini = 0.0\nsamples = 2\nvalue = [4, 0]", fillcolor="#e58139"] ;
984 -> 985 ;
986 [label="gini = 0.0\nsamples = 1\nvalue = [0, 1]", fillcolor="#399de5"] ;
984 -> 986 ;
987 [label="gini = 0.0\nsamples = 2\nvalue = [6, 0]", fillcolor="#e58139"] ;
983 -> 987 ;
988 [label="gini = 0.0\nsamples = 8\nvalue = [11, 0]", fillcolor="#e58139"] ;
982 -> 988 ;
989 [label="income <= -0.62\ngini = 0.13\nsamples = 8\nvalue = [13, 1]", fillcolor="#e78b48"] ;
967 -> 989 ;
990 [label="gini = 0.0\nsamples = 5\nvalue = [11, 0]", fillcolor="#e58139"] ;
989 -> 990 ;
991 [label="memb_leng <= -0.78\ngini = 0.44\nsamples = 3\nvalue = [2, 1]", fillcolor="#f2c09c"] ;
989 -> 991 ;
992 [label="gini = 0.0\nsamples = 2\nvalue = [2, 0]", fillcolor="#e58139"] ;
991 -> 992 ;
993 [label="gini = 0.0\nsamples = 1\nvalue = [0, 1]", fillcolor="#399de5"] ;
991 -> 993 ;
994 [label="gini = 0.0\nsamples = 1\nvalue = [0, 1]", fillcolor="#399de5"] ;
966 -> 994 ;
995 [label="time <= 0.79\ngini = 0.39\nsamples = 33\nvalue = [34, 12]", fillcolor="#eead7f"] ;
965 -> 995 ;
996 [label="age <= -1.08\ngini = 0.43\nsamples = 14\nvalue = [15, 7]", fillcolor="#f1bc95"] ;
995 -> 996 ;
997 [label="age <= -1.43\ngini = 0.38\nsamples = 13\nvalue = [15, 5]", fillcolor="#eeab7b"] ;
996 -> 997 ;
998 [label="gini = 0.0\nsamples = 2\nvalue = [4, 0]", fillcolor="#e58139"] ;
997 -> 998 ;
999 [label="income <= -0.39\ngini = 0.43\nsamples = 11\nvalue = [11, 5]", fillcolor="#f1ba93"] ;
997 -> 999 ;
1000 [label="gini = 0.0\nsamples = 5\nvalue = [8, 0]", fillcolor="#e58139"] ;
999 -> 1000 ;
1001 [label="income <= -0.32\ngini = 0.47\nsamples = 6\nvalue = [3, 5]", fillcolor="#b0d8f5"] ;
999 -> 1001 ;
1002 [label="gini = 0.0\nsamples = 1\nvalue = [0, 3]", fillcolor="#399de5"] ;
1001 -> 1002 ;
1003 [label="memb_leng <= -0.88\ngini = 0.48\nsamples = 5\nvalue = [3, 2]", fillcolor="#f6d5bd"] ;
1001 -> 1003 ;
1004 [label="income <= -0.18\ngini = 0.44\nsamples = 3\nvalue = [1, 2]", fillcolor="#9ccef2"] ;
