digraph Tree {
node [shape=box, style="filled, rounded", color="black", fontname=helvetica] ;
edge [fontname=helvetica] ;
0 [label="difficulty <= 0.75\ngini = 0.39\nsamples = 29494\nvalue = [12123, 34427]", fillcolor="#399de5a5"] ;
1 [label="reward_offd <= 0.25\ngini = 0.34\nsamples = 26574\nvalue = [9142, 32798]", fillcolor="#399de5b8"] ;
0 -> 1 [labeldistance=2.5, labelangle=45, headlabel="True"] ;
2 [label="gender_O <= 0.5\ngini = 0.43\nsamples = 11772\nvalue = [5731, 12933]", fillcolor="#399de58e"] ;
1 -> 2 ;
3 [label="memb_leng <= -0.42\ngini = 0.43\nsamples = 11603\nvalue = [5704, 12691]", fillcolor="#399de58c"] ;
2 -> 3 ;
4 [label="web <= 0.5\ngini = 0.44\nsamples = 5574\nvalue = [2921, 5929]", fillcolor="#399de581"] ;
3 -> 4 ;
5 [label="memb_leng <= -1.03\ngini = 0.31\nsamples = 1398\nvalue = [425, 1808]", fillcolor="#399de5c3"] ;
4 -> 5 ;
6 [label="memb_leng <= -1.24\ngini = 0.38\nsamples = 298\nvalue = [124, 365]", fillcolor="#399de5a8"] ;
5 -> 6 ;
7 [label="gender_M <= 0.5\ngini = 0.5\nsamples = 8\nvalue = [8, 7]", fillcolor="#e5813920"] ;
6 -> 7 ;
8 [label="time <= 0.94\ngini = 0.4\nsamples = 6\nvalue = [8, 3]", fillcolor="#e581399f"] ;
7 -> 8 ;
9 [label="income <= 0.05\ngini = 0.22\nsamples = 4\nvalue = [7, 1]", fillcolor="#e58139db"] ;
8 -> 9 ;
10 [label="gini = 0.0\nsamples = 1\nvalue = [0, 1]", fillcolor="#399de5ff"] ;
9 -> 10 ;
11 [label="gini = 0.0\nsamples = 3\nvalue = [7, 0]", fillcolor="#e58139ff"] ;
9 -> 11 ;
12 [label="income <= 0.35\ngini = 0.44\nsamples = 2\nvalue = [1, 2]", fillcolor="#399de57f"] ;
8 -> 12 ;
13 [label="gini = 0.0\nsamples = 1\nvalue = [1, 0]", fillcolor="#e58139ff"] ;
12 -> 13 ;
14 [label="gini = 0.0\nsamples = 1\nvalue = [0, 2]", fillcolor="#399de5ff"] ;
12 -> 14 ;
15 [label="gini = 0.0\nsamples = 2\nvalue = [0, 4]", fillcolor="#399de5ff"] ;
7 -> 15 ;
16 [label="time <= 0.15\ngini = 0.37\nsamples = 290\nvalue = [116, 358]", fillcolor="#399de5ac"] ;
6 -> 16 ;
17 [label="memb_leng <= -1.09\ngini = 0.31\nsamples = 54\nvalue = [18, 75]", fillcolor="#399de5c2"] ;
16 -> 17 ;
18 [label="gender_M <= 0.5\ngini = 0.16\nsamples = 35\nvalue = [5, 51]", fillcolor="#399de5e6"] ;
17 -> 18 ;
19 [label="income <= 0.77\ngini = 0.09\nsamples = 13\nvalue = [1, 19]", fillcolor="#399de5f2"] ;
18 -> 19 ;
20 [label="gini = 0.0\nsamples = 11\nvalue = [0, 18]", fillcolor="#399de5ff"] ;
19 -> 20 ;
21 [label="age <= 0.09\ngini = 0.5\nsamples = 2\nvalue = [1, 1]", fillcolor="#e5813900"] ;
19 -> 21 ;
22 [label="gini = 0.0\nsamples = 1\nvalue = [1, 0]", fillcolor="#e58139ff"] ;
21 -> 22 ;
23 [label="gini = 0.0\nsamples = 1\nvalue = [0, 1]", fillcolor="#399de5ff"] ;
21 -> 23 ;
24 [label="income <= -0.71\ngini = 0.2\nsamples = 22\nvalue = [4, 32]", fillcolor="#399de5df"] ;
18 -> 24 ;
25 [label="gini = 0.0\nsamples = 9\nvalue = [0, 13]", fillcolor="#399de5ff"] ;
24 -> 25 ;
26 [label="age <= -0.37\ngini = 0.29\nsamples = 13\nvalue = [4, 19]", fillcolor="#399de5c9"] ;
24 -> 26 ;
27 [label="age <= -1.37\ngini = 0.42\nsamples = 6\nvalue = [3, 7]", fillcolor="#399de592"] ;
26 -> 27 ;
28 [label="gini = 0.0\nsamples = 2\nvalue = [0, 4]", fillcolor="#399de5ff"] ;
27 -> 28 ;
29 [label="memb_leng <= -1.16\ngini = 0.5\nsamples = 4\nvalue = [3, 3]", fillcolor="#e5813900"] ;
27 -> 29 ;
30 [label="gini = 0.0\nsamples = 2\nvalue = [3, 0]", fillcolor="#e58139ff"] ;
29 -> 30 ;
31 [label="gini = 0.0\nsamples = 2\nvalue = [0, 3]", fillcolor="#399de5ff"] ;
29 -> 31 ;
32 [label="income <= -0.09\ngini = 0.14\nsamples = 7\nvalue = [1, 12]", fillcolor="#399de5ea"] ;
26 -> 32 ;
33 [label="memb_leng <= -1.16\ngini = 0.32\nsamples = 3\nvalue = [1, 4]", fillcolor="#399de5bf"] ;
32 -> 33 ;
34 [label="gini = 0.0\nsamples = 2\nvalue = [0, 4]", fillcolor="#399de5ff"] ;
33 -> 34 ;
35 [label="gini = 0.0\nsamples = 1\nvalue = [1, 0]", fillcolor="#e58139ff"] ;
33 -> 35 ;
36 [label="gini = 0.0\nsamples = 4\nvalue = [0, 8]", fillcolor="#399de5ff"] ;
32 -> 36 ;
37 [label="age <= -0.34\ngini = 0.46\nsamples = 19\nvalue = [13, 24]", fillcolor="#399de575"] ;
17 -> 37 ;
38 [label="gender_M <= 0.5\ngini = 0.11\nsamples = 8\nvalue = [1, 16]", fillcolor="#399de5ef"] ;
37 -> 38 ;
39 [label="gini = 0.0\nsamples = 3\nvalue = [0, 9]", fillcolor="#399de5ff"] ;
38 -> 39 ;
40 [label="memb_leng <= -1.08\ngini = 0.22\nsamples = 5\nvalue = [1, 7]", fillcolor="#399de5db"] ;
38 -> 40 ;
41 [label="gini = 0.0\nsamples = 1\nvalue = [1, 0]", fillcolor="#e58139ff"] ;
40 -> 41 ;
42 [label="gini = 0.0\nsamples = 4\nvalue = [0, 7]", fillcolor="#399de5ff"] ;
40 -> 42 ;
43 [label="income <= -0.43\ngini = 0.48\nsamples = 11\nvalue = [12, 8]", fillcolor="#e5813955"] ;
37 -> 43 ;
44 [label="gender_M <= 0.5\ngini = 0.49\nsamples = 5\nvalue = [4, 5]", fillcolor="#399de533"] ;
43 -> 44 ;
45 [label="age <= 0.07\ngini = 0.44\nsamples = 3\nvalue = [2, 4]", fillcolor="#399de57f"] ;
44 -> 45 ;
46 [label="gini = 0.0\nsamples = 1\nvalue = [0, 2]", fillcolor="#399de5ff"] ;
45 -> 46 ;
47 [label="memb_leng <= -1.04\ngini = 0.5\nsamples = 2\nvalue = [2, 2]", fillcolor="#e5813900"] ;
45 -> 47 ;
48 [label="gini = 0.0\nsamples = 1\nvalue = [2, 0]", fillcolor="#e58139ff"] ;
47 -> 48 ;
49 [label="gini = 0.0\nsamples = 1\nvalue = [0, 2]", fillcolor="#399de5ff"] ;
47 -> 49 ;
50 [label="age <= 0.12\ngini = 0.44\nsamples = 2\nvalue = [2, 1]", fillcolor="#e581397f"] ;
44 -> 50 ;
51 [label="gini = 0.0\nsamples = 1\nvalue = [0, 1]", fillcolor="#399de5ff"] ;
50 -> 51 ;
52 [label="gini = 0.0\nsamples = 1\nvalue = [2, 0]", fillcolor="#e58139ff"] ;
50 -> 52 ;
53 [label="age <= 1.21\ngini = 0.4\nsamples = 6\nvalue = [8, 3]", fillcolor="#e581399f"] ;
43 -> 53 ;
54 [label="income <= 0.84\ngini = 0.2\nsamples = 5\nvalue = [8, 1]", fillcolor="#e58139df"] ;
53 -> 54 ;
55 [label="gini = 0.0\nsamples = 4\nvalue = [8, 0]", fillcolor="#e58139ff"] ;
54 -> 55 ;
56 [label="gini = 0.0\nsamples = 1\nvalue = [0, 1]", fillcolor="#399de5ff"] ;
54 -> 56 ;
57 [label="gini = 0.0\nsamples = 1\nvalue = [0, 2]", fillcolor="#399de5ff"] ;
53 -> 57 ;
58 [label="age <= -0.11\ngini = 0.38\nsamples = 236\nvalue = [98, 283]", fillcolor="#399de5a7"] ;
16 -> 58 ;
59 [label="age <= -0.45\ngini = 0.3\nsamples = 119\nvalue = [34, 153]", fillcolor="#399de5c6"] ;
58 -> 59 ;
60 [label="age <= -0.57\ngini = 0.36\nsamples = 83\nvalue = [29, 95]", fillcolor="#399de5b1"] ;
59 -> 60 ;
61 [label="gender_F <= 0.5\ngini = 0.3\nsamples = 75\nvalue = [20, 90]", fillcolor="#399de5c6"] ;
60 -> 61 ;
62 [label="income <= 0.33\ngini = 0.27\nsamples = 52\nvalue = [13, 66]", fillcolor="#399de5cd"] ;
61 -> 62 ;
63 [label="memb_leng <= -1.16\ngini = 0.18\nsamples = 45\nvalue = [7, 61]", fillcolor="#399de5e2"] ;
62 -> 63 ;
64 [label="age <= -2.0\ngini = 0.36\nsamples = 14\nvalue = [5, 16]", fillcolor="#399de5af"] ;
63 -> 64 ;
65 [label="gini = 0.0\nsamples = 1\nvalue = [2, 0]", fillcolor="#e58139ff"] ;
64 -> 65 ;
66 [label="memb_leng <= -1.16\ngini = 0.27\nsamples = 13\nvalue = [3, 16]", fillcolor="#399de5cf"] ;
64 -> 66 ;
67 [label="age <= -0.71\ngini = 0.12\nsamples = 10\nvalue = [1, 14]", fillcolor="#399de5ed"] ;
66 -> 67 ;
68 [label="gini = 0.0\nsamples = 9\nvalue = [0, 14]", fillcolor="#399de5ff"] ;
67 -> 68 ;
69 [label="gini = 0.0\nsamples = 1\nvalue = [1, 0]", fillcolor="#e58139ff"] ;
67 -> 69 ;
70 [label="time <= 0.94\ngini = 0.5\nsamples = 3\nvalue = [2, 2]", fillcolor="#e5813900"] ;
66 -> 70 ;
71 [label="gini = 0.0\nsamples = 2\nvalue = [0, 2]", fillcolor="#399de5ff"] ;
70 -> 71 ;
72 [label="gini = 0.0\nsamples = 1\nvalue = [2, 0]", fillcolor="#e58139ff"] ;
70 -> 72 ;
73 [label="memb_leng <= -1.04\ngini = 0.08\nsamples = 31\nvalue = [2, 45]", fillcolor="#399de5f4"] ;
63 -> 73 ;
74 [label="memb_leng <= -1.11\ngini = 0.05\nsamples = 24\nvalue = [1, 39]", fillcolor="#399de5f8"] ;
73 -> 74 ;
75 [label="memb_leng <= -1.12\ngini = 0.12\nsamples = 10\nvalue = [1, 14]", fillcolor="#399de5ed"] ;
74 -> 75 ;
76 [label="gini = 0.0\nsamples = 9\nvalue = [0, 14]", fillcolor="#399de5ff"] ;
75 -> 76 ;
77 [label="gini = 0.0\nsamples = 1\nvalue = [1, 0]", fillcolor="#e58139ff"] ;
75 -> 77 ;
78 [label="gini = 0.0\nsamples = 14\nvalue = [0, 25]", fillcolor="#399de5ff"] ;
74 -> 78 ;
79 [label="income <= -0.97\ngini = 0.24\nsamples = 7\nvalue = [1, 6]", fillcolor="#399de5d4"] ;
73 -> 79 ;
80 [label="memb_leng <= -1.04\ngini = 0.44\nsamples = 3\nvalue = [1, 2]", fillcolor="#399de57f"] ;
79 -> 80 ;
81 [label="time <= 0.94\ngini = 0.5\nsamples = 2\nvalue = [1, 1]", fillcolor="#e5813900"] ;
80 -> 81 ;
82 [label="gini = 0.0\nsamples = 1\nvalue = [0, 1]", fillcolor="#399de5ff"] ;
81 -> 82 ;
83 [label="gini = 0.0\nsamples = 1\nvalue = [1, 0]", fillcolor="#e58139ff"] ;
81 -> 83 ;
84 [label="gini = 0.0\nsamples = 1\nvalue = [0, 1]", fillcolor="#399de5ff"] ;
80 -> 84 ;
85 [label="gini = 0.0\nsamples = 4\nvalue = [0, 4]", fillcolor="#399de5ff"] ;
79 -> 85 ;
86 [label="time <= 0.94\ngini = 0.5\nsamples = 7\nvalue = [6, 5]", fillcolor="#e581392a"] ;
62 -> 86 ;
87 [label="age <= -1.06\ngini = 0.48\nsamples = 6\nvalue = [6, 4]", fillcolor="#e5813955"] ;
86 -> 87 ;
88 [label="age <= -1.8\ngini = 0.38\nsamples = 4\nvalue = [6, 2]", fillcolor="#e58139aa"] ;
87 -> 88 ;
89 [label="gini = 0.0\nsamples = 1\nvalue = [0, 1]", fillcolor="#399de5ff"] ;
88 -> 89 ;
90 [label="memb_leng <= -1.08\ngini = 0.24\nsamples = 3\nvalue = [6, 1]", fillcolor="#e58139d4"] ;
88 -> 90 ;
91 [label="gini = 0.0\nsamples = 2\nvalue = [6, 0]", fillcolor="#e58139ff"] ;
90 -> 91 ;
92 [label="gini = 0.0\nsamples = 1\nvalue = [0, 1]", fillcolor="#399de5ff"] ;
90 -> 92 ;
93 [label="gini = 0.0\nsamples = 2\nvalue = [0, 2]", fillcolor="#399de5ff"] ;
87 -> 93 ;
94 [label="gini = 0.0\nsamples = 1\nvalue = [0, 1]", fillcolor="#399de5ff"] ;
86 -> 94 ;
95 [label="age <= -1.66\ngini = 0.35\nsamples = 23\nvalue = [7, 24]", fillcolor="#399de5b5"] ;
61 -> 95 ;
96 [label="gini = 0.0\nsamples = 3\nvalue = [0, 6]", fillcolor="#399de5ff"] ;
95 -> 96 ;
97 [label="age <= -1.46\ngini = 0.4\nsamples = 20\nvalue = [7, 18]", fillcolor="#399de59c"] ;
95 -> 97 ;
98 [label="gini = 0.0\nsamples = 1\nvalue = [2, 0]", fillcolor="#e58139ff"] ;
97 -> 98 ;
99 [label="income <= -1.29\ngini = 0.34\nsamples = 19\nvalue = [5, 18]", fillcolor="#399de5b8"] ;
97 -> 99 ;
100 [label="age <= -1.26\ngini = 0.5\nsamples = 4\nvalue = [2, 2]", fillcolor="#e5813900"] ;
99 -> 100 ;
101 [label="gini = 0.0\nsamples = 1\nvalue = [1, 0]", fillcolor="#e58139ff"] ;
100 -> 101 ;
102 [label="income <= -1.36\ngini = 0.44\nsamples = 3\nvalue = [1, 2]", fillcolor="#399de57f"] ;
100 -> 102 ;
103 [label="gini = 0.0\nsamples = 2\nvalue = [0, 2]", fillcolor="#399de5ff"] ;
102 -> 103 ;
104 [label="gini = 0.0\nsamples = 1\nvalue = [1, 0]", fillcolor="#e58139ff"] ;
102 -> 104 ;
105 [label="age <= -0.74\ngini = 0.27\nsamples = 15\nvalue = [3, 16]", fillcolor="#399de5cf"] ;
99 -> 105 ;
106 [label="gini = 0.0\nsamples = 9\nvalue = [0, 11]", fillcolor="#399de5ff"] ;
105 -> 106 ;
107 [label="age <= -0.68\ngini = 0.47\nsamples = 6\nvalue = [3, 5]", fillcolor="#399de566"] ;
105 -> 107 ;
108 [label="memb_leng <= -1.06\ngini = 0.48\nsamples = 3\nvalue = [3, 2]", fillcolor="#e5813955"] ;
107 -> 108 ;
109 [label="gini = 0.0\nsamples = 1\nvalue = [1, 0]", fillcolor="#e58139ff"] ;
108 -> 109 ;
110 [label="time <= 0.85\ngini = 0.5\nsamples = 2\nvalue = [2, 2]", fillcolor="#e5813900"] ;
108 -> 110 ;
111 [label="gini = 0.0\nsamples = 1\nvalue = [2, 0]", fillcolor="#e58139ff"] ;
110 -> 111 ;
112 [label="gini = 0.0\nsamples = 1\nvalue = [0, 2]", fillcolor="#399de5ff"] ;
110 -> 112 ;
113 [label="gini = 0.0\nsamples = 3\nvalue = [0, 3]", fillcolor="#399de5ff"] ;
107 -> 113 ;
114 [label="gender_M <= 0.5\ngini = 0.46\nsamples = 8\nvalue = [9, 5]", fillcolor="#e5813971"] ;
60 -> 114 ;
115 [label="gini = 0.0\nsamples = 1\nvalue = [0, 1]", fillcolor="#399de5ff"] ;
114 -> 115 ;
116 [label="income <= -0.73\ngini = 0.43\nsamples = 7\nvalue = [9, 4]", fillcolor="#e581398e"] ;
114 -> 116 ;
117 [label="gini = 0.0\nsamples = 2\nvalue = [0, 3]", fillcolor="#399de5ff"] ;
116 -> 117 ;
118 [label="age <= -0.51\ngini = 0.18\nsamples = 5\nvalue = [9, 1]", fillcolor="#e58139e3"] ;
116 -> 118 ;
119 [label="time <= 0.65\ngini = 0.28\nsamples = 3\nvalue = [5, 1]", fillcolor="#e58139cc"] ;
118 -> 119 ;
120 [label="gini = 0.0\nsamples = 2\nvalue = [5, 0]", fillcolor="#e58139ff"] ;
119 -> 120 ;
121 [label="gini = 0.0\nsamples = 1\nvalue = [0, 1]", fillcolor="#399de5ff"] ;
119 -> 121 ;
122 [label="gini = 0.0\nsamples = 2\nvalue = [4, 0]", fillcolor="#e58139ff"] ;
118 -> 122 ;
123 [label="time <= 0.65\ngini = 0.15\nsamples = 36\nvalue = [5, 58]", fillcolor="#399de5e9"] ;
59 -> 123 ;
124 [label="memb_leng <= -1.06\ngini = 0.06\nsamples = 18\nvalue = [1, 30]", fillcolor="#399de5f6"] ;
123 -> 124 ;
125 [label="gini = 0.0\nsamples = 17\nvalue = [0, 30]", fillcolor="#399de5ff"] ;
124 -> 125 ;
126 [label="gini = 0.0\nsamples = 1\nvalue = [1, 0]", fillcolor="#e58139ff"] ;
124 -> 126 ;
127 [label="memb_leng <= -1.23\ngini = 0.22\nsamples = 18\nvalue = [4, 28]", fillcolor="#399de5db"] ;
123 -> 127 ;
128 [label="gini = 0.0\nsamples = 1\nvalue = [1, 0]", fillcolor="#e58139ff"] ;
127 -> 128 ;
129 [label="income <= 1.05\ngini = 0.17\nsamples = 17\nvalue = [3, 28]", fillcolor="#399de5e4"] ;
127 -> 129 ;
130 [label="gender_F <= 0.5\ngini = 0.07\nsamples = 14\nvalue = [1, 26]", fillcolor="#399de5f5"] ;
129 -> 130 ;
131 [label="gini = 0.0\nsamples = 11\nvalue = [0, 22]", fillcolor="#399de5ff"] ;
130 -> 131 ;
132 [label="memb_leng <= -1.11\ngini = 0.32\nsamples = 3\nvalue = [1, 4]", fillcolor="#399de5bf"] ;
130 -> 132 ;
133 [label="gini = 0.0\nsamples = 2\nvalue = [0, 4]", fillcolor="#399de5ff"] ;
132 -> 133 ;
134 [label="gini = 0.0\nsamples = 1\nvalue = [1, 0]", fillcolor="#e58139ff"] ;
132 -> 134 ;
135 [label="income <= 1.12\ngini = 0.5\nsamples = 3\nvalue = [2, 2]", fillcolor="#e5813900"] ;
129 -> 135 ;
136 [label="gini = 0.0\nsamples = 1\nvalue = [2, 0]", fillcolor="#e58139ff"] ;
135 -> 136 ;
137 [label="gini = 0.0\nsamples = 2\nvalue = [0, 2]", fillcolor="#399de5ff"] ;
135 -> 137 ;
138 [label="income <= 0.54\ngini = 0.44\nsamples = 117\nvalue = [64, 130]", fillcolor="#399de581"] ;
58 -> 138 ;
139 [label="gender_M <= 0.5\ngini = 0.31\nsamples = 82\nvalue = [25, 107]", fillcolor="#399de5c3"] ;
138 -> 139 ;
140 [label="income <= -0.13\ngini = 0.26\nsamples = 23\nvalue = [6, 33]", fillcolor="#399de5d1"] ;
139 -> 140 ;
141 [label="memb_leng <= -1.19\ngini = 0.08\nsamples = 14\nvalue = [1, 24]", fillcolor="#399de5f4"] ;
140 -> 141 ;
142 [label="income <= -0.25\ngini = 0.32\nsamples = 4\nvalue = [1, 4]", fillcolor="#399de5bf"] ;
141 -> 142 ;
143 [label="gini = 0.0\nsamples = 2\nvalue = [0, 2]", fillcolor="#399de5ff"] ;
142 -> 143 ;
144 [label="time <= 0.73\ngini = 0.44\nsamples = 2\nvalue = [1, 2]", fillcolor="#399de57f"] ;
142 -> 144 ;
145 [label="gini = 0.0\nsamples = 1\nvalue = [1, 0]", fillcolor="#e58139ff"] ;
144 -> 145 ;
146 [label="gini = 0.0\nsamples = 1\nvalue = [0, 2]", fillcolor="#399de5ff"] ;
144 -> 146 ;
147 [label="gini = 0.0\nsamples = 10\nvalue = [0, 20]", fillcolor="#399de5ff"] ;
141 -> 147 ;
148 [label="time <= 0.94\ngini = 0.46\nsamples = 9\nvalue = [5, 9]", fillcolor="#399de571"] ;
140 -> 148 ;
149 [label="income <= 0.38\ngini = 0.32\nsamples = 7\nvalue = [2, 8]", fillcolor="#399de5bf"] ;
148 -> 149 ;
150 [label="gini = 0.0\nsamples = 5\nvalue = [0, 8]", fillcolor="#399de5ff"] ;
149 -> 150 ;
151 [label="gini = 0.0\nsamples = 2\nvalue = [2, 0]", fillcolor="#e58139ff"] ;
149 -> 151 ;
152 [label="income <= 0.14\ngini = 0.38\nsamples = 2\nvalue = [3, 1]", fillcolor="#e58139aa"] ;
148 -> 152 ;
153 [label="gini = 0.0\nsamples = 1\nvalue = [3, 0]", fillcolor="#e58139ff"] ;
152 -> 153 ;
154 [label="gini = 0.0\nsamples = 1\nvalue = [0, 1]", fillcolor="#399de5ff"] ;
152 -> 154 ;
155 [label="time <= 0.44\ngini = 0.33\nsamples = 59\nvalue = [19, 74]", fillcolor="#399de5be"] ;
139 -> 155 ;
156 [label="memb_leng <= -1.11\ngini = 0.1\nsamples = 10\nvalue = [1, 17]", fillcolor="#399de5f0"] ;
155 -> 156 ;
157 [label="gini = 0.0\nsamples = 8\nvalue = [0, 14]", fillcolor="#399de5ff"] ;
156 -> 157 ;
158 [label="memb_leng <= -1.07\ngini = 0.38\nsamples = 2\nvalue = [1, 3]", fillcolor="#399de5aa"] ;
156 -> 158 ;
159 [label="gini = 0.0\nsamples = 1\nvalue = [1, 0]", fillcolor="#e58139ff"] ;
158 -> 159 ;
160 [label="gini = 0.0\nsamples = 1\nvalue = [0, 3]", fillcolor="#399de5ff"] ;
158 -> 160 ;
161 [label="memb_leng <= -1.1\ngini = 0.36\nsamples = 49\nvalue = [18, 57]", fillcolor="#399de5ae"] ;
155 -> 161 ;
162 [label="age <= 0.12\ngini = 0.4\nsamples = 39\nvalue = [18, 46]", fillcolor="#399de59b"] ;
161 -> 162 ;
163 [label="gini = 0.0\nsamples = 3\nvalue = [0, 6]", fillcolor="#399de5ff"] ;
162 -> 163 ;
164 [label="age <= 0.47\ngini = 0.43\nsamples = 36\nvalue = [18, 40]", fillcolor="#399de58c"] ;
162 -> 164 ;
165 [label="age <= 0.41\ngini = 0.5\nsamples = 11\nvalue = [10, 10]", fillcolor="#e5813900"] ;
164 -> 165 ;
166 [label="time <= 0.79\ngini = 0.48\nsamples = 8\nvalue = [6, 9]", fillcolor="#399de555"] ;
165 -> 166 ;
167 [label="income <= -0.04\ngini = 0.32\nsamples = 4\nvalue = [4, 1]", fillcolor="#e58139bf"] ;
166 -> 167 ;
168 [label="gini = 0.0\nsamples = 3\nvalue = [4, 0]", fillcolor="#e58139ff"] ;
167 -> 168 ;
169 [label="gini = 0.0\nsamples = 1\nvalue = [0, 1]", fillcolor="#399de5ff"] ;
167 -> 169 ;
170 [label="income <= -0.87\ngini = 0.32\nsamples = 4\nvalue = [2, 8]", fillcolor="#399de5bf"] ;
166 -> 170 ;
171 [label="memb_leng <= -1.15\ngini = 0.48\nsamples = 2\nvalue = [2, 3]", fillcolor="#399de555"] ;
170 -> 171 ;
172 [label="gini = 0.0\nsamples = 1\nvalue = [0, 3]", fillcolor="#399de5ff"] ;
171 -> 172 ;
173 [label="gini = 0.0\nsamples = 1\nvalue = [2, 0]", fillcolor="#e58139ff"] ;
171 -> 173 ;
174 [label="gini = 0.0\nsamples = 2\nvalue = [0, 5]", fillcolor="#399de5ff"] ;
170 -> 174 ;
175 [label="memb_leng <= -1.22\ngini = 0.32\nsamples = 3\nvalue = [4, 1]", fillcolor="#e58139bf"] ;
165 -> 175 ;
176 [label="gini = 0.0\nsamples = 1\nvalue = [0, 1]", fillcolor="#399de5ff"] ;
175 -> 176 ;
177 [label="gini = 0.0\nsamples = 2\nvalue = [4, 0]", fillcolor="#e58139ff"] ;
175 -> 177 ;
178 [label="time <= 0.65\ngini = 0.33\nsamples = 25\nvalue = [8, 30]", fillcolor="#399de5bb"] ;
164 -> 178 ;
179 [label="memb_leng <= -1.11\ngini = 0.17\nsamples = 8\nvalue = [1, 10]", fillcolor="#399de5e6"] ;
178 -> 179 ;
180 [label="gini = 0.0\nsamples = 7\nvalue = [0, 10]", fillcolor="#399de5ff"] ;
179 -> 180 ;
181 [label="gini = 0.0\nsamples = 1\nvalue = [1, 0]", fillcolor="#e58139ff"] ;
179 -> 181 ;
182 [label="memb_leng <= -1.19\ngini = 0.38\nsamples = 17\nvalue = [7, 20]", fillcolor="#399de5a6"] ;
178 -> 182 ;
183 [label="memb_leng <= -1.23\ngini = 0.11\nsamples = 10\nvalue = [1, 16]", fillcolor="#399de5ef"] ;
182 -> 183 ;
184 [label="time <= 0.79\ngini = 0.38\nsamples = 2\nvalue = [1, 3]", fillcolor="#399de5aa"] ;
183 -> 184 ;
185 [label="gini = 0.0\nsamples = 1\nvalue = [0, 3]", fillcolor="#399de5ff"] ;
184 -> 185 ;
186 [label="gini = 0.0\nsamples = 1\nvalue = [1, 0]", fillcolor="#e58139ff"] ;
184 -> 186 ;
187 [label="gini = 0.0\nsamples = 8\nvalue = [0, 13]", fillcolor="#399de5ff"] ;
183 -> 187 ;
188 [label="income <= -0.48\ngini = 0.48\nsamples = 7\nvalue = [6, 4]", fillcolor="#e5813955"] ;
182 -> 188 ;
189 [label="gini = 0.0\nsamples = 2\nvalue = [2, 0]", fillcolor="#e58139ff"] ;
188 -> 189 ;
190 [label="income <= -0.27\ngini = 0.5\nsamples = 5\nvalue = [4, 4]", fillcolor="#e5813900"] ;
188 -> 190 ;
191 [label="gini = 0.0\nsamples = 1\nvalue = [0, 1]", fillcolor="#399de5ff"] ;
190 -> 191 ;
192 [label="age <= 1.19\ngini = 0.49\nsamples = 4\nvalue = [4, 3]", fillcolor="#e5813940"] ;
190 -> 192 ;
193 [label="income <= 0.24\ngini = 0.38\nsamples = 3\nvalue = [1, 3]", fillcolor="#399de5aa"] ;
192 -> 193 ;
194 [label="gini = 0.0\nsamples = 2\nvalue = [0, 3]", fillcolor="#399de5ff"] ;
193 -> 194 ;
195 [label="gini = 0.0\nsamples = 1\nvalue = [1, 0]", fillcolor="#e58139ff"] ;
193 -> 195 ;
196 [label="gini = 0.0\nsamples = 1\nvalue = [3, 0]", fillcolor="#e58139ff"] ;
192 -> 196 ;
197 [label="gini = 0.0\nsamples = 10\nvalue = [0, 11]", fillcolor="#399de5ff"] ;
161 -> 197 ;
198 [label="memb_leng <= -1.04\ngini = 0.47\nsamples = 35\nvalue = [39, 23]", fillcolor="#e5813969"] ;
138 -> 198 ;
199 [label="income <= 1.53\ngini = 0.43\nsamples = 31\nvalue = [38, 17]", fillcolor="#e581398d"] ;
198 -> 199 ;
200 [label="memb_leng <= -1.17\ngini = 0.33\nsamples = 19\nvalue = [27, 7]", fillcolor="#e58139bd"] ;
199 -> 200 ;
201 [label="age <= 0.04\ngini = 0.15\nsamples = 6\nvalue = [11, 1]", fillcolor="#e58139e8"] ;
200 -> 201 ;
202 [label="memb_leng <= -1.22\ngini = 0.28\nsamples = 3\nvalue = [5, 1]", fillcolor="#e58139cc"] ;
201 -> 202 ;
203 [label="gini = 0.0\nsamples = 1\nvalue = [0, 1]", fillcolor="#399de5ff"] ;
202 -> 203 ;
204 [label="gini = 0.0\nsamples = 2\nvalue = [5, 0]", fillcolor="#e58139ff"] ;
202 -> 204 ;
205 [label="gini = 0.0\nsamples = 3\nvalue = [6, 0]", fillcolor="#e58139ff"] ;
201 -> 205 ;
206 [label="memb_leng <= -1.15\ngini = 0.4\nsamples = 13\nvalue = [16, 6]", fillcolor="#e581399f"] ;
200 -> 206 ;
207 [label="gender_M <= 0.5\ngini = 0.32\nsamples = 4\nvalue = [1, 4]", fillcolor="#399de5bf"] ;
206 -> 207 ;
208 [label="gini = 0.0\nsamples = 2\nvalue = [0, 3]", fillcolor="#399de5ff"] ;
207 -> 208 ;
209 [label="income <= 0.88\ngini = 0.5\nsamples = 2\nvalue = [1, 1]", fillcolor="#e5813900"] ;
207 -> 209 ;
210 [label="gini = 0.0\nsamples = 1\nvalue = [1, 0]", fillcolor="#e58139ff"] ;
209 -> 210 ;
211 [label="gini = 0.0\nsamples = 1\nvalue = [0, 1]", fillcolor="#399de5ff"] ;
209 -> 211 ;
212 [label="gender_M <= 0.5\ngini = 0.21\nsamples = 9\nvalue = [15, 2]", fillcolor="#e58139dd"] ;
206 -> 212 ;
213 [label="age <= 0.18\ngini = 0.32\nsamples = 5\nvalue = [8, 2]", fillcolor="#e58139bf"] ;
212 -> 213 ;
214 [label="income <= 0.93\ngini = 0.48\nsamples = 2\nvalue = [3, 2]", fillcolor="#e5813955"] ;
213 -> 214 ;
215 [label="gini = 0.0\nsamples = 1\nvalue = [3, 0]", fillcolor="#e58139ff"] ;
214 -> 215 ;
216 [label="gini = 0.0\nsamples = 1\nvalue = [0, 2]", fillcolor="#399de5ff"] ;
214 -> 216 ;
217 [label="gini = 0.0\nsamples = 3\nvalue = [5, 0]", fillcolor="#e58139ff"] ;
213 -> 217 ;
218 [label="gini = 0.0\nsamples = 4\nvalue = [7, 0]", fillcolor="#e58139ff"] ;
212 -> 218 ;
219 [label="time <= 0.5\ngini = 0.5\nsamples = 12\nvalue = [11, 10]", fillcolor="#e5813917"] ;
199 -> 219 ;
220 [label="memb_leng <= -1.19\ngini = 0.22\nsamples = 4\nvalue = [7, 1]", fillcolor="#e58139db"] ;
219 -> 220 ;
221 [label="gini = 0.0\nsamples = 1\nvalue = [0, 1]", fillcolor="#399de5ff"] ;
220 -> 221 ;
222 [label="gini = 0.0\nsamples = 3\nvalue = [7, 0]", fillcolor="#e58139ff"] ;
220 -> 222 ;
223 [label="gender_M <= 0.5\ngini = 0.43\nsamples = 8\nvalue = [4, 9]", fillcolor="#399de58e"] ;
219 -> 223 ;
224 [label="gini = 0.0\nsamples = 5\nvalue = [0, 8]", fillcolor="#399de5ff"] ;
223 -> 224 ;
225 [label="income <= 2.11\ngini = 0.32\nsamples = 3\nvalue = [4, 1]", fillcolor="#e58139bf"] ;
223 -> 225 ;
226 [label="gini = 0.0\nsamples = 2\nvalue = [4, 0]", fillcolor="#e58139ff"] ;
225 -> 226 ;
227 [label="gini = 0.0\nsamples = 1\nvalue = [0, 1]", fillcolor="#399de5ff"] ;
225 -> 227 ;
228 [label="memb_leng <= -1.03\ngini = 0.24\nsamples = 4\nvalue = [1, 6]", fillcolor="#399de5d4"] ;
198 -> 228 ;
229 [label="gini = 0.0\nsamples = 3\nvalue = [0, 6]", fillcolor="#399de5ff"] ;
228 -> 229 ;
230 [label="gini = 0.0\nsamples = 1\nvalue = [1, 0]", fillcolor="#e58139ff"] ;
228 -> 230 ;
231 [label="memb_leng <= -0.8\ngini = 0.29\nsamples = 1100\nvalue = [301, 1443]", fillcolor="#399de5ca"] ;
5 -> 231 ;
232 [label="gender_M <= 0.5\ngini = 0.21\nsamples = 306\nvalue = [61, 444]", fillcolor="#399de5dc"] ;
231 -> 232 ;
233 [label="age <= -0.34\ngini = 0.2\nsamples = 98\nvalue = [19, 147]", fillcolor="#399de5de"] ;
232 -> 233 ;
234 [label="memb_leng <= -0.92\ngini = 0.03\nsamples = 34\nvalue = [1, 58]", fillcolor="#399de5fb"] ;
233 -> 234 ;
235 [label="memb_leng <= -0.92\ngini = 0.07\nsamples = 15\nvalue = [1, 26]", fillcolor="#399de5f5"] ;
234 -> 235 ;
236 [label="gini = 0.0\nsamples = 13\nvalue = [0, 24]", fillcolor="#399de5ff"] ;
235 -> 236 ;
237 [label="age <= -0.83\ngini = 0.44\nsamples = 2\nvalue = [1, 2]", fillcolor="#399de57f"] ;
235 -> 237 ;
238 [label="gini = 0.0\nsamples = 1\nvalue = [0, 2]", fillcolor="#399de5ff"] ;
237 -> 238 ;
239 [label="gini = 0.0\nsamples = 1\nvalue = [1, 0]", fillcolor="#e58139ff"] ;
237 -> 239 ;
240 [label="gini = 0.0\nsamples = 19\nvalue = [0, 32]", fillcolor="#399de5ff"] ;
234 -> 240 ;
241 [label="age <= 2.02\ngini = 0.28\nsamples = 64\nvalue = [18, 89]", fillcolor="#399de5cb"] ;
233 -> 241 ;
242 [label="age <= -0.22\ngini = 0.27\nsamples = 63\nvalue = [17, 89]", fillcolor="#399de5ce"] ;
241 -> 242 ;
243 [label="income <= -0.97\ngini = 0.49\nsamples = 4\nvalue = [3, 4]", fillcolor="#399de540"] ;
242 -> 243 ;
244 [label="gini = 0.0\nsamples = 1\nvalue = [0, 3]", fillcolor="#399de5ff"] ;
243 -> 244 ;
245 [label="memb_leng <= -0.94\ngini = 0.38\nsamples = 3\nvalue = [3, 1]", fillcolor="#e58139aa"] ;
243 -> 245 ;
246 [label="gini = 0.0\nsamples = 1\nvalue = [0, 1]", fillcolor="#399de5ff"] ;
245 -> 246 ;
247 [label="gini = 0.0\nsamples = 2\nvalue = [3, 0]", fillcolor="#e58139ff"] ;
245 -> 247 ;
248 [label="time <= 0.15\ngini = 0.24\nsamples = 59\nvalue = [14, 85]", fillcolor="#399de5d5"] ;
242 -> 248 ;
249 [label="gini = 0.0\nsamples = 9\nvalue = [0, 11]", fillcolor="#399de5ff"] ;
248 -> 249 ;
250 [label="age <= 0.7\ngini = 0.27\nsamples = 50\nvalue = [14, 74]", fillcolor="#399de5cf"] ;
248 -> 250 ;
251 [label="memb_leng <= -0.93\ngini = 0.32\nsamples = 35\nvalue = [12, 49]", fillcolor="#399de5c1"] ;
250 -> 251 ;
252 [label="memb_leng <= -0.98\ngini = 0.21\nsamples = 19\nvalue = [4, 30]", fillcolor="#399de5dd"] ;
251 -> 252 ;
253 [label="memb_leng <= -1.02\ngini = 0.11\nsamples = 11\nvalue = [1, 16]", fillcolor="#399de5ef"] ;
252 -> 253 ;
254 [label="age <= 0.21\ngini = 0.38\nsamples = 3\nvalue = [1, 3]", fillcolor="#399de5aa"] ;
253 -> 254 ;
255 [label="gini = 0.0\nsamples = 1\nvalue = [1, 0]", fillcolor="#e58139ff"] ;
254 -> 255 ;
256 [label="gini = 0.0\nsamples = 2\nvalue = [0, 3]", fillcolor="#399de5ff"] ;
254 -> 256 ;
257 [label="gini = 0.0\nsamples = 8\nvalue = [0, 13]", fillcolor="#399de5ff"] ;
253 -> 257 ;
258 [label="age <= 0.04\ngini = 0.29\nsamples = 8\nvalue = [3, 14]", fillcolor="#399de5c8"] ;
252 -> 258 ;
259 [label="gini = 0.0\nsamples = 2\nvalue = [0, 7]", fillcolor="#399de5ff"] ;
258 -> 259 ;
260 [label="time <= 0.58\ngini = 0.42\nsamples = 6\nvalue = [3, 7]", fillcolor="#399de592"] ;
258 -> 260 ;
261 [label="memb_leng <= -0.96\ngini = 0.22\nsamples = 4\nvalue = [1, 7]", fillcolor="#399de5db"] ;
260 -> 261 ;
262 [label="income <= 0.63\ngini = 0.5\nsamples = 2\nvalue = [1, 1]", fillcolor="#e5813900"] ;
261 -> 262 ;
263 [label="gini = 0.0\nsamples = 1\nvalue = [0, 1]", fillcolor="#399de5ff"] ;
262 -> 263 ;
264 [label="gini = 0.0\nsamples = 1\nvalue = [1, 0]", fillcolor="#e58139ff"] ;
262 -> 264 ;
265 [label="gini = 0.0\nsamples = 2\nvalue = [0, 6]", fillcolor="#399de5ff"] ;
261 -> 265 ;
266 [label="gini = 0.0\nsamples = 2\nvalue = [2, 0]", fillcolor="#e58139ff"] ;
260 -> 266 ;
267 [label="memb_leng <= -0.91\ngini = 0.42\nsamples = 16\nvalue = [8, 19]", fillcolor="#399de594"] ;
251 -> 267 ;
268 [label="gini = 0.0\nsamples = 2\nvalue = [4, 0]", fillcolor="#e58139ff"] ;
267 -> 268 ;
269 [label="age <= 0.61\ngini = 0.29\nsamples = 14\nvalue = [4, 19]", fillcolor="#399de5c9"] ;
267 -> 269 ;
270 [label="time <= 0.44\ngini = 0.18\nsamples = 12\nvalue = [2, 18]", fillcolor="#399de5e3"] ;
269 -> 270 ;
271 [label="memb_leng <= -0.87\ngini = 0.38\nsamples = 4\nvalue = [2, 6]", fillcolor="#399de5aa"] ;
270 -> 271 ;
272 [label="gini = 0.0\nsamples = 2\nvalue = [0, 5]", fillcolor="#399de5ff"] ;
271 -> 272 ;
273 [label="income <= 1.05\ngini = 0.44\nsamples = 2\nvalue = [2, 1]", fillcolor="#e581397f"] ;
271 -> 273 ;
274 [label="gini = 0.0\nsamples = 1\nvalue = [2, 0]", fillcolor="#e58139ff"] ;
273 -> 274 ;
275 [label="gini = 0.0\nsamples = 1\nvalue = [0, 1]", fillcolor="#399de5ff"] ;
273 -> 275 ;
276 [label="gini = 0.0\nsamples = 8\nvalue = [0, 12]", fillcolor="#399de5ff"] ;
270 -> 276 ;
277 [label="income <= 1.0\ngini = 0.44\nsamples = 2\nvalue = [2, 1]", fillcolor="#e581397f"] ;
269 -> 277 ;
278 [label="gini = 0.0\nsamples = 1\nvalue = [0, 1]", fillcolor="#399de5ff"] ;
277 -> 278 ;
279 [label="gini = 0.0\nsamples = 1\nvalue = [2, 0]", fillcolor="#e58139ff"] ;
277 -> 279 ;
280 [label="time <= 0.94\ngini = 0.14\nsamples = 15\nvalue = [2, 25]", fillcolor="#399de5eb"] ;
250 -> 280 ;
281 [label="age <= 1.62\ngini = 0.08\nsamples = 12\nvalue = [1, 22]", fillcolor="#399de5f3"] ;
280 -> 281 ;
282 [label="gini = 0.0\nsamples = 7\nvalue = [0, 14]", fillcolor="#399de5ff"] ;
281 -> 282 ;
283 [label="time <= 0.65\ngini = 0.2\nsamples = 5\nvalue = [1, 8]", fillcolor="#399de5df"] ;
281 -> 283 ;
284 [label="memb_leng <= -0.91\ngini = 0.38\nsamples = 3\nvalue = [1, 3]", fillcolor="#399de5aa"] ;
283 -> 284 ;
285 [label="gini = 0.0\nsamples = 1\nvalue = [1, 0]", fillcolor="#e58139ff"] ;
284 -> 285 ;
286 [label="gini = 0.0\nsamples = 2\nvalue = [0, 3]", fillcolor="#399de5ff"] ;
284 -> 286 ;
287 [label="gini = 0.0\nsamples = 2\nvalue = [0, 5]", fillcolor="#399de5ff"] ;
283 -> 287 ;
288 [label="income <= 1.21\ngini = 0.38\nsamples = 3\nvalue = [1, 3]", fillcolor="#399de5aa"] ;
280 -> 288 ;
289 [label="gini = 0.0\nsamples = 2\nvalue = [0, 3]", fillcolor="#399de5ff"] ;
288 -> 289 ;
290 [label="gini = 0.0\nsamples = 1\nvalue = [1, 0]", fillcolor="#e58139ff"] ;
288 -> 290 ;
291 [label="gini = 0.0\nsamples = 1\nvalue = [1, 0]", fillcolor="#e58139ff"] ;
241 -> 291 ;
292 [label="time <= 0.79\ngini = 0.22\nsamples = 208\nvalue = [42, 297]", fillcolor="#399de5db"] ;
232 -> 292 ;
293 [label="age <= -1.77\ngini = 0.27\nsamples = 133\nvalue = [35, 183]", fillcolor="#399de5ce"] ;
292 -> 293 ;
294 [label="memb_leng <= -0.97\ngini = 0.48\nsamples = 8\nvalue = [6, 9]", fillcolor="#399de555"] ;
293 -> 294 ;
295 [label="gini = 0.0\nsamples = 2\nvalue = [0, 3]", fillcolor="#399de5ff"] ;
294 -> 295 ;
296 [label="age <= -1.89\ngini = 0.5\nsamples = 6\nvalue = [6, 6]", fillcolor="#e5813900"] ;
294 -> 296 ;
297 [label="gini = 0.0\nsamples = 4\nvalue = [0, 6]", fillcolor="#399de5ff"] ;
296 -> 297 ;
298 [label="gini = 0.0\nsamples = 2\nvalue = [6, 0]", fillcolor="#e58139ff"] ;
296 -> 298 ;
299 [label="time <= 0.65\ngini = 0.24\nsamples = 125\nvalue = [29, 174]", fillcolor="#399de5d4"] ;
293 -> 299 ;
300 [label="age <= -0.8\ngini = 0.23\nsamples = 93\nvalue = [20, 131]", fillcolor="#399de5d8"] ;
299 -> 300 ;
301 [label="gini = 0.0\nsamples = 22\nvalue = [0, 33]", fillcolor="#399de5ff"] ;
300 -> 301 ;
302 [label="time <= 0.15\ngini = 0.28\nsamples = 71\nvalue = [20, 98]", fillcolor="#399de5cb"] ;
300 -> 302 ;
303 [label="memb_leng <= -0.92\ngini = 0.31\nsamples = 25\nvalue = [8, 33]", fillcolor="#399de5c1"] ;
302 -> 303 ;
304 [label="income <= -0.62\ngini = 0.1\nsamples = 11\nvalue = [1, 17]", fillcolor="#399de5f0"] ;
303 -> 304 ;
305 [label="gini = 0.0\nsamples = 5\nvalue = [0, 10]", fillcolor="#399de5ff"] ;
304 -> 305 ;
306 [label="memb_leng <= -1.01\ngini = 0.22\nsamples = 6\nvalue = [1, 7]", fillcolor="#399de5db"] ;
304 -> 306 ;
307 [label="gini = 0.0\nsamples = 1\nvalue = [1, 0]", fillcolor="#e58139ff"] ;
306 -> 307 ;
308 [label="gini = 0.0\nsamples = 5\nvalue = [0, 7]", fillcolor="#399de5ff"] ;
306 -> 308 ;
309 [label="age <= 0.64\ngini = 0.42\nsamples = 14\nvalue = [7, 16]", fillcolor="#399de58f"] ;
303 -> 309 ;
310 [label="memb_leng <= -0.89\ngini = 0.5\nsamples = 8\nvalue = [7, 6]", fillcolor="#e5813924"] ;
309 -> 310 ;
311 [label="gini = 0.0\nsamples = 2\nvalue = [3, 0]", fillcolor="#e58139ff"] ;
310 -> 311 ;
312 [label="memb_leng <= -0.87\ngini = 0.48\nsamples = 6\nvalue = [4, 6]", fillcolor="#399de555"] ;
310 -> 312 ;
313 [label="gini = 0.0\nsamples = 1\nvalue = [0, 3]", fillcolor="#399de5ff"] ;
312 -> 313 ;
314 [label="income <= -0.25\ngini = 0.49\nsamples = 5\nvalue = [4, 3]", fillcolor="#e5813940"] ;
312 -> 314 ;
315 [label="gini = 0.0\nsamples = 3\nvalue = [0, 3]", fillcolor="#399de5ff"] ;
314 -> 315 ;
316 [label="gini = 0.0\nsamples = 2\nvalue = [4, 0]", fillcolor="#e58139ff"] ;
314 -> 316 ;
317 [label="gini = 0.0\nsamples = 6\nvalue = [0, 10]", fillcolor="#399de5ff"] ;
309 -> 317 ;
318 [label="age <= -0.16\ngini = 0.26\nsamples = 46\nvalue = [12, 65]", fillcolor="#399de5d0"] ;
302 -> 318 ;
319 [label="memb_leng <= -0.88\ngini = 0.38\nsamples = 15\nvalue = [7, 20]", fillcolor="#399de5a6"] ;
318 -> 319 ;
320 [label="memb_leng <= -0.99\ngini = 0.17\nsamples = 12\nvalue = [2, 20]", fillcolor="#399de5e6"] ;
319 -> 320 ;
321 [label="gini = 0.0\nsamples = 4\nvalue = [0, 9]", fillcolor="#399de5ff"] ;
320 -> 321 ;
322 [label="income <= -0.25\ngini = 0.26\nsamples = 8\nvalue = [2, 11]", fillcolor="#399de5d1"] ;
320 -> 322 ;
323 [label="gini = 0.0\nsamples = 3\nvalue = [0, 4]", fillcolor="#399de5ff"] ;
322 -> 323 ;
324 [label="income <= -0.18\ngini = 0.35\nsamples = 5\nvalue = [2, 7]", fillcolor="#399de5b6"] ;
322 -> 324 ;
325 [label="gini = 0.0\nsamples = 1\nvalue = [1, 0]", fillcolor="#e58139ff"] ;
324 -> 325 ;
326 [label="income <= 0.12\ngini = 0.22\nsamples = 4\nvalue = [1, 7]", fillcolor="#399de5db"] ;
324 -> 326 ;
327 [label="gini = 0.0\nsamples = 1\nvalue = [0, 4]", fillcolor="#399de5ff"] ;
326 -> 327 ;
328 [label="time <= 0.44\ngini = 0.38\nsamples = 3\nvalue = [1, 3]", fillcolor="#399de5aa"] ;
326 -> 328 ;
329 [label="gini = 0.0\nsamples = 1\nvalue = [1, 0]", fillcolor="#e58139ff"] ;
328 -> 329 ;
330 [label="gini = 0.0\nsamples = 2\nvalue = [0, 3]", fillcolor="#399de5ff"] ;
328 -> 330 ;
331 [label="gini = 0.0\nsamples = 3\nvalue = [5, 0]", fillcolor="#e58139ff"] ;
319 -> 331 ;
332 [label="age <= 0.98\ngini = 0.18\nsamples = 31\nvalue = [5, 45]", fillcolor="#399de5e3"] ;
318 -> 332 ;
333 [label="time <= 0.44\ngini = 0.12\nsamples = 28\nvalue = [3, 42]", fillcolor="#399de5ed"] ;
332 -> 333 ;
334 [label="memb_leng <= -0.97\ngini = 0.28\nsamples = 12\nvalue = [3, 15]", fillcolor="#399de5cc"] ;
333 -> 334 ;
335 [label="income <= 0.12\ngini = 0.5\nsamples = 3\nvalue = [2, 2]", fillcolor="#e5813900"] ;
334 -> 335 ;
336 [label="gini = 0.0\nsamples = 2\nvalue = [0, 2]", fillcolor="#399de5ff"] ;
335 -> 336 ;
337 [label="gini = 0.0\nsamples = 1\nvalue = [2, 0]", fillcolor="#e58139ff"] ;
335 -> 337 ;
338 [label="memb_leng <= -0.86\ngini = 0.13\nsamples = 9\nvalue = [1, 13]", fillcolor="#399de5eb"] ;
334 -> 338 ;
339 [label="gini = 0.0\nsamples = 5\nvalue = [0, 9]", fillcolor="#399de5ff"] ;
338 -> 339 ;
340 [label="income <= -0.62\ngini = 0.32\nsamples = 4\nvalue = [1, 4]", fillcolor="#399de5bf"] ;
338 -> 340 ;
341 [label="gini = 0.0\nsamples = 1\nvalue = [1, 0]", fillcolor="#e58139ff"] ;
340 -> 341 ;
342 [label="gini = 0.0\nsamples = 3\nvalue = [0, 4]", fillcolor="#399de5ff"] ;
340 -> 342 ;
343 [label="gini = 0.0\nsamples = 16\nvalue = [0, 27]", fillcolor="#399de5ff"] ;
333 -> 343 ;
344 [label="age <= 1.24\ngini = 0.48\nsamples = 3\nvalue = [2, 3]", fillcolor="#399de555"] ;
332 -> 344 ;
345 [label="gini = 0.0\nsamples = 1\nvalue = [2, 0]", fillcolor="#e58139ff"] ;
344 -> 345 ;
346 [label="gini = 0.0\nsamples = 2\nvalue = [0, 3]", fillcolor="#399de5ff"] ;
344 -> 346 ;
347 [label="income <= -1.2\ngini = 0.29\nsamples = 32\nvalue = [9, 43]", fillcolor="#399de5ca"] ;
299 -> 347 ;
348 [label="memb_leng <= -0.91\ngini = 0.46\nsamples = 11\nvalue = [8, 14]", fillcolor="#399de56d"] ;
347 -> 348 ;
349 [label="income <= -1.29\ngini = 0.48\nsamples = 5\nvalue = [6, 4]", fillcolor="#e5813955"] ;
348 -> 349 ;
350 [label="age <= -1.6\ngini = 0.49\nsamples = 4\nvalue = [3, 4]", fillcolor="#399de540"] ;
349 -> 350 ;
351 [label="gini = 0.0\nsamples = 1\nvalue = [0, 2]", fillcolor="#399de5ff"] ;
350 -> 351 ;
352 [label="income <= -1.38\ngini = 0.48\nsamples = 3\nvalue = [3, 2]", fillcolor="#e5813955"] ;
350 -> 352 ;
353 [label="gini = 0.0\nsamples = 1\nvalue = [1, 0]", fillcolor="#e58139ff"] ;
352 -> 353 ;
354 [label="memb_leng <= -0.93\ngini = 0.5\nsamples = 2\nvalue = [2, 2]", fillcolor="#e5813900"] ;
352 -> 354 ;
355 [label="gini = 0.0\nsamples = 1\nvalue = [0, 2]", fillcolor="#399de5ff"] ;
354 -> 355 ;
356 [label="gini = 0.0\nsamples = 1\nvalue = [2, 0]", fillcolor="#e58139ff"] ;
354 -> 356 ;
357 [label="gini = 0.0\nsamples = 1\nvalue = [3, 0]", fillcolor="#e58139ff"] ;
349 -> 357 ;
358 [label="income <= -1.38\ngini = 0.28\nsamples = 6\nvalue = [2, 10]", fillcolor="#399de5cc"] ;
348 -> 358 ;
359 [label="gini = 0.0\nsamples = 4\nvalue = [0, 9]", fillcolor="#399de5ff"] ;
358 -> 359 ;
360 [label="income <= -1.31\ngini = 0.44\nsamples = 2\nvalue = [2, 1]", fillcolor="#e581397f"] ;
358 -> 360 ;
361 [label="gini = 0.0\nsamples = 1\nvalue = [2, 0]", fillcolor="#e58139ff"] ;
360 -> 361 ;
362 [label="gini = 0.0\nsamples = 1\nvalue = [0, 1]", fillcolor="#399de5ff"] ;
360 -> 362 ;
363 [label="income <= -0.57\ngini = 0.06\nsamples = 21\nvalue = [1, 29]", fillcolor="#399de5f6"] ;
347 -> 363 ;
364 [label="age <= 0.87\ngini = 0.14\nsamples = 8\nvalue = [1, 12]", fillcolor="#399de5ea"] ;
363 -> 364 ;
365 [label="gini = 0.0\nsamples = 7\nvalue = [0, 12]", fillcolor="#399de5ff"] ;
364 -> 365 ;
366 [label="gini = 0.0\nsamples = 1\nvalue = [1, 0]", fillcolor="#e58139ff"] ;
364 -> 366 ;
367 [label="gini = 0.0\nsamples = 13\nvalue = [0, 17]", fillcolor="#399de5ff"] ;
363 -> 367 ;
368 [label="memb_leng <= -1.01\ngini = 0.11\nsamples = 75\nvalue = [7, 114]", fillcolor="#399de5ef"] ;
292 -> 368 ;
369 [label="income <= 0.08\ngini = 0.48\nsamples = 4\nvalue = [3, 2]", fillcolor="#e5813955"] ;
368 -> 369 ;
370 [label="time <= 0.94\ngini = 0.38\nsamples = 3\nvalue = [3, 1]", fillcolor="#e58139aa"] ;
369 -> 370 ;
371 [label="income <= -0.76\ngini = 0.5\nsamples = 2\nvalue = [1, 1]", fillcolor="#e5813900"] ;
370 -> 371 ;
372 [label="gini = 0.0\nsamples = 1\nvalue = [1, 0]", fillcolor="#e58139ff"] ;
371 -> 372 ;
373 [label="gini = 0.0\nsamples = 1\nvalue = [0, 1]", fillcolor="#399de5ff"] ;
371 -> 373 ;
374 [label="gini = 0.0\nsamples = 1\nvalue = [2, 0]", fillcolor="#e58139ff"] ;
370 -> 374 ;
375 [label="gini = 0.0\nsamples = 1\nvalue = [0, 1]", fillcolor="#399de5ff"] ;
369 -> 375 ;
376 [label="age <= 1.62\ngini = 0.07\nsamples = 71\nvalue = [4, 112]", fillcolor="#399de5f6"] ;
368 -> 376 ;
377 [label="time <= 0.94\ngini = 0.05\nsamples = 67\nvalue = [3, 109]", fillcolor="#399de5f8"] ;
376 -> 377 ;
378 [label="income <= 0.38\ngini = 0.06\nsamples = 36\nvalue = [2, 61]", fillcolor="#399de5f7"] ;
377 -> 378 ;
379 [label="age <= -0.88\ngini = 0.03\nsamples = 32\nvalue = [1, 56]", fillcolor="#399de5fa"] ;
378 -> 379 ;
380 [label="memb_leng <= -0.93\ngini = 0.11\nsamples = 9\nvalue = [1, 16]", fillcolor="#399de5ef"] ;
379 -> 380 ;
381 [label="gini = 0.0\nsamples = 5\nvalue = [0, 10]", fillcolor="#399de5ff"] ;
380 -> 381 ;
382 [label="income <= -1.08\ngini = 0.24\nsamples = 4\nvalue = [1, 6]", fillcolor="#399de5d4"] ;
380 -> 382 ;
383 [label="gini = 0.0\nsamples = 1\nvalue = [1, 0]", fillcolor="#e58139ff"] ;
382 -> 383 ;
384 [label="gini = 0.0\nsamples = 3\nvalue = [0, 6]", fillcolor="#399de5ff"] ;
382 -> 384 ;
385 [label="gini = 0.0\nsamples = 23\nvalue = [0, 40]", fillcolor="#399de5ff"] ;
379 -> 385 ;
386 [label="age <= -0.48\ngini = 0.28\nsamples = 4\nvalue = [1, 5]", fillcolor="#399de5cc"] ;
378 -> 386 ;
387 [label="gini = 0.0\nsamples = 1\nvalue = [1, 0]", fillcolor="#e58139ff"] ;
386 -> 387 ;
388 [label="gini = 0.0\nsamples = 3\nvalue = [0, 5]", fillcolor="#399de5ff"] ;
386 -> 388 ;
389 [label="income <= 0.03\ngini = 0.04\nsamples = 31\nvalue = [1, 48]", fillcolor="#399de5fa"] ;
377 -> 389 ;
390 [label="gini = 0.0\nsamples = 22\nvalue = [0, 31]", fillcolor="#399de5ff"] ;
389 -> 390 ;
391 [label="income <= 0.17\ngini = 0.1\nsamples = 9\nvalue = [1, 17]", fillcolor="#399de5f0"] ;
389 -> 391 ;
392 [label="gini = 0.0\nsamples = 1\nvalue = [1, 0]", fillcolor="#e58139ff"] ;
391 -> 392 ;
393 [label="gini = 0.0\nsamples = 8\nvalue = [0, 17]", fillcolor="#399de5ff"] ;
391 -> 393 ;
394 [label="income <= 0.08\ngini = 0.38\nsamples = 4\nvalue = [1, 3]", fillcolor="#399de5aa"] ;
376 -> 394 ;
395 [label="gini = 0.0\nsamples = 3\nvalue = [0, 3]", fillcolor="#399de5ff"] ;
394 -> 395 ;
396 [label="gini = 0.0\nsamples = 1\nvalue = [1, 0]", fillcolor="#e58139ff"] ;
394 -> 396 ;
397 [label="age <= -0.57\ngini = 0.31\nsamples = 794\nvalue = [240, 999]", fillcolor="#399de5c2"] ;
231 -> 397 ;
398 [label="time <= 0.44\ngini = 0.18\nsamples = 238\nvalue = [38, 340]", fillcolor="#399de5e2"] ;
397 -> 398 ;
399 [label="time <= 0.15\ngini = 0.21\nsamples = 83\nvalue = [16, 119]", fillcolor="#399de5dd"] ;
398 -> 399 ;
400 [label="age <= -1.11\ngini = 0.21\nsamples = 41\nvalue = [8, 59]", fillcolor="#399de5dc"] ;
399 -> 400 ;
401 [label="gender_M <= 0.5\ngini = 0.09\nsamples = 24\nvalue = [2, 40]", fillcolor="#399de5f2"] ;
400 -> 401 ;
402 [label="age <= -1.95\ngini = 0.32\nsamples = 7\nvalue = [2, 8]", fillcolor="#399de5bf"] ;
401 -> 402 ;
403 [label="gini = 0.0\nsamples = 1\nvalue = [2, 0]", fillcolor="#e58139ff"] ;
402 -> 403 ;
404 [label="gini = 0.0\nsamples = 6\nvalue = [0, 8]", fillcolor="#399de5ff"] ;
402 -> 404 ;
405 [label="gini = 0.0\nsamples = 17\nvalue = [0, 32]", fillcolor="#399de5ff"] ;
401 -> 405 ;
406 [label="age <= -0.97\ngini = 0.36\nsamples = 17\nvalue = [6, 19]", fillcolor="#399de5ae"] ;
400 -> 406 ;
407 [label="gender_F <= 0.5\ngini = 0.44\nsamples = 6\nvalue = [6, 3]", fillcolor="#e581397f"] ;
406 -> 407 ;
408 [label="income <= -0.99\ngini = 0.44\nsamples = 2\nvalue = [2, 1]", fillcolor="#e581397f"] ;
407 -> 408 ;
409 [label="gini = 0.0\nsamples = 1\nvalue = [2, 0]", fillcolor="#e58139ff"] ;
408 -> 409 ;
410 [label="gini = 0.0\nsamples = 1\nvalue = [0, 1]", fillcolor="#399de5ff"] ;
408 -> 410 ;
411 [label="memb_leng <= -0.57\ngini = 0.44\nsamples = 4\nvalue = [4, 2]", fillcolor="#e581397f"] ;
407 -> 411 ;
412 [label="gini = 0.0\nsamples = 2\nvalue = [0, 2]", fillcolor="#399de5ff"] ;
411 -> 412 ;
413 [label="gini = 0.0\nsamples = 2\nvalue = [4, 0]", fillcolor="#e58139ff"] ;
411 -> 413 ;
414 [label="gini = 0.0\nsamples = 11\nvalue = [0, 16]", fillcolor="#399de5ff"] ;
406 -> 414 ;
415 [label="age <= -0.97\ngini = 0.21\nsamples = 42\nvalue = [8, 60]", fillcolor="#399de5dd"] ;
399 -> 415 ;
416 [label="age <= -1.72\ngini = 0.04\nsamples = 28\nvalue = [1, 44]", fillcolor="#399de5f9"] ;
415 -> 416 ;
417 [label="gini = 0.0\nsamples = 15\nvalue = [0, 25]", fillcolor="#399de5ff"] ;
416 -> 417 ;
418 [label="memb_leng <= -0.77\ngini = 0.09\nsamples = 13\nvalue = [1, 19]", fillcolor="#399de5f2"] ;
416 -> 418 ;
419 [label="gini = 0.0\nsamples = 1\nvalue = [1, 0]", fillcolor="#e58139ff"] ;
418 -> 419 ;
420 [label="gini = 0.0\nsamples = 12\nvalue = [0, 19]", fillcolor="#399de5ff"] ;
418 -> 420 ;
421 [label="age <= -0.91\ngini = 0.42\nsamples = 14\nvalue = [7, 16]", fillcolor="#399de58f"] ;
415 -> 421 ;
422 [label="gini = 0.0\nsamples = 1\nvalue = [3, 0]", fillcolor="#e58139ff"] ;
421 -> 422 ;
423 [label="memb_leng <= -0.57\ngini = 0.32\nsamples = 13\nvalue = [4, 16]", fillcolor="#399de5bf"] ;
421 -> 423 ;
424 [label="income <= -1.06\ngini = 0.49\nsamples = 5\nvalue = [3, 4]", fillcolor="#399de540"] ;
423 -> 424 ;
425 [label="income <= -1.38\ngini = 0.38\nsamples = 2\nvalue = [3, 1]", fillcolor="#e58139aa"] ;
424 -> 425 ;
426 [label="gini = 0.0\nsamples = 1\nvalue = [0, 1]", fillcolor="#399de5ff"] ;
425 -> 426 ;
427 [label="gini = 0.0\nsamples = 1\nvalue = [3, 0]", fillcolor="#e58139ff"] ;
425 -> 427 ;
428 [label="gini = 0.0\nsamples = 3\nvalue = [0, 3]", fillcolor="#399de5ff"] ;
424 -> 428 ;
429 [label="age <= -0.68\ngini = 0.14\nsamples = 8\nvalue = [1, 12]", fillcolor="#399de5ea"] ;
423 -> 429 ;
430 [label="gini = 0.0\nsamples = 4\nvalue = [0, 5]", fillcolor="#399de5ff"] ;
429 -> 430 ;
431 [label="memb_leng <= -0.46\ngini = 0.22\nsamples = 4\nvalue = [1, 7]", fillcolor="#399de5db"] ;
429 -> 431 ;
432 [label="gini = 0.0\nsamples = 3\nvalue = [0, 7]", fillcolor="#399de5ff"] ;
431 -> 432 ;
433 [label="gini = 0.0\nsamples = 1\nvalue = [1, 0]", fillcolor="#e58139ff"] ;
431 -> 433 ;
434 [label="income <= 1.16\ngini = 0.16\nsamples = 155\nvalue = [22, 221]", fillcolor="#399de5e6"] ;
398 -> 434 ;
435 [label="gender_M <= 0.5\ngini = 0.15\nsamples = 153\nvalue = [20, 218]", fillcolor="#399de5e8"] ;
434 -> 435 ;
436 [label="memb_leng <= -0.47\ngini = 0.18\nsamples = 53\nvalue = [8, 71]", fillcolor="#399de5e2"] ;
435 -> 436 ;
437 [label="time <= 0.65\ngini = 0.13\nsamples = 50\nvalue = [5, 69]", fillcolor="#399de5ed"] ;
436 -> 437 ;
438 [label="income <= 0.47\ngini = 0.2\nsamples = 13\nvalue = [2, 16]", fillcolor="#399de5df"] ;
437 -> 438 ;
439 [label="gini = 0.0\nsamples = 12\nvalue = [0, 16]", fillcolor="#399de5ff"] ;
438 -> 439 ;
440 [label="gini = 0.0\nsamples = 1\nvalue = [2, 0]", fillcolor="#e58139ff"] ;
438 -> 440 ;
441 [label="income <= -0.16\ngini = 0.1\nsamples = 37\nvalue = [3, 53]", fillcolor="#399de5f1"] ;
437 -> 441 ;
442 [label="age <= -0.74\ngini = 0.15\nsamples = 25\nvalue = [3, 33]", fillcolor="#399de5e8"] ;
441 -> 442 ;
443 [label="income <= -0.55\ngini = 0.06\nsamples = 20\nvalue = [1, 29]", fillcolor="#399de5f6"] ;
442 -> 443 ;
444 [label="gini = 0.0\nsamples = 12\nvalue = [0, 16]", fillcolor="#399de5ff"] ;
443 -> 444 ;
445 [label="memb_leng <= -0.65\ngini = 0.13\nsamples = 8\nvalue = [1, 13]", fillcolor="#399de5eb"] ;
443 -> 445 ;
446 [label="age <= -1.83\ngini = 0.44\nsamples = 3\nvalue = [1, 2]", fillcolor="#399de57f"] ;
445 -> 446 ;
447 [label="gini = 0.0\nsamples = 2\nvalue = [0, 2]", fillcolor="#399de5ff"] ;
446 -> 447 ;
448 [label="gini = 0.0\nsamples = 1\nvalue = [1, 0]", fillcolor="#e58139ff"] ;
446 -> 448 ;
449 [label="gini = 0.0\nsamples = 5\nvalue = [0, 11]", fillcolor="#399de5ff"] ;
445 -> 449 ;
450 [label="age <= -0.62\ngini = 0.44\nsamples = 5\nvalue = [2, 4]", fillcolor="#399de57f"] ;
442 -> 450 ;
451 [label="memb_leng <= -0.57\ngini = 0.38\nsamples = 3\nvalue = [1, 3]", fillcolor="#399de5aa"] ;
450 -> 451 ;
452 [label="time <= 0.85\ngini = 0.44\nsamples = 2\nvalue = [1, 2]", fillcolor="#399de57f"] ;
451 -> 452 ;
453 [label="gini = 0.0\nsamples = 1\nvalue = [0, 2]", fillcolor="#399de5ff"] ;
452 -> 453 ;
454 [label="gini = 0.0\nsamples = 1\nvalue = [1, 0]", fillcolor="#e58139ff"] ;
452 -> 454 ;
455 [label="gini = 0.0\nsamples = 1\nvalue = [0, 1]", fillcolor="#399de5ff"] ;
451 -> 455 ;
456 [label="memb_leng <= -0.62\ngini = 0.5\nsamples = 2\nvalue = [1, 1]", fillcolor="#e5813900"] ;
450 -> 456 ;
457 [label="gini = 0.0\nsamples = 1\nvalue = [0, 1]", fillcolor="#399de5ff"] ;
456 -> 457 ;
458 [label="gini = 0.0\nsamples = 1\nvalue = [1, 0]", fillcolor="#e58139ff"] ;
456 -> 458 ;
459 [label="gini = 0.0\nsamples = 12\nvalue = [0, 20]", fillcolor="#399de5ff"] ;
441 -> 459 ;
460 [label="income <= -0.27\ngini = 0.48\nsamples = 3\nvalue = [3, 2]", fillcolor="#e5813955"] ;
436 -> 460 ;
461 [label="gini = 0.0\nsamples = 2\nvalue = [0, 2]", fillcolor="#399de5ff"] ;
460 -> 461 ;
462 [label="gini = 0.0\nsamples = 1\nvalue = [3, 0]", fillcolor="#e58139ff"] ;
460 -> 462 ;
463 [label="age <= -1.2\ngini = 0.14\nsamples = 100\nvalue = [12, 147]", fillcolor="#399de5ea"] ;
435 -> 463 ;
464 [label="memb_leng <= -0.51\ngini = 0.19\nsamples = 60\nvalue = [10, 84]", fillcolor="#399de5e1"] ;
463 -> 464 ;
465 [label="income <= -1.01\ngini = 0.24\nsamples = 47\nvalue = [10, 63]", fillcolor="#399de5d7"] ;
464 -> 465 ;
466 [label="age <= -1.31\ngini = 0.42\nsamples = 15\nvalue = [6, 14]", fillcolor="#399de592"] ;
465 -> 466 ;
467 [label="memb_leng <= -0.68\ngini = 0.23\nsamples = 12\nvalue = [2, 13]", fillcolor="#399de5d8"] ;
466 -> 467 ;
468 [label="age <= -1.89\ngini = 0.5\nsamples = 3\nvalue = [2, 2]", fillcolor="#e5813900"] ;
467 -> 468 ;
469 [label="gini = 0.0\nsamples = 1\nvalue = [2, 0]", fillcolor="#e58139ff"] ;
468 -> 469 ;
470 [label="gini = 0.0\nsamples = 2\nvalue = [0, 2]", fillcolor="#399de5ff"] ;
468 -> 470 ;
471 [label="gini = 0.0\nsamples = 9\nvalue = [0, 11]", fillcolor="#399de5ff"] ;
467 -> 471 ;
472 [label="age <= -1.26\ngini = 0.32\nsamples = 3\nvalue = [4, 1]", fillcolor="#e58139bf"] ;
466 -> 472 ;
473 [label="gini = 0.0\nsamples = 1\nvalue = [2, 0]", fillcolor="#e58139ff"] ;
472 -> 473 ;
474 [label="time <= 0.94\ngini = 0.44\nsamples = 2\nvalue = [2, 1]", fillcolor="#e581397f"] ;
472 -> 474 ;
475 [label="gini = 0.0\nsamples = 1\nvalue = [2, 0]", fillcolor="#e58139ff"] ;
474 -> 475 ;
476 [label="gini = 0.0\nsamples = 1\nvalue = [0, 1]", fillcolor="#399de5ff"] ;
474 -> 476 ;
477 [label="memb_leng <= -0.51\ngini = 0.14\nsamples = 32\nvalue = [4, 49]", fillcolor="#399de5ea"] ;
465 -> 477 ;
478 [label="memb_leng <= -0.65\ngini = 0.11\nsamples = 30\nvalue = [3, 48]", fillcolor="#399de5ef"] ;
477 -> 478 ;
479 [label="gini = 0.0\nsamples = 13\nvalue = [0, 26]", fillcolor="#399de5ff"] ;
478 -> 479 ;
480 [label="age <= -1.43\ngini = 0.21\nsamples = 17\nvalue = [3, 22]", fillcolor="#399de5dc"] ;
478 -> 480 ;
481 [label="time <= 0.79\ngini = 0.09\nsamples = 13\nvalue = [1, 19]", fillcolor="#399de5f2"] ;
480 -> 481 ;
482 [label="gini = 0.0\nsamples = 7\nvalue = [0, 13]", fillcolor="#399de5ff"] ;
481 -> 482 ;
483 [label="memb_leng <= -0.64\ngini = 0.24\nsamples = 6\nvalue = [1, 6]", fillcolor="#399de5d4"] ;
481 -> 483 ;
484 [label="gini = 0.0\nsamples = 1\nvalue = [1, 0]", fillcolor="#e58139ff"] ;
483 -> 484 ;
485 [label="gini = 0.0\nsamples = 5\nvalue = [0, 6]", fillcolor="#399de5ff"] ;
483 -> 485 ;
486 [label="age <= -1.37\ngini = 0.48\nsamples = 4\nvalue = [2, 3]", fillcolor="#399de555"] ;
480 -> 486 ;
487 [label="time <= 0.79\ngini = 0.44\nsamples = 2\nvalue = [2, 1]", fillcolor="#e581397f"] ;
486 -> 487 ;
488 [label="gini = 0.0\nsamples = 1\nvalue = [0, 1]", fillcolor="#399de5ff"] ;
487 -> 488 ;
489 [label="gini = 0.0\nsamples = 1\nvalue = [2, 0]", fillcolor="#e58139ff"] ;
487 -> 489 ;
490 [label="gini = 0.0\nsamples = 2\nvalue = [0, 2]", fillcolor="#399de5ff"] ;
486 -> 490 ;
491 [label="age <= -1.69\ngini = 0.5\nsamples = 2\nvalue = [1, 1]", fillcolor="#e5813900"] ;
477 -> 491 ;
492 [label="gini = 0.0\nsamples = 1\nvalue = [1, 0]", fillcolor="#e58139ff"] ;
491 -> 492 ;
493 [label="gini = 0.0\nsamples = 1\nvalue = [0, 1]", fillcolor="#399de5ff"] ;
491 -> 493 ;
494 [label="gini = 0.0\nsamples = 13\nvalue = [0, 21]", fillcolor="#399de5ff"] ;
464 -> 494 ;
495 [label="income <= -0.71\ngini = 0.06\nsamples = 40\nvalue = [2, 63]", fillcolor="#399de5f7"] ;
463 -> 495 ;
496 [label="gini = 0.0\nsamples = 21\nvalue = [0, 31]", fillcolor="#399de5ff"] ;
495 -> 496 ;
497 [label="memb_leng <= -0.8\ngini = 0.11\nsamples = 19\nvalue = [2, 32]", fillcolor="#399de5ef"] ;
495 -> 497 ;
498 [label="gini = 0.0\nsamples = 1\nvalue = [1, 0]", fillcolor="#e58139ff"] ;
497 -> 498 ;
499 [label="income <= -0.02\ngini = 0.06\nsamples = 18\nvalue = [1, 32]", fillcolor="#399de5f7"] ;
497 -> 499 ;
500 [label="time <= 0.79\ngini = 0.22\nsamples = 6\nvalue = [1, 7]", fillcolor="#399de5db"] ;
499 -> 500 ;
501 [label="memb_leng <= -0.73\ngini = 0.44\nsamples = 3\nvalue = [1, 2]", fillcolor="#399de57f"] ;
500 -> 501 ;
502 [label="gini = 0.0\nsamples = 1\nvalue = [1, 0]", fillcolor="#e58139ff"] ;
501 -> 502 ;
503 [label="gini = 0.0\nsamples = 2\nvalue = [0, 2]", fillcolor="#399de5ff"] ;
501 -> 503 ;
504 [label="gini = 0.0\nsamples = 3\nvalue = [0, 5]", fillcolor="#399de5ff"] ;
500 -> 504 ;
505 [label="gini = 0.0\nsamples = 12\nvalue = [0, 25]", fillcolor="#399de5ff"] ;
499 -> 505 ;
506 [label="income <= 1.25\ngini = 0.48\nsamples = 2\nvalue = [2, 3]", fillcolor="#399de555"] ;
434 -> 506 ;
507 [label="gini = 0.0\nsamples = 1\nvalue = [2, 0]", fillcolor="#e58139ff"] ;
506 -> 507 ;
508 [label="gini = 0.0\nsamples = 1\nvalue = [0, 3]", fillcolor="#399de5ff"] ;
506 -> 508 ;
509 [label="time <= 0.65\ngini = 0.36\nsamples = 556\nvalue = [202, 659]", fillcolor="#399de5b1"] ;
397 -> 509 ;
510 [label="memb_leng <= -0.71\ngini = 0.31\nsamples = 263\nvalue = [78, 327]", fillcolor="#399de5c2"] ;
509 -> 510 ;
511 [label="gender_F <= 0.5\ngini = 0.4\nsamples = 65\nvalue = [27, 72]", fillcolor="#399de59f"] ;
510 -> 511 ;
512 [label="memb_leng <= -0.73\ngini = 0.35\nsamples = 31\nvalue = [11, 38]", fillcolor="#399de5b5"] ;
511 -> 512 ;
513 [label="income <= 0.58\ngini = 0.19\nsamples = 25\nvalue = [4, 34]", fillcolor="#399de5e1"] ;
512 -> 513 ;
514 [label="time <= 0.15\ngini = 0.07\nsamples = 17\nvalue = [1, 27]", fillcolor="#399de5f6"] ;
513 -> 514 ;
515 [label="income <= -0.2\ngini = 0.18\nsamples = 7\nvalue = [1, 9]", fillcolor="#399de5e3"] ;
514 -> 515 ;
516 [label="income <= -0.34\ngini = 0.44\nsamples = 3\nvalue = [1, 2]", fillcolor="#399de57f"] ;
515 -> 516 ;
517 [label="gini = 0.0\nsamples = 2\nvalue = [0, 2]", fillcolor="#399de5ff"] ;
516 -> 517 ;
518 [label="gini = 0.0\nsamples = 1\nvalue = [1, 0]", fillcolor="#e58139ff"] ;
516 -> 518 ;
519 [label="gini = 0.0\nsamples = 4\nvalue = [0, 7]", fillcolor="#399de5ff"] ;
515 -> 519 ;
520 [label="gini = 0.0\nsamples = 10\nvalue = [0, 18]", fillcolor="#399de5ff"] ;
514 -> 520 ;
521 [label="time <= 0.44\ngini = 0.42\nsamples = 8\nvalue = [3, 7]", fillcolor="#399de592"] ;
513 -> 521 ;
522 [label="income <= 1.19\ngini = 0.49\nsamples = 6\nvalue = [3, 4]", fillcolor="#399de540"] ;
521 -> 522 ;
523 [label="gini = 0.0\nsamples = 3\nvalue = [3, 0]", fillcolor="#e58139ff"] ;
522 -> 523 ;
524 [label="gini = 0.0\nsamples = 3\nvalue = [0, 4]", fillcolor="#399de5ff"] ;
522 -> 524 ;
525 [label="gini = 0.0\nsamples = 2\nvalue = [0, 3]", fillcolor="#399de5ff"] ;
521 -> 525 ;
526 [label="income <= -1.52\ngini = 0.46\nsamples = 6\nvalue = [7, 4]", fillcolor="#e581396d"] ;
512 -> 526 ;
527 [label="gini = 0.0\nsamples = 2\nvalue = [5, 0]", fillcolor="#e58139ff"] ;
526 -> 527 ;
528 [label="age <= -0.28\ngini = 0.44\nsamples = 4\nvalue = [2, 4]", fillcolor="#399de57f"] ;
526 -> 528 ;
529 [label="gini = 0.0\nsamples = 1\nvalue = [2, 0]", fillcolor="#e58139ff"] ;
528 -> 529 ;
530 [label="gini = 0.0\nsamples = 3\nvalue = [0, 4]", fillcolor="#399de5ff"] ;
528 -> 530 ;
531 [label="income <= -0.18\ngini = 0.44\nsamples = 34\nvalue = [16, 34]", fillcolor="#399de587"] ;
511 -> 531 ;
532 [label="gini = 0.0\nsamples = 8\nvalue = [0, 13]", fillcolor="#399de5ff"] ;
531 -> 532 ;
533 [label="age <= 0.09\ngini = 0.49\nsamples = 26\nvalue = [16, 21]", fillcolor="#399de53d"] ;
531 -> 533 ;
534 [label="time <= 0.44\ngini = 0.22\nsamples = 5\nvalue = [7, 1]", fillcolor="#e58139db"] ;
533 -> 534 ;
535 [label="gini = 0.0\nsamples = 4\nvalue = [7, 0]", fillcolor="#e58139ff"] ;
534 -> 535 ;
536 [label="gini = 0.0\nsamples = 1\nvalue = [0, 1]", fillcolor="#399de5ff"] ;
534 -> 536 ;
537 [label="income <= 0.42\ngini = 0.43\nsamples = 21\nvalue = [9, 20]", fillcolor="#399de58c"] ;
533 -> 537 ;
538 [label="gini = 0.0\nsamples = 4\nvalue = [0, 6]", fillcolor="#399de5ff"] ;
537 -> 538 ;
539 [label="income <= 1.07\ngini = 0.48\nsamples = 17\nvalue = [9, 14]", fillcolor="#399de55b"] ;
537 -> 539 ;
540 [label="memb_leng <= -0.79\ngini = 0.47\nsamples = 9\nvalue = [8, 5]", fillcolor="#e5813960"] ;
539 -> 540 ;
541 [label="gini = 0.0\nsamples = 1\nvalue = [0, 3]", fillcolor="#399de5ff"] ;
540 -> 541 ;
542 [label="income <= 0.84\ngini = 0.32\nsamples = 8\nvalue = [8, 2]", fillcolor="#e58139bf"] ;
540 -> 542 ;
543 [label="income <= 0.75\ngini = 0.44\nsamples = 5\nvalue = [4, 2]", fillcolor="#e581397f"] ;
542 -> 543 ;
544 [label="age <= 0.5\ngini = 0.32\nsamples = 4\nvalue = [4, 1]", fillcolor="#e58139bf"] ;
543 -> 544 ;
545 [label="age <= 0.41\ngini = 0.5\nsamples = 2\nvalue = [1, 1]", fillcolor="#e5813900"] ;
544 -> 545 ;
546 [label="gini = 0.0\nsamples = 1\nvalue = [1, 0]", fillcolor="#e58139ff"] ;
545 -> 546 ;
547 [label="gini = 0.0\nsamples = 1\nvalue = [0, 1]", fillcolor="#399de5ff"] ;
545 -> 547 ;
548 [label="gini = 0.0\nsamples = 2\nvalue = [3, 0]", fillcolor="#e58139ff"] ;
544 -> 548 ;
549 [label="gini = 0.0\nsamples = 1\nvalue = [0, 1]", fillcolor="#399de5ff"] ;
543 -> 549 ;
550 [label="gini = 0.0\nsamples = 3\nvalue = [4, 0]", fillcolor="#e58139ff"] ;
542 -> 550 ;
551 [label="age <= 1.36\ngini = 0.18\nsamples = 8\nvalue = [1, 9]", fillcolor="#399de5e3"] ;
539 -> 551 ;
552 [label="gini = 0.0\nsamples = 5\nvalue = [0, 7]", fillcolor="#399de5ff"] ;
551 -> 552 ;
553 [label="income <= 1.95\ngini = 0.44\nsamples = 3\nvalue = [1, 2]", fillcolor="#399de57f"] ;
551 -> 553 ;
554 [label="gini = 0.0\nsamples = 2\nvalue = [0, 2]", fillcolor="#399de5ff"] ;
553 -> 554 ;
555 [label="gini = 0.0\nsamples = 1\nvalue = [1, 0]", fillcolor="#e58139ff"] ;
553 -> 555 ;
556 [label="gender_M <= 0.5\ngini = 0.28\nsamples = 198\nvalue = [51, 255]", fillcolor="#399de5cc"] ;
510 -> 556 ;
557 [label="age <= -0.34\ngini = 0.35\nsamples = 94\nvalue = [33, 115]", fillcolor="#399de5b6"] ;
556 -> 557 ;
558 [label="time <= 0.44\ngini = 0.49\nsamples = 13\nvalue = [8, 10]", fillcolor="#399de533"] ;
557 -> 558 ;
559 [label="income <= 0.49\ngini = 0.35\nsamples = 7\nvalue = [2, 7]", fillcolor="#399de5b6"] ;
558 -> 559 ;
560 [label="income <= -0.85\ngini = 0.22\nsamples = 6\nvalue = [1, 7]", fillcolor="#399de5db"] ;
559 -> 560 ;
561 [label="age <= -0.48\ngini = 0.38\nsamples = 2\nvalue = [1, 3]", fillcolor="#399de5aa"] ;
560 -> 561 ;
562 [label="gini = 0.0\nsamples = 1\nvalue = [0, 3]", fillcolor="#399de5ff"] ;
561 -> 562 ;
563 [label="gini = 0.0\nsamples = 1\nvalue = [1, 0]", fillcolor="#e58139ff"] ;
561 -> 563 ;
564 [label="gini = 0.0\nsamples = 4\nvalue = [0, 4]", fillcolor="#399de5ff"] ;
560 -> 564 ;
565 [label="gini = 0.0\nsamples = 1\nvalue = [1, 0]", fillcolor="#e58139ff"] ;
559 -> 565 ;
566 [label="memb_leng <= -0.54\ngini = 0.44\nsamples = 6\nvalue = [6, 3]", fillcolor="#e581397f"] ;
558 -> 566 ;
567 [label="gini = 0.0\nsamples = 2\nvalue = [2, 0]", fillcolor="#e58139ff"] ;
566 -> 567 ;
568 [label="age <= -0.42\ngini = 0.49\nsamples = 4\nvalue = [4, 3]", fillcolor="#e5813940"] ;
566 -> 568 ;
569 [label="age <= -0.51\ngini = 0.38\nsamples = 3\nvalue = [1, 3]", fillcolor="#399de5aa"] ;
568 -> 569 ;
570 [label="memb_leng <= -0.45\ngini = 0.5\nsamples = 2\nvalue = [1, 1]", fillcolor="#e5813900"] ;
569 -> 570 ;
571 [label="gini = 0.0\nsamples = 1\nvalue = [0, 1]", fillcolor="#399de5ff"] ;
570 -> 571 ;
572 [label="gini = 0.0\nsamples = 1\nvalue = [1, 0]", fillcolor="#e58139ff"] ;
570 -> 572 ;
573 [label="gini = 0.0\nsamples = 1\nvalue = [0, 2]", fillcolor="#399de5ff"] ;
569 -> 573 ;
574 [label="gini = 0.0\nsamples = 1\nvalue = [3, 0]", fillcolor="#e58139ff"] ;
568 -> 574 ;
575 [label="income <= 2.09\ngini = 0.31\nsamples = 81\nvalue = [25, 105]", fillcolor="#399de5c2"] ;
557 -> 575 ;
576 [label="time <= 0.15\ngini = 0.29\nsamples = 75\nvalue = [21, 101]", fillcolor="#399de5ca"] ;
575 -> 576 ;
577 [label="income <= 0.75\ngini = 0.26\nsamples = 25\nvalue = [7, 39]", fillcolor="#399de5d1"] ;
576 -> 577 ;
578 [label="income <= -0.11\ngini = 0.37\nsamples = 17\nvalue = [7, 22]", fillcolor="#399de5ae"] ;
577 -> 578 ;
579 [label="memb_leng <= -0.45\ngini = 0.13\nsamples = 8\nvalue = [1, 13]", fillcolor="#399de5eb"] ;
578 -> 579 ;
580 [label="gini = 0.0\nsamples = 7\nvalue = [0, 13]", fillcolor="#399de5ff"] ;
579 -> 580 ;
581 [label="gini = 0.0\nsamples = 1\nvalue = [1, 0]", fillcolor="#e58139ff"] ;
579 -> 581 ;
582 [label="age <= 1.01\ngini = 0.48\nsamples = 9\nvalue = [6, 9]", fillcolor="#399de555"] ;
578 -> 582 ;
583 [label="income <= 0.14\ngini = 0.44\nsamples = 5\nvalue = [6, 3]", fillcolor="#e581397f"] ;
582 -> 583 ;
584 [label="gini = 0.0\nsamples = 1\nvalue = [4, 0]", fillcolor="#e58139ff"] ;
583 -> 584 ;
585 [label="memb_leng <= -0.62\ngini = 0.48\nsamples = 4\nvalue = [2, 3]", fillcolor="#399de555"] ;
583 -> 585 ;
586 [label="gini = 0.0\nsamples = 1\nvalue = [1, 0]", fillcolor="#e58139ff"] ;
585 -> 586 ;
587 [label="age <= 0.55\ngini = 0.38\nsamples = 3\nvalue = [1, 3]", fillcolor="#399de5aa"] ;
585 -> 587 ;
588 [label="gini = 0.0\nsamples = 2\nvalue = [0, 3]", fillcolor="#399de5ff"] ;
587 -> 588 ;
589 [label="gini = 0.0\nsamples = 1\nvalue = [1, 0]", fillcolor="#e58139ff"] ;
587 -> 589 ;
590 [label="gini = 0.0\nsamples = 4\nvalue = [0, 6]", fillcolor="#399de5ff"] ;
582 -> 590 ;
591 [label="gini = 0.0\nsamples = 8\nvalue = [0, 17]", fillcolor="#399de5ff"] ;
577 -> 591 ;
592 [label="memb_leng <= -0.58\ngini = 0.3\nsamples = 50\nvalue = [14, 62]", fillcolor="#399de5c5"] ;
576 -> 592 ;
593 [label="income <= 0.91\ngini = 0.21\nsamples = 25\nvalue = [5, 37]", fillcolor="#399de5dd"] ;
592 -> 593 ;
594 [label="memb_leng <= -0.7\ngini = 0.27\nsamples = 18\nvalue = [5, 26]", fillcolor="#399de5ce"] ;
593 -> 594 ;
595 [label="income <= 0.47\ngini = 0.48\nsamples = 3\nvalue = [2, 3]", fillcolor="#399de555"] ;
594 -> 595 ;
596 [label="gini = 0.0\nsamples = 2\nvalue = [0, 3]", fillcolor="#399de5ff"] ;
595 -> 596 ;
597 [label="gini = 0.0\nsamples = 1\nvalue = [2, 0]", fillcolor="#e58139ff"] ;
595 -> 597 ;
598 [label="age <= 0.32\ngini = 0.2\nsamples = 15\nvalue = [3, 23]", fillcolor="#399de5de"] ;
594 -> 598 ;
599 [label="income <= 0.79\ngini = 0.34\nsamples = 9\nvalue = [3, 11]", fillcolor="#399de5b9"] ;
598 -> 599 ;
600 [label="age <= 0.07\ngini = 0.26\nsamples = 8\nvalue = [2, 11]", fillcolor="#399de5d1"] ;
599 -> 600 ;
601 [label="gini = 0.0\nsamples = 7\nvalue = [0, 11]", fillcolor="#399de5ff"] ;
600 -> 601 ;
602 [label="gini = 0.0\nsamples = 1\nvalue = [2, 0]", fillcolor="#e58139ff"] ;
600 -> 602 ;
603 [label="gini = 0.0\nsamples = 1\nvalue = [1, 0]", fillcolor="#e58139ff"] ;
599 -> 603 ;
604 [label="gini = 0.0\nsamples = 6\nvalue = [0, 12]", fillcolor="#399de5ff"] ;
598 -> 604 ;
605 [label="gini = 0.0\nsamples = 7\nvalue = [0, 11]", fillcolor="#399de5ff"] ;
593 -> 605 ;
606 [label="income <= 0.72\ngini = 0.39\nsamples = 25\nvalue = [9, 25]", fillcolor="#399de5a3"] ;
592 -> 606 ;
607 [label="income <= 0.45\ngini = 0.08\nsamples = 16\nvalue = [1, 24]", fillcolor="#399de5f4"] ;
606 -> 607 ;
608 [label="gini = 0.0\nsamples = 13\nvalue = [0, 21]", fillcolor="#399de5ff"] ;
607 -> 608 ;
609 [label="income <= 0.54\ngini = 0.38\nsamples = 3\nvalue = [1, 3]", fillcolor="#399de5aa"] ;
607 -> 609 ;
610 [label="gini = 0.0\nsamples = 1\nvalue = [1, 0]", fillcolor="#e58139ff"] ;
609 -> 610 ;
611 [label="gini = 0.0\nsamples = 2\nvalue = [0, 3]", fillcolor="#399de5ff"] ;
609 -> 611 ;
612 [label="income <= 1.0\ngini = 0.2\nsamples = 9\nvalue = [8, 1]", fillcolor="#e58139df"] ;
606 -> 612 ;
613 [label="age <= 0.75\ngini = 0.5\nsamples = 2\nvalue = [1, 1]", fillcolor="#e5813900"] ;
612 -> 613 ;
614 [label="gini = 0.0\nsamples = 1\nvalue = [0, 1]", fillcolor="#399de5ff"] ;
613 -> 614 ;
615 [label="gini = 0.0\nsamples = 1\nvalue = [1, 0]", fillcolor="#e58139ff"] ;
613 -> 615 ;
616 [label="gini = 0.0\nsamples = 7\nvalue = [7, 0]", fillcolor="#e58139ff"] ;
612 -> 616 ;
617 [label="memb_leng <= -0.55\ngini = 0.5\nsamples = 6\nvalue = [4, 4]", fillcolor="#e5813900"] ;
575 -> 617 ;
618 [label="gini = 0.0\nsamples = 2\nvalue = [4, 0]", fillcolor="#e58139ff"] ;
617 -> 618 ;
619 [label="gini = 0.0\nsamples = 4\nvalue = [0, 4]", fillcolor="#399de5ff"] ;
617 -> 619 ;
620 [label="income <= -0.78\ngini = 0.2\nsamples = 104\nvalue = [18, 140]", fillcolor="#399de5de"] ;
556 -> 620 ;
621 [label="gini = 0.0\nsamples = 29\nvalue = [0, 41]", fillcolor="#399de5ff"] ;
620 -> 621 ;
622 [label="income <= -0.6\ngini = 0.26\nsamples = 75\nvalue = [18, 99]", fillcolor="#399de5d1"] ;
620 -> 622 ;
623 [label="memb_leng <= -0.47\ngini = 0.48\nsamples = 14\nvalue = [9, 14]", fillcolor="#399de55b"] ;
622 -> 623 ;
624 [label="income <= -0.64\ngini = 0.36\nsamples = 11\nvalue = [4, 13]", fillcolor="#399de5b1"] ;
623 -> 624 ;
625 [label="gini = 0.0\nsamples = 5\nvalue = [0, 7]", fillcolor="#399de5ff"] ;
624 -> 625 ;
626 [label="memb_leng <= -0.55\ngini = 0.48\nsamples = 6\nvalue = [4, 6]", fillcolor="#399de555"] ;
624 -> 626 ;
627 [label="time <= 0.15\ngini = 0.32\nsamples = 3\nvalue = [4, 1]", fillcolor="#e58139bf"] ;
626 -> 627 ;
628 [label="gini = 0.0\nsamples = 1\nvalue = [0, 1]", fillcolor="#399de5ff"] ;
627 -> 628 ;
629 [label="gini = 0.0\nsamples = 2\nvalue = [4, 0]", fillcolor="#e58139ff"] ;
627 -> 629 ;
630 [label="gini = 0.0\nsamples = 3\nvalue = [0, 5]", fillcolor="#399de5ff"] ;
626 -> 630 ;
631 [label="income <= -0.66\ngini = 0.28\nsamples = 3\nvalue = [5, 1]", fillcolor="#e58139cc"] ;
623 -> 631 ;
632 [label="gini = 0.0\nsamples = 2\nvalue = [5, 0]", fillcolor="#e58139ff"] ;
631 -> 632 ;
633 [label="gini = 0.0\nsamples = 1\nvalue = [0, 1]", fillcolor="#399de5ff"] ;
631 -> 633 ;
634 [label="age <= 1.99\ngini = 0.17\nsamples = 61\nvalue = [9, 85]", fillcolor="#399de5e4"] ;
622 -> 634 ;
635 [label="time <= 0.44\ngini = 0.16\nsamples = 60\nvalue = [8, 85]", fillcolor="#399de5e7"] ;
634 -> 635 ;
636 [label="age <= -0.45\ngini = 0.18\nsamples = 37\nvalue = [6, 54]", fillcolor="#399de5e3"] ;
635 -> 636 ;
637 [label="gini = 0.0\nsamples = 1\nvalue = [1, 0]", fillcolor="#e58139ff"] ;
636 -> 637 ;
638 [label="income <= 0.84\ngini = 0.16\nsamples = 36\nvalue = [5, 54]", fillcolor="#399de5e7"] ;
636 -> 638 ;
639 [label="memb_leng <= -0.66\ngini = 0.04\nsamples = 27\nvalue = [1, 45]", fillcolor="#399de5f9"] ;
638 -> 639 ;
640 [label="income <= 0.12\ngini = 0.44\nsamples = 3\nvalue = [1, 2]", fillcolor="#399de57f"] ;
639 -> 640 ;
641 [label="gini = 0.0\nsamples = 1\nvalue = [1, 0]", fillcolor="#e58139ff"] ;
640 -> 641 ;
642 [label="gini = 0.0\nsamples = 2\nvalue = [0, 2]", fillcolor="#399de5ff"] ;
640 -> 642 ;
643 [label="gini = 0.0\nsamples = 24\nvalue = [0, 43]", fillcolor="#399de5ff"] ;
639 -> 643 ;
644 [label="age <= -0.02\ngini = 0.43\nsamples = 9\nvalue = [4, 9]", fillcolor="#399de58e"] ;
638 -> 644 ;
645 [label="gini = 0.0\nsamples = 2\nvalue = [2, 0]", fillcolor="#e58139ff"] ;
644 -> 645 ;
646 [label="memb_leng <= -0.61\ngini = 0.3\nsamples = 7\nvalue = [2, 9]", fillcolor="#399de5c6"] ;
644 -> 646 ;
647 [label="memb_leng <= -0.68\ngini = 0.44\nsamples = 2\nvalue = [2, 1]", fillcolor="#e581397f"] ;
646 -> 647 ;
648 [label="gini = 0.0\nsamples = 1\nvalue = [0, 1]", fillcolor="#399de5ff"] ;
647 -> 648 ;
649 [label="gini = 0.0\nsamples = 1\nvalue = [2, 0]", fillcolor="#e58139ff"] ;
647 -> 649 ;
650 [label="gini = 0.0\nsamples = 5\nvalue = [0, 8]", fillcolor="#399de5ff"] ;
646 -> 650 ;
651 [label="income <= 1.51\ngini = 0.11\nsamples = 23\nvalue = [2, 31]", fillcolor="#399de5ef"] ;
635 -> 651 ;
652 [label="memb_leng <= -0.65\ngini = 0.06\nsamples = 21\nvalue = [1, 30]", fillcolor="#399de5f6"] ;
651 -> 652 ;
653 [label="age <= 0.87\ngini = 0.2\nsamples = 6\nvalue = [1, 8]", fillcolor="#399de5df"] ;
652 -> 653 ;
654 [label="income <= 0.21\ngini = 0.38\nsamples = 4\nvalue = [1, 3]", fillcolor="#399de5aa"] ;
653 -> 654 ;
655 [label="gini = 0.0\nsamples = 1\nvalue = [1, 0]", fillcolor="#e58139ff"] ;
654 -> 655 ;
656 [label="gini = 0.0\nsamples = 3\nvalue = [0, 3]", fillcolor="#399de5ff"] ;
654 -> 656 ;
657 [label="gini = 0.0\nsamples = 2\nvalue = [0, 5]", fillcolor="#399de5ff"] ;
653 -> 657 ;
658 [label="gini = 0.0\nsamples = 15\nvalue = [0, 22]", fillcolor="#399de5ff"] ;
652 -> 658 ;
659 [label="memb_leng <= -0.59\ngini = 0.5\nsamples = 2\nvalue = [1, 1]", fillcolor="#e5813900"] ;
651 -> 659 ;
660 [label="gini = 0.0\nsamples = 1\nvalue = [1, 0]", fillcolor="#e58139ff"] ;
659 -> 660 ;
661 [label="gini = 0.0\nsamples = 1\nvalue = [0, 1]", fillcolor="#399de5ff"] ;
659 -> 661 ;
662 [label="gini = 0.0\nsamples = 1\nvalue = [1, 0]", fillcolor="#e58139ff"] ;
634 -> 662 ;
663 [label="age <= 1.62\ngini = 0.4\nsamples = 293\nvalue = [124, 332]", fillcolor="#399de5a0"] ;
509 -> 663 ;
664 [label="gender_M <= 0.5\ngini = 0.41\nsamples = 271\nvalue = [122, 296]", fillcolor="#399de596"] ;
663 -> 664 ;
665 [label="age <= 1.39\ngini = 0.45\nsamples = 128\nvalue = [71, 132]", fillcolor="#399de576"] ;
664 -> 665 ;
666 [label="income <= 0.88\ngini = 0.44\nsamples = 121\nvalue = [64, 128]", fillcolor="#399de57f"] ;
665 -> 666 ;
667 [label="memb_leng <= -0.79\ngini = 0.25\nsamples = 73\nvalue = [18, 103]", fillcolor="#399de5d2"] ;
666 -> 667 ;
668 [label="income <= -0.06\ngini = 0.5\nsamples = 2\nvalue = [2, 2]", fillcolor="#e5813900"] ;
667 -> 668 ;
669 [label="gini = 0.0\nsamples = 1\nvalue = [0, 2]", fillcolor="#399de5ff"] ;
668 -> 669 ;
670 [label="gini = 0.0\nsamples = 1\nvalue = [2, 0]", fillcolor="#e58139ff"] ;
668 -> 670 ;
671 [label="time <= 0.79\ngini = 0.24\nsamples = 71\nvalue = [16, 101]", fillcolor="#399de5d7"] ;
667 -> 671 ;
672 [label="age <= -0.31\ngini = 0.18\nsamples = 25\nvalue = [5, 44]", fillcolor="#399de5e2"] ;
671 -> 672 ;
673 [label="age <= -0.42\ngini = 0.49\nsamples = 3\nvalue = [3, 4]", fillcolor="#399de540"] ;
672 -> 673 ;
674 [label="gini = 0.0\nsamples = 2\nvalue = [0, 4]", fillcolor="#399de5ff"] ;
673 -> 674 ;
675 [label="gini = 0.0\nsamples = 1\nvalue = [3, 0]", fillcolor="#e58139ff"] ;
673 -> 675 ;
676 [label="income <= 0.33\ngini = 0.09\nsamples = 22\nvalue = [2, 40]", fillcolor="#399de5f2"] ;
672 -> 676 ;
677 [label="gini = 0.0\nsamples = 15\nvalue = [0, 26]", fillcolor="#399de5ff"] ;
676 -> 677 ;
678 [label="memb_leng <= -0.57\ngini = 0.22\nsamples = 7\nvalue = [2, 14]", fillcolor="#399de5db"] ;
676 -> 678 ;
679 [label="gini = 0.0\nsamples = 5\nvalue = [0, 11]", fillcolor="#399de5ff"] ;
678 -> 679 ;
680 [label="memb_leng <= -0.51\ngini = 0.48\nsamples = 2\nvalue = [2, 3]", fillcolor="#399de555"] ;
678 -> 680 ;
681 [label="gini = 0.0\nsamples = 1\nvalue = [2, 0]", fillcolor="#e58139ff"] ;
680 -> 681 ;
682 [label="gini = 0.0\nsamples = 1\nvalue = [0, 3]", fillcolor="#399de5ff"] ;
680 -> 682 ;
683 [label="income <= -0.55\ngini = 0.27\nsamples = 46\nvalue = [11, 57]", fillcolor="#399de5ce"] ;
671 -> 683 ;
684 [label="gini = 0.0\nsamples = 14\nvalue = [0, 19]", fillcolor="#399de5ff"] ;
683 -> 684 ;
685 [label="time <= 0.94\ngini = 0.35\nsamples = 32\nvalue = [11, 38]", fillcolor="#399de5b5"] ;
683 -> 685 ;
686 [label="age <= 0.75\ngini = 0.42\nsamples = 13\nvalue = [5, 12]", fillcolor="#399de595"] ;
685 -> 686 ;
687 [label="age <= 0.41\ngini = 0.46\nsamples = 10\nvalue = [5, 9]", fillcolor="#399de571"] ;
686 -> 687 ;
688 [label="income <= -0.06\ngini = 0.38\nsamples = 9\nvalue = [3, 9]", fillcolor="#399de5aa"] ;
687 -> 688 ;
689 [label="gini = 0.0\nsamples = 1\nvalue = [1, 0]", fillcolor="#e58139ff"] ;
688 -> 689 ;
690 [label="income <= 0.38\ngini = 0.3\nsamples = 8\nvalue = [2, 9]", fillcolor="#399de5c6"] ;
688 -> 690 ;
691 [label="gini = 0.0\nsamples = 3\nvalue = [0, 3]", fillcolor="#399de5ff"] ;
690 -> 691 ;
692 [label="income <= 0.75\ngini = 0.38\nsamples = 5\nvalue = [2, 6]", fillcolor="#399de5aa"] ;
690 -> 692 ;
693 [label="age <= 0.07\ngini = 0.48\nsamples = 3\nvalue = [2, 3]", fillcolor="#399de555"] ;
692 -> 693 ;
694 [label="gini = 0.0\nsamples = 2\nvalue = [2, 0]", fillcolor="#e58139ff"] ;
693 -> 694 ;
695 [label="gini = 0.0\nsamples = 1\nvalue = [0, 3]", fillcolor="#399de5ff"] ;
693 -> 695 ;
696 [label="gini = 0.0\nsamples = 2\nvalue = [0, 3]", fillcolor="#399de5ff"] ;
692 -> 696 ;
697 [label="gini = 0.0\nsamples = 1\nvalue = [2, 0]", fillcolor="#e58139ff"] ;
687 -> 697 ;
698 [label="gini = 0.0\nsamples = 3\nvalue = [0, 3]", fillcolor="#399de5ff"] ;
686 -> 698 ;
699 [label="age <= 0.75\ngini = 0.3\nsamples = 19\nvalue = [6, 26]", fillcolor="#399de5c4"] ;
685 -> 699 ;
700 [label="memb_leng <= -0.65\ngini = 0.24\nsamples = 17\nvalue = [4, 24]", fillcolor="#399de5d4"] ;
699 -> 700 ;
701 [label="gini = 0.0\nsamples = 9\nvalue = [0, 17]", fillcolor="#399de5ff"] ;
700 -> 701 ;
702 [label="memb_leng <= -0.48\ngini = 0.46\nsamples = 8\nvalue = [4, 7]", fillcolor="#399de56d"] ;
700 -> 702 ;
703 [label="income <= -0.34\ngini = 0.5\nsamples = 5\nvalue = [4, 4]", fillcolor="#e5813900"] ;
702 -> 703 ;
704 [label="gini = 0.0\nsamples = 1\nvalue = [1, 0]", fillcolor="#e58139ff"] ;
703 -> 704 ;
705 [label="age <= -0.34\ngini = 0.49\nsamples = 4\nvalue = [3, 4]", fillcolor="#399de540"] ;
703 -> 705 ;
706 [label="gini = 0.0\nsamples = 1\nvalue = [0, 2]", fillcolor="#399de5ff"] ;
705 -> 706 ;
707 [label="age <= -0.02\ngini = 0.48\nsamples = 3\nvalue = [3, 2]", fillcolor="#e5813955"] ;
705 -> 707 ;
708 [label="income <= 0.4\ngini = 0.5\nsamples = 2\nvalue = [2, 2]", fillcolor="#e5813900"] ;
707 -> 708 ;
709 [label="gini = 0.0\nsamples = 1\nvalue = [2, 0]", fillcolor="#e58139ff"] ;
708 -> 709 ;
710 [label="gini = 0.0\nsamples = 1\nvalue = [0, 2]", fillcolor="#399de5ff"] ;
708 -> 710 ;
711 [label="gini = 0.0\nsamples = 1\nvalue = [1, 0]", fillcolor="#e58139ff"] ;
707 -> 711 ;
712 [label="gini = 0.0\nsamples = 3\nvalue = [0, 3]", fillcolor="#399de5ff"] ;
702 -> 712 ;
713 [label="age <= 1.04\ngini = 0.5\nsamples = 2\nvalue = [2, 2]", fillcolor="#e5813900"] ;
699 -> 713 ;
714 [label="gini = 0.0\nsamples = 1\nvalue = [2, 0]", fillcolor="#e58139ff"] ;
713 -> 714 ;
715 [label="gini = 0.0\nsamples = 1\nvalue = [0, 2]", fillcolor="#399de5ff"] ;
713 -> 715 ;
716 [label="time <= 0.79\ngini = 0.46\nsamples = 48\nvalue = [46, 25]", fillcolor="#e5813974"] ;
666 -> 716 ;
717 [label="memb_leng <= -0.6\ngini = 0.34\nsamples = 19\nvalue = [25, 7]", fillcolor="#e58139b8"] ;
716 -> 717 ;
718 [label="age <= 0.01\ngini = 0.17\nsamples = 11\nvalue = [20, 2]", fillcolor="#e58139e6"] ;
717 -> 718 ;
719 [label="gini = 0.0\nsamples = 4\nvalue = [8, 0]", fillcolor="#e58139ff"] ;
718 -> 719 ;
720 [label="income <= 1.3\ngini = 0.24\nsamples = 7\nvalue = [12, 2]", fillcolor="#e58139d4"] ;
718 -> 720 ;
721 [label="gini = 0.0\nsamples = 1\nvalue = [0, 1]", fillcolor="#399de5ff"] ;
720 -> 721 ;
722 [label="income <= 1.95\ngini = 0.14\nsamples = 6\nvalue = [12, 1]", fillcolor="#e58139ea"] ;
720 -> 722 ;
723 [label="gini = 0.0\nsamples = 3\nvalue = [9, 0]", fillcolor="#e58139ff"] ;
722 -> 723 ;
724 [label="age <= 0.35\ngini = 0.38\nsamples = 3\nvalue = [3, 1]", fillcolor="#e58139aa"] ;
722 -> 724 ;
725 [label="gini = 0.0\nsamples = 2\nvalue = [3, 0]", fillcolor="#e58139ff"] ;
724 -> 725 ;
726 [label="gini = 0.0\nsamples = 1\nvalue = [0, 1]", fillcolor="#399de5ff"] ;
724 -> 726 ;
727 [label="income <= 1.09\ngini = 0.5\nsamples = 8\nvalue = [5, 5]", fillcolor="#e5813900"] ;
717 -> 727 ;
728 [label="memb_leng <= -0.52\ngini = 0.41\nsamples = 5\nvalue = [2, 5]", fillcolor="#399de599"] ;
727 -> 728 ;
729 [label="gini = 0.0\nsamples = 2\nvalue = [0, 3]", fillcolor="#399de5ff"] ;
728 -> 729 ;
730 [label="age <= 0.93\ngini = 0.5\nsamples = 3\nvalue = [2, 2]", fillcolor="#e5813900"] ;
728 -> 730 ;
731 [label="gini = 0.0\nsamples = 1\nvalue = [2, 0]", fillcolor="#e58139ff"] ;
730 -> 731 ;
732 [label="gini = 0.0\nsamples = 2\nvalue = [0, 2]", fillcolor="#399de5ff"] ;
730 -> 732 ;
733 [label="gini = 0.0\nsamples = 3\nvalue = [3, 0]", fillcolor="#e58139ff"] ;
727 -> 733 ;
734 [label="income <= 1.44\ngini = 0.5\nsamples = 29\nvalue = [21, 18]", fillcolor="#e5813924"] ;
716 -> 734 ;
735 [label="age <= -0.11\ngini = 0.32\nsamples = 13\nvalue = [12, 3]", fillcolor="#e58139bf"] ;
734 -> 735 ;
736 [label="memb_leng <= -0.59\ngini = 0.44\nsamples = 3\nvalue = [1, 2]", fillcolor="#399de57f"] ;
735 -> 736 ;
737 [label="gini = 0.0\nsamples = 1\nvalue = [0, 1]", fillcolor="#399de5ff"] ;
736 -> 737 ;
738 [label="age <= -0.22\ngini = 0.5\nsamples = 2\nvalue = [1, 1]", fillcolor="#e5813900"] ;
736 -> 738 ;
739 [label="gini = 0.0\nsamples = 1\nvalue = [1, 0]", fillcolor="#e58139ff"] ;
738 -> 739 ;
740 [label="gini = 0.0\nsamples = 1\nvalue = [0, 1]", fillcolor="#399de5ff"] ;
738 -> 740 ;
741 [label="time <= 0.94\ngini = 0.15\nsamples = 10\nvalue = [11, 1]", fillcolor="#e58139e8"] ;
735 -> 741 ;
742 [label="age <= 1.27\ngini = 0.24\nsamples = 6\nvalue = [6, 1]", fillcolor="#e58139d4"] ;
741 -> 742 ;
743 [label="gini = 0.0\nsamples = 5\nvalue = [6, 0]", fillcolor="#e58139ff"] ;
742 -> 743 ;
744 [label="gini = 0.0\nsamples = 1\nvalue = [0, 1]", fillcolor="#399de5ff"] ;
742 -> 744 ;
745 [label="gini = 0.0\nsamples = 4\nvalue = [5, 0]", fillcolor="#e58139ff"] ;
741 -> 745 ;
746 [label="time <= 0.94\ngini = 0.47\nsamples = 16\nvalue = [9, 15]", fillcolor="#399de566"] ;
734 -> 746 ;
747 [label="age <= 0.35\ngini = 0.48\nsamples = 8\nvalue = [4, 6]", fillcolor="#399de555"] ;
746 -> 747 ;
748 [label="income <= 1.97\ngini = 0.48\nsamples = 4\nvalue = [3, 2]", fillcolor="#e5813955"] ;
747 -> 748 ;
749 [label="gini = 0.0\nsamples = 3\nvalue = [3, 0]", fillcolor="#e58139ff"] ;
748 -> 749 ;
750 [label="gini = 0.0\nsamples = 1\nvalue = [0, 2]", fillcolor="#399de5ff"] ;
748 -> 750 ;
751 [label="age <= 0.7\ngini = 0.32\nsamples = 4\nvalue = [1, 4]", fillcolor="#399de5bf"] ;
747 -> 751 ;
752 [label="gini = 0.0\nsamples = 2\nvalue = [0, 2]", fillcolor="#399de5ff"] ;
751 -> 752 ;
753 [label="income <= 1.69\ngini = 0.44\nsamples = 2\nvalue = [1, 2]", fillcolor="#399de57f"] ;
751 -> 753 ;
754 [label="gini = 0.0\nsamples = 1\nvalue = [0, 2]", fillcolor="#399de5ff"] ;
753 -> 754 ;
755 [label="gini = 0.0\nsamples = 1\nvalue = [1, 0]", fillcolor="#e58139ff"] ;
753 -> 755 ;
756 [label="income <= 1.67\ngini = 0.46\nsamples = 8\nvalue = [5, 9]", fillcolor="#399de571"] ;
746 -> 756 ;
757 [label="gini = 0.0\nsamples = 4\nvalue = [0, 7]", fillcolor="#399de5ff"] ;
756 -> 757 ;
758 [label="age <= 0.29\ngini = 0.41\nsamples = 4\nvalue = [5, 2]", fillcolor="#e5813999"] ;
756 -> 758 ;
759 [label="gini = 0.0\nsamples = 2\nvalue = [5, 0]", fillcolor="#e58139ff"] ;
758 -> 759 ;
760 [label="gini = 0.0\nsamples = 2\nvalue = [0, 2]", fillcolor="#399de5ff"] ;
758 -> 760 ;
761 [label="time <= 0.79\ngini = 0.46\nsamples = 7\nvalue = [7, 4]", fillcolor="#e581396d"] ;
665 -> 761 ;
762 [label="gini = 0.0\nsamples = 3\nvalue = [6, 0]", fillcolor="#e58139ff"] ;
761 -> 762 ;
763 [label="income <= -0.41\ngini = 0.32\nsamples = 4\nvalue = [1, 4]", fillcolor="#399de5bf"] ;
761 -> 763 ;
764 [label="gini = 0.0\nsamples = 1\nvalue = [1, 0]", fillcolor="#e58139ff"] ;
763 -> 764 ;
765 [label="gini = 0.0\nsamples = 3\nvalue = [0, 4]", fillcolor="#399de5ff"] ;
763 -> 765 ;
766 [label="income <= 0.42\ngini = 0.36\nsamples = 143\nvalue = [51, 164]", fillcolor="#399de5b0"] ;
664 -> 766 ;
767 [label="income <= -0.09\ngini = 0.2\nsamples = 104\nvalue = [18, 140]", fillcolor="#399de5de"] ;
766 -> 767 ;
768 [label="income <= -0.18\ngini = 0.26\nsamples = 77\nvalue = [17, 93]", fillcolor="#399de5d0"] ;
767 -> 768 ;
769 [label="memb_leng <= -0.43\ngini = 0.22\nsamples = 73\nvalue = [13, 90]", fillcolor="#399de5da"] ;
768 -> 769 ;
770 [label="memb_leng <= -0.5\ngini = 0.18\nsamples = 71\nvalue = [10, 89]", fillcolor="#399de5e2"] ;
769 -> 770 ;
771 [label="income <= -1.22\ngini = 0.13\nsamples = 61\nvalue = [6, 79]", fillcolor="#399de5ec"] ;
770 -> 771 ;
772 [label="gini = 0.0\nsamples = 21\nvalue = [0, 32]", fillcolor="#399de5ff"] ;
771 -> 772 ;
773 [label="income <= -1.03\ngini = 0.2\nsamples = 40\nvalue = [6, 47]", fillcolor="#399de5de"] ;
771 -> 773 ;
774 [label="income <= -1.1\ngini = 0.44\nsamples = 6\nvalue = [3, 6]", fillcolor="#399de57f"] ;
773 -> 774 ;
775 [label="time <= 0.79\ngini = 0.41\nsamples = 4\nvalue = [2, 5]", fillcolor="#399de599"] ;
774 -> 775 ;
776 [label="memb_leng <= -0.7\ngini = 0.48\nsamples = 2\nvalue = [2, 3]", fillcolor="#399de555"] ;
775 -> 776 ;
777 [label="gini = 0.0\nsamples = 1\nvalue = [0, 3]", fillcolor="#399de5ff"] ;
776 -> 777 ;
778 [label="gini = 0.0\nsamples = 1\nvalue = [2, 0]", fillcolor="#e58139ff"] ;
776 -> 778 ;
779 [label="gini = 0.0\nsamples = 2\nvalue = [0, 2]", fillcolor="#399de5ff"] ;
775 -> 779 ;
780 [label="memb_leng <= -0.57\ngini = 0.5\nsamples = 2\nvalue = [1, 1]", fillcolor="#e5813900"] ;
774 -> 780 ;
781 [label="gini = 0.0\nsamples = 1\nvalue = [0, 1]", fillcolor="#399de5ff"] ;
780 -> 781 ;
782 [label="gini = 0.0\nsamples = 1\nvalue = [1, 0]", fillcolor="#e58139ff"] ;
780 -> 782 ;
783 [label="income <= -0.78\ngini = 0.13\nsamples = 34\nvalue = [3, 41]", fillcolor="#399de5ec"] ;
773 -> 783 ;
784 [label="gini = 0.0\nsamples = 9\nvalue = [0, 14]", fillcolor="#399de5ff"] ;
783 -> 784 ;
785 [label="time <= 0.79\ngini = 0.18\nsamples = 25\nvalue = [3, 27]", fillcolor="#399de5e3"] ;
783 -> 785 ;
786 [label="memb_leng <= -0.75\ngini = 0.14\nsamples = 10\nvalue = [1, 12]", fillcolor="#399de5ea"] ;
785 -> 786 ;
787 [label="gini = 0.0\nsamples = 1\nvalue = [1, 0]", fillcolor="#e58139ff"] ;
786 -> 787 ;
788 [label="gini = 0.0\nsamples = 9\nvalue = [0, 12]", fillcolor="#399de5ff"] ;
786 -> 788 ;
789 [label="time <= 0.94\ngini = 0.21\nsamples = 15\nvalue = [2, 15]", fillcolor="#399de5dd"] ;
785 -> 789 ;
790 [label="age <= 0.24\ngini = 0.24\nsamples = 6\nvalue = [1, 6]", fillcolor="#399de5d4"] ;
789 -> 790 ;
791 [label="gini = 0.0\nsamples = 3\nvalue = [0, 3]", fillcolor="#399de5ff"] ;
790 -> 791 ;
792 [label="age <= 0.55\ngini = 0.38\nsamples = 3\nvalue = [1, 3]", fillcolor="#399de5aa"] ;
790 -> 792 ;
793 [label="gini = 0.0\nsamples = 1\nvalue = [1, 0]", fillcolor="#e58139ff"] ;
792 -> 793 ;
794 [label="gini = 0.0\nsamples = 2\nvalue = [0, 3]", fillcolor="#399de5ff"] ;
792 -> 794 ;
795 [label="memb_leng <= -0.65\ngini = 0.18\nsamples = 9\nvalue = [1, 9]", fillcolor="#399de5e3"] ;
789 -> 795 ;
796 [label="gini = 0.0\nsamples = 5\nvalue = [0, 6]", fillcolor="#399de5ff"] ;
795 -> 796 ;
797 [label="age <= 0.96\ngini = 0.38\nsamples = 4\nvalue = [1, 3]", fillcolor="#399de5aa"] ;
795 -> 797 ;
798 [label="gini = 0.0\nsamples = 3\nvalue = [0, 3]", fillcolor="#399de5ff"] ;
797 -> 798 ;
799 [label="gini = 0.0\nsamples = 1\nvalue = [1, 0]", fillcolor="#e58139ff"] ;
797 -> 799 ;
800 [label="memb_leng <= -0.46\ngini = 0.41\nsamples = 10\nvalue = [4, 10]", fillcolor="#399de599"] ;
770 -> 800 ;
801 [label="gini = 0.0\nsamples = 3\nvalue = [3, 0]", fillcolor="#e58139ff"] ;
800 -> 801 ;
802 [label="income <= -1.1\ngini = 0.17\nsamples = 7\nvalue = [1, 10]", fillcolor="#399de5e6"] ;
800 -> 802 ;
803 [label="gini = 0.0\nsamples = 1\nvalue = [1, 0]", fillcolor="#e58139ff"] ;
802 -> 803 ;
804 [label="gini = 0.0\nsamples = 6\nvalue = [0, 10]", fillcolor="#399de5ff"] ;
802 -> 804 ;
805 [label="memb_leng <= -0.42\ngini = 0.38\nsamples = 2\nvalue = [3, 1]", fillcolor="#e58139aa"] ;
769 -> 805 ;
806 [label="gini = 0.0\nsamples = 1\nvalue = [3, 0]", fillcolor="#e58139ff"] ;
805 -> 806 ;
807 [label="gini = 0.0\nsamples = 1\nvalue = [0, 1]", fillcolor="#399de5ff"] ;
805 -> 807 ;
808 [label="time <= 0.79\ngini = 0.49\nsamples = 4\nvalue = [4, 3]", fillcolor="#e5813940"] ;
768 -> 808 ;
809 [label="gini = 0.0\nsamples = 2\nvalue = [4, 0]", fillcolor="#e58139ff"] ;
808 -> 809 ;
810 [label="gini = 0.0\nsamples = 2\nvalue = [0, 3]", fillcolor="#399de5ff"] ;
808 -> 810 ;
811 [label="age <= 0.55\ngini = 0.04\nsamples = 27\nvalue = [1, 47]", fillcolor="#399de5fa"] ;
767 -> 811 ;
812 [label="gini = 0.0\nsamples = 19\nvalue = [0, 34]", fillcolor="#399de5ff"] ;
811 -> 812 ;
813 [label="age <= 0.64\ngini = 0.13\nsamples = 8\nvalue = [1, 13]", fillcolor="#399de5eb"] ;
811 -> 813 ;
814 [label="income <= 0.38\ngini = 0.5\nsamples = 2\nvalue = [1, 1]", fillcolor="#e5813900"] ;
813 -> 814 ;
815 [label="gini = 0.0\nsamples = 1\nvalue = [1, 0]", fillcolor="#e58139ff"] ;
814 -> 815 ;
816 [label="gini = 0.0\nsamples = 1\nvalue = [0, 1]", fillcolor="#399de5ff"] ;
814 -> 816 ;
817 [label="gini = 0.0\nsamples = 6\nvalue = [0, 12]", fillcolor="#399de5ff"] ;
813 -> 817 ;
818 [label="time <= 0.94\ngini = 0.49\nsamples = 39\nvalue = [33, 24]", fillcolor="#e5813946"] ;
766 -> 818 ;
819 [label="time <= 0.79\ngini = 0.47\nsamples = 25\nvalue = [23, 14]", fillcolor="#e5813964"] ;
818 -> 819 ;
820 [label="income <= 0.86\ngini = 0.41\nsamples = 5\nvalue = [5, 2]", fillcolor="#e5813999"] ;
819 -> 820 ;
821 [label="gini = 0.0\nsamples = 1\nvalue = [0, 1]", fillcolor="#399de5ff"] ;
820 -> 821 ;
822 [label="memb_leng <= -0.49\ngini = 0.28\nsamples = 4\nvalue = [5, 1]", fillcolor="#e58139cc"] ;
820 -> 822 ;
823 [label="gini = 0.0\nsamples = 3\nvalue = [5, 0]", fillcolor="#e58139ff"] ;
822 -> 823 ;
824 [label="gini = 0.0\nsamples = 1\nvalue = [0, 1]", fillcolor="#399de5ff"] ;
822 -> 824 ;
825 [label="income <= 1.23\ngini = 0.48\nsamples = 20\nvalue = [18, 12]", fillcolor="#e5813955"] ;
819 -> 825 ;
826 [label="age <= 1.36\ngini = 0.5\nsamples = 14\nvalue = [9, 10]", fillcolor="#399de519"] ;
825 -> 826 ;
827 [label="memb_leng <= -0.67\ngini = 0.48\nsamples = 13\nvalue = [7, 10]", fillcolor="#399de54d"] ;
826 -> 827 ;
828 [label="gini = 0.0\nsamples = 4\nvalue = [0, 6]", fillcolor="#399de5ff"] ;
827 -> 828 ;
829 [label="age <= 0.55\ngini = 0.46\nsamples = 9\nvalue = [7, 4]", fillcolor="#e581396d"] ;
827 -> 829 ;
830 [label="memb_leng <= -0.51\ngini = 0.38\nsamples = 7\nvalue = [6, 2]", fillcolor="#e58139aa"] ;
829 -> 830 ;
831 [label="gini = 0.0\nsamples = 5\nvalue = [6, 0]", fillcolor="#e58139ff"] ;
830 -> 831 ;
832 [label="gini = 0.0\nsamples = 2\nvalue = [0, 2]", fillcolor="#399de5ff"] ;
830 -> 832 ;
833 [label="age <= 0.93\ngini = 0.44\nsamples = 2\nvalue = [1, 2]", fillcolor="#399de57f"] ;
829 -> 833 ;
834 [label="gini = 0.0\nsamples = 1\nvalue = [0, 2]", fillcolor="#399de5ff"] ;
833 -> 834 ;
835 [label="gini = 0.0\nsamples = 1\nvalue = [1, 0]", fillcolor="#e58139ff"] ;
833 -> 835 ;
836 [label="gini = 0.0\nsamples = 1\nvalue = [2, 0]", fillcolor="#e58139ff"] ;
826 -> 836 ;
837 [label="income <= 1.81\ngini = 0.3\nsamples = 6\nvalue = [9, 2]", fillcolor="#e58139c6"] ;
825 -> 837 ;
838 [label="memb_leng <= -0.49\ngini = 0.2\nsamples = 4\nvalue = [8, 1]", fillcolor="#e58139df"] ;
837 -> 838 ;
839 [label="gini = 0.0\nsamples = 3\nvalue = [8, 0]", fillcolor="#e58139ff"] ;
838 -> 839 ;
840 [label="gini = 0.0\nsamples = 1\nvalue = [0, 1]", fillcolor="#399de5ff"] ;
838 -> 840 ;
841 [label="age <= 0.15\ngini = 0.5\nsamples = 2\nvalue = [1, 1]", fillcolor="#e5813900"] ;
837 -> 841 ;
842 [label="gini = 0.0\nsamples = 1\nvalue = [0, 1]", fillcolor="#399de5ff"] ;
841 -> 842 ;
843 [label="gini = 0.0\nsamples = 1\nvalue = [1, 0]", fillcolor="#e58139ff"] ;
841 -> 843 ;
844 [label="age <= -0.39\ngini = 0.5\nsamples = 14\nvalue = [10, 10]", fillcolor="#e5813900"] ;
818 -> 844 ;
845 [label="gini = 0.0\nsamples = 1\nvalue = [3, 0]", fillcolor="#e58139ff"] ;
844 -> 845 ;
846 [label="memb_leng <= -0.7\ngini = 0.48\nsamples = 13\nvalue = [7, 10]", fillcolor="#399de54d"] ;
844 -> 846 ;
847 [label="age <= 0.18\ngini = 0.32\nsamples = 3\nvalue = [4, 1]", fillcolor="#e58139bf"] ;
846 -> 847 ;
848 [label="gini = 0.0\nsamples = 1\nvalue = [2, 0]", fillcolor="#e58139ff"] ;
847 -> 848 ;
849 [label="memb_leng <= -0.75\ngini = 0.44\nsamples = 2\nvalue = [2, 1]", fillcolor="#e581397f"] ;
847 -> 849 ;
850 [label="gini = 0.0\nsamples = 1\nvalue = [0, 1]", fillcolor="#399de5ff"] ;
849 -> 850 ;
851 [label="gini = 0.0\nsamples = 1\nvalue = [2, 0]", fillcolor="#e58139ff"] ;
849 -> 851 ;
852 [label="age <= 1.01\ngini = 0.38\nsamples = 10\nvalue = [3, 9]", fillcolor="#399de5aa"] ;
846 -> 852 ;
853 [label="memb_leng <= -0.63\ngini = 0.2\nsamples = 7\nvalue = [1, 8]", fillcolor="#399de5df"] ;
852 -> 853 ;
854 [label="gini = 0.0\nsamples = 2\nvalue = [0, 4]", fillcolor="#399de5ff"] ;
853 -> 854 ;
855 [label="age <= 0.12\ngini = 0.32\nsamples = 5\nvalue = [1, 4]", fillcolor="#399de5bf"] ;
853 -> 855 ;
856 [label="gini = 0.0\nsamples = 3\nvalue = [0, 3]", fillcolor="#399de5ff"] ;
855 -> 856 ;
857 [label="age <= 0.24\ngini = 0.5\nsamples = 2\nvalue = [1, 1]", fillcolor="#e5813900"] ;
855 -> 857 ;
858 [label="gini = 0.0\nsamples = 1\nvalue = [1, 0]", fillcolor="#e58139ff"] ;
857 -> 858 ;
859 [label="gini = 0.0\nsamples = 1\nvalue = [0, 1]", fillcolor="#399de5ff"] ;
857 -> 859 ;
860 [label="age <= 1.42\ngini = 0.44\nsamples = 3\nvalue = [2, 1]", fillcolor="#e581397f"] ;
852 -> 860 ;
861 [label="gini = 0.0\nsamples = 2\nvalue = [2, 0]", fillcolor="#e58139ff"] ;
860 -> 861 ;
862 [label="gini = 0.0\nsamples = 1\nvalue = [0, 1]", fillcolor="#399de5ff"] ;
860 -> 862 ;
863 [label="gender_F <= 0.5\ngini = 0.1\nsamples = 22\nvalue = [2, 36]", fillcolor="#399de5f1"] ;
663 -> 863 ;
864 [label="gini = 0.0\nsamples = 11\nvalue = [0, 19]", fillcolor="#399de5ff"] ;
863 -> 864 ;
865 [label="income <= 1.56\ngini = 0.19\nsamples = 11\nvalue = [2, 17]", fillcolor="#399de5e1"] ;
863 -> 865 ;
866 [label="age <= 2.31\ngini = 0.11\nsamples = 9\nvalue = [1, 16]", fillcolor="#399de5ef"] ;
865 -> 866 ;
867 [label="gini = 0.0\nsamples = 7\nvalue = [0, 13]", fillcolor="#399de5ff"] ;
866 -> 867 ;
868 [label="income <= -0.18\ngini = 0.38\nsamples = 2\nvalue = [1, 3]", fillcolor="#399de5aa"] ;
866 -> 868 ;
869 [label="gini = 0.0\nsamples = 1\nvalue = [1, 0]", fillcolor="#e58139ff"] ;
868 -> 869 ;
870 [label="gini = 0.0\nsamples = 1\nvalue = [0, 3]", fillcolor="#399de5ff"] ;
868 -> 870 ;
871 [label="memb_leng <= -0.52\ngini = 0.5\nsamples = 2\nvalue = [1, 1]", fillcolor="#e5813900"] ;
865 -> 871 ;
872 [label="gini = 0.0\nsamples = 1\nvalue = [1, 0]", fillcolor="#e58139ff"] ;
871 -> 872 ;
873 [label="gini = 0.0\nsamples = 1\nvalue = [0, 1]", fillcolor="#399de5ff"] ;
871 -> 873 ;
874 [label="duration <= 0.79\ngini = 0.47\nsamples = 4176\nvalue = [2496, 4121]", fillcolor="#399de565"] ;
4 -> 874 ;
875 [label="income <= -0.73\ngini = 0.49\nsamples = 2763\nvalue = [2409, 1954]", fillcolor="#e5813930"] ;
874 -> 875 ;
876 [label="income <= -1.24\ngini = 0.38\nsamples = 799\nvalue = [952, 333]", fillcolor="#e58139a6"] ;
875 -> 876 ;
877 [label="income <= -1.61\ngini = 0.42\nsamples = 383\nvalue = [451, 191]", fillcolor="#e5813993"] ;
876 -> 877 ;
878 [label="memb_leng <= -0.95\ngini = 0.5\nsamples = 15\nvalue = [14, 14]", fillcolor="#e5813900"] ;
877 -> 878 ;
879 [label="gini = 0.0\nsamples = 3\nvalue = [6, 0]", fillcolor="#e58139ff"] ;
878 -> 879 ;
880 [label="difficulty <= 0.25\ngini = 0.46\nsamples = 12\nvalue = [8, 14]", fillcolor="#399de56d"] ;
878 -> 880 ;
881 [label="memb_leng <= -0.47\ngini = 0.49\nsamples = 5\nvalue = [4, 5]", fillcolor="#399de533"] ;
880 -> 881 ;
882 [label="memb_leng <= -0.7\ngini = 0.49\nsamples = 4\nvalue = [4, 3]", fillcolor="#e5813940"] ;
881 -> 882 ;
883 [label="time <= 0.35\ngini = 0.38\nsamples = 2\nvalue = [1, 3]", fillcolor="#399de5aa"] ;
882 -> 883 ;
884 [label="gini = 0.0\nsamples = 1\nvalue = [1, 0]", fillcolor="#e58139ff"] ;
883 -> 884 ;
885 [label="gini = 0.0\nsamples = 1\nvalue = [0, 3]", fillcolor="#399de5ff"] ;
883 -> 885 ;
886 [label="gini = 0.0\nsamples = 2\nvalue = [3, 0]", fillcolor="#e58139ff"] ;
882 -> 886 ;
887 [label="gini = 0.0\nsamples = 1\nvalue = [0, 2]", fillcolor="#399de5ff"] ;
881 -> 887 ;
888 [label="memb_leng <= -0.72\ngini = 0.43\nsamples = 7\nvalue = [4, 9]", fillcolor="#399de58e"] ;
880 -> 888 ;
889 [label="gini = 0.0\nsamples = 4\nvalue = [0, 8]", fillcolor="#399de5ff"] ;
888 -> 889 ;
890 [label="memb_leng <= -0.58\ngini = 0.32\nsamples = 3\nvalue = [4, 1]", fillcolor="#e58139bf"] ;
888 -> 890 ;
891 [label="gini = 0.0\nsamples = 2\nvalue = [4, 0]", fillcolor="#e58139ff"] ;
890 -> 891 ;
892 [label="gini = 0.0\nsamples = 1\nvalue = [0, 1]", fillcolor="#399de5ff"] ;
890 -> 892 ;
893 [label="offer_informational <= 0.5\ngini = 0.41\nsamples = 368\nvalue = [437, 177]", fillcolor="#e5813998"] ;
877 -> 893 ;
894 [label="memb_leng <= -1.23\ngini = 0.41\nsamples = 192\nvalue = [225, 92]", fillcolor="#e5813997"] ;
893 -> 894 ;
895 [label="income <= -1.5\ngini = 0.32\nsamples = 3\nvalue = [1, 4]", fillcolor="#399de5bf"] ;
894 -> 895 ;
896 [label="gini = 0.0\nsamples = 1\nvalue = [0, 2]", fillcolor="#399de5ff"] ;
895 -> 896 ;
897 [label="income <= -1.43\ngini = 0.44\nsamples = 2\nvalue = [1, 2]", fillcolor="#399de57f"] ;
895 -> 897 ;
898 [label="gini = 0.0\nsamples = 1\nvalue = [1, 0]", fillcolor="#e58139ff"] ;
897 -> 898 ;
899 [label="gini = 0.0\nsamples = 1\nvalue = [0, 2]", fillcolor="#399de5ff"] ;
897 -> 899 ;
900 [label="income <= -1.57\ngini = 0.4\nsamples = 189\nvalue = [224, 88]", fillcolor="#e581399b"] ;
894 -> 900 ;
901 [label="gender_F <= 0.5\ngini = 0.24\nsamples = 23\nvalue = [31, 5]", fillcolor="#e58139d6"] ;
900 -> 901 ;
902 [label="age <= -1.49\ngini = 0.22\nsamples = 15\nvalue = [21, 3]", fillcolor="#e58139db"] ;
901 -> 902 ;
903 [label="gini = 0.0\nsamples = 4\nvalue = [8, 0]", fillcolor="#e58139ff"] ;
902 -> 903 ;
904 [label="time <= 0.15\ngini = 0.3\nsamples = 11\nvalue = [13, 3]", fillcolor="#e58139c4"] ;
902 -> 904 ;
905 [label="gini = 0.0\nsamples = 1\nvalue = [3, 0]", fillcolor="#e58139ff"] ;
904 -> 905 ;
906 [label="memb_leng <= -1.03\ngini = 0.36\nsamples = 10\nvalue = [10, 3]", fillcolor="#e58139b3"] ;
904 -> 906 ;
907 [label="gini = 0.0\nsamples = 1\nvalue = [0, 1]", fillcolor="#399de5ff"] ;
906 -> 907 ;
908 [label="age <= -1.31\ngini = 0.28\nsamples = 9\nvalue = [10, 2]", fillcolor="#e58139cc"] ;
906 -> 908 ;
909 [label="gini = 0.0\nsamples = 1\nvalue = [0, 1]", fillcolor="#399de5ff"] ;
908 -> 909 ;
910 [label="time <= 0.44\ngini = 0.17\nsamples = 8\nvalue = [10, 1]", fillcolor="#e58139e6"] ;
908 -> 910 ;
911 [label="memb_leng <= -0.74\ngini = 0.5\nsamples = 2\nvalue = [1, 1]", fillcolor="#e5813900"] ;
910 -> 911 ;
912 [label="gini = 0.0\nsamples = 1\nvalue = [1, 0]", fillcolor="#e58139ff"] ;
911 -> 912 ;
913 [label="gini = 0.0\nsamples = 1\nvalue = [0, 1]", fillcolor="#399de5ff"] ;
911 -> 913 ;
914 [label="gini = 0.0\nsamples = 6\nvalue = [9, 0]", fillcolor="#e58139ff"] ;
910 -> 914 ;
915 [label="memb_leng <= -0.96\ngini = 0.28\nsamples = 8\nvalue = [10, 2]", fillcolor="#e58139cc"] ;
901 -> 915 ;
916 [label="gini = 0.0\nsamples = 1\nvalue = [0, 1]", fillcolor="#399de5ff"] ;
915 -> 916 ;
917 [label="memb_leng <= -0.68\ngini = 0.17\nsamples = 7\nvalue = [10, 1]", fillcolor="#e58139e6"] ;
915 -> 917 ;
918 [label="gini = 0.0\nsamples = 4\nvalue = [6, 0]", fillcolor="#e58139ff"] ;
917 -> 918 ;
919 [label="age <= 0.58\ngini = 0.32\nsamples = 3\nvalue = [4, 1]", fillcolor="#e58139bf"] ;
917 -> 919 ;
920 [label="gini = 0.0\nsamples = 2\nvalue = [4, 0]", fillcolor="#e58139ff"] ;
919 -> 920 ;
921 [label="gini = 0.0\nsamples = 1\nvalue = [0, 1]", fillcolor="#399de5ff"] ;
919 -> 921 ;
922 [label="age <= 2.11\ngini = 0.42\nsamples = 166\nvalue = [193, 83]", fillcolor="#e5813991"] ;
900 -> 922 ;
923 [label="age <= -1.83\ngini = 0.4\nsamples = 162\nvalue = [193, 75]", fillcolor="#e581399c"] ;
922 -> 923 ;
924 [label="memb_leng <= -0.74\ngini = 0.4\nsamples = 6\nvalue = [3, 8]", fillcolor="#399de59f"] ;
923 -> 924 ;
925 [label="time <= 0.65\ngini = 0.2\nsamples = 4\nvalue = [1, 8]", fillcolor="#399de5df"] ;
924 -> 925 ;
926 [label="gini = 0.0\nsamples = 2\nvalue = [0, 7]", fillcolor="#399de5ff"] ;
925 -> 926 ;
927 [label="memb_leng <= -0.96\ngini = 0.5\nsamples = 2\nvalue = [1, 1]", fillcolor="#e5813900"] ;
925 -> 927 ;
928 [label="gini = 0.0\nsamples = 1\nvalue = [0, 1]", fillcolor="#399de5ff"] ;
927 -> 928 ;
929 [label="gini = 0.0\nsamples = 1\nvalue = [1, 0]", fillcolor="#e58139ff"] ;
927 -> 929 ;
930 [label="gini = 0.0\nsamples = 2\nvalue = [2, 0]", fillcolor="#e58139ff"] ;
924 -> 930 ;
931 [label="income <= -1.52\ngini = 0.39\nsamples = 156\nvalue = [190, 67]", fillcolor="#e58139a5"] ;
923 -> 931 ;
932 [label="time <= 0.79\ngini = 0.5\nsamples = 17\nvalue = [12, 12]", fillcolor="#e5813900"] ;
931 -> 932 ;
933 [label="time <= 0.15\ngini = 0.48\nsamples = 13\nvalue = [7, 11]", fillcolor="#399de55d"] ;
932 -> 933 ;
934 [label="age <= -0.19\ngini = 0.5\nsamples = 2\nvalue = [1, 1]", fillcolor="#e5813900"] ;
933 -> 934 ;
935 [label="gini = 0.0\nsamples = 1\nvalue = [1, 0]", fillcolor="#e58139ff"] ;
934 -> 935 ;
936 [label="gini = 0.0\nsamples = 1\nvalue = [0, 1]", fillcolor="#399de5ff"] ;
934 -> 936 ;
937 [label="memb_leng <= -0.76\ngini = 0.47\nsamples = 11\nvalue = [6, 10]", fillcolor="#399de566"] ;
933 -> 937 ;
938 [label="memb_leng <= -1.02\ngini = 0.47\nsamples = 5\nvalue = [5, 3]", fillcolor="#e5813966"] ;
937 -> 938 ;
939 [label="gini = 0.0\nsamples = 2\nvalue = [0, 3]", fillcolor="#399de5ff"] ;
938 -> 939 ;
940 [label="gini = 0.0\nsamples = 3\nvalue = [5, 0]", fillcolor="#e58139ff"] ;
938 -> 940 ;
941 [label="gender_M <= 0.5\ngini = 0.22\nsamples = 6\nvalue = [1, 7]", fillcolor="#399de5db"] ;
937 -> 941 ;
942 [label="gini = 0.0\nsamples = 2\nvalue = [0, 2]", fillcolor="#399de5ff"] ;
941 -> 942 ;
943 [label="time <= 0.5\ngini = 0.28\nsamples = 4\nvalue = [1, 5]", fillcolor="#399de5cc"] ;
941 -> 943 ;
944 [label="gini = 0.0\nsamples = 2\nvalue = [0, 2]", fillcolor="#399de5ff"] ;
943 -> 944 ;
945 [label="age <= -0.31\ngini = 0.38\nsamples = 2\nvalue = [1, 3]", fillcolor="#399de5aa"] ;
943 -> 945 ;
946 [label="gini = 0.0\nsamples = 1\nvalue = [0, 3]", fillcolor="#399de5ff"] ;
945 -> 946 ;
947 [label="gini = 0.0\nsamples = 1\nvalue = [1, 0]", fillcolor="#e58139ff"] ;
945 -> 947 ;
948 [label="time <= 0.94\ngini = 0.28\nsamples = 4\nvalue = [5, 1]", fillcolor="#e58139cc"] ;
932 -> 948 ;
949 [label="gini = 0.0\nsamples = 1\nvalue = [1, 0]", fillcolor="#e58139ff"] ;
948 -> 949 ;
950 [label="age <= -1.52\ngini = 0.32\nsamples = 3\nvalue = [4, 1]", fillcolor="#e58139bf"] ;
948 -> 950 ;
951 [label="gini = 0.0\nsamples = 1\nvalue = [0, 1]", fillcolor="#399de5ff"] ;
950 -> 951 ;
952 [label="gini = 0.0\nsamples = 2\nvalue = [4, 0]", fillcolor="#e58139ff"] ;
950 -> 952 ;
953 [label="income <= -1.34\ngini = 0.36\nsamples = 139\nvalue = [178, 55]", fillcolor="#e58139b0"] ;
931 -> 953 ;
954 [label="time <= 0.94\ngini = 0.38\nsamples = 88\nvalue = [98, 33]", fillcolor="#e58139a9"] ;
953 -> 954 ;
955 [label="memb_leng <= -1.03\ngini = 0.35\nsamples = 74\nvalue = [88, 26]", fillcolor="#e58139b4"] ;
954 -> 955 ;
956 [label="time <= 0.44\ngini = 0.5\nsamples = 16\nvalue = [12, 12]", fillcolor="#e5813900"] ;
955 -> 956 ;
957 [label="memb_leng <= -1.2\ngini = 0.43\nsamples = 8\nvalue = [4, 9]", fillcolor="#399de58e"] ;
956 -> 957 ;
958 [label="gini = 0.0\nsamples = 1\nvalue = [3, 0]", fillcolor="#e58139ff"] ;
957 -> 958 ;
959 [label="memb_leng <= -1.11\ngini = 0.18\nsamples = 7\nvalue = [1, 9]", fillcolor="#399de5e3"] ;
957 -> 959 ;
960 [label="income <= -1.45\ngini = 0.32\nsamples = 4\nvalue = [1, 4]", fillcolor="#399de5bf"] ;
959 -> 960 ;
961 [label="gini = 0.0\nsamples = 1\nvalue = [1, 0]", fillcolor="#e58139ff"] ;
960 -> 961 ;
962 [label="gini = 0.0\nsamples = 3\nvalue = [0, 4]", fillcolor="#399de5ff"] ;
960 -> 962 ;
963 [label="gini = 0.0\nsamples = 3\nvalue = [0, 5]", fillcolor="#399de5ff"] ;
959 -> 963 ;
964 [label="memb_leng <= -1.05\ngini = 0.4\nsamples = 8\nvalue = [8, 3]", fillcolor="#e581399f"] ;
956 -> 964 ;
965 [label="time <= 0.79\ngini = 0.2\nsamples = 7\nvalue = [8, 1]", fillcolor="#e58139df"] ;
964 -> 965 ;
966 [label="gini = 0.0\nsamples = 2\nvalue = [3, 0]", fillcolor="#e58139ff"] ;
965 -> 966 ;
967 [label="memb_leng <= -1.15\ngini = 0.28\nsamples = 5\nvalue = [5, 1]", fillcolor="#e58139cc"] ;
965 -> 967 ;
968 [label="memb_leng <= -1.19\ngini = 0.5\nsamples = 2\nvalue = [1, 1]", fillcolor="#e5813900"] ;
967 -> 968 ;
969 [label="gini = 0.0\nsamples = 1\nvalue = [1, 0]", fillcolor="#e58139ff"] ;
968 -> 969 ;
970 [label="gini = 0.0\nsamples = 1\nvalue = [0, 1]", fillcolor="#399de5ff"] ;
968 -> 970 ;
971 [label="gini = 0.0\nsamples = 3\nvalue = [4, 0]", fillcolor="#e58139ff"] ;
967 -> 971 ;
972 [label="gini = 0.0\nsamples = 1\nvalue = [0, 2]", fillcolor="#399de5ff"] ;
964 -> 972 ;
973 [label="time <= 0.65\ngini = 0.26\nsamples = 58\nvalue = [76, 14]", fillcolor="#e58139d0"] ;
955 -> 973 ;
974 [label="gender_M <= 0.5\ngini = 0.33\nsamples = 42\nvalue = [53, 14]", fillcolor="#e58139bc"] ;
973 -> 974 ;
975 [label="age <= 1.13\ngini = 0.44\nsamples = 13\nvalue = [12, 6]", fillcolor="#e581397f"] ;
974 -> 975 ;
976 [label="income <= -1.38\ngini = 0.38\nsamples = 11\nvalue = [12, 4]", fillcolor="#e58139aa"] ;
975 -> 976 ;
977 [label="income <= -1.47\ngini = 0.2\nsamples = 6\nvalue = [8, 1]", fillcolor="#e58139df"] ;
976 -> 977 ;
978 [label="age <= -0.34\ngini = 0.28\nsamples = 4\nvalue = [5, 1]", fillcolor="#e58139cc"] ;
977 -> 978 ;
979 [label="age <= -0.48\ngini = 0.44\nsamples = 2\nvalue = [2, 1]", fillcolor="#e581397f"] ;
978 -> 979 ;
980 [label="gini = 0.0\nsamples = 1\nvalue = [2, 0]", fillcolor="#e58139ff"] ;
979 -> 980 ;
981 [label="gini = 0.0\nsamples = 1\nvalue = [0, 1]", fillcolor="#399de5ff"] ;
979 -> 981 ;
982 [label="gini = 0.0\nsamples = 2\nvalue = [3, 0]", fillcolor="#e58139ff"] ;
978 -> 982 ;
983 [label="gini = 0.0\nsamples = 2\nvalue = [3, 0]", fillcolor="#e58139ff"] ;
977 -> 983 ;
984 [label="memb_leng <= -0.84\ngini = 0.49\nsamples = 5\nvalue = [4, 3]", fillcolor="#e5813940"] ;
976 -> 984 ;
985 [label="gini = 0.0\nsamples = 1\nvalue = [1, 0]", fillcolor="#e58139ff"] ;
984 -> 985 ;
