digraph Tree {
node [shape=box, style="filled, rounded", color="black", fontname=helvetica] ;
edge [fontname=helvetica] ;
0 [label="web <= 0.5\ngini = 0.39\nsamples = 29502\nvalue = [12317, 34233]", fillcolor="#80c0ee"] ;
1 [label="income <= 0.42\ngini = 0.26\nsamples = 5888\nvalue = [1428, 7757]", fillcolor="#5dafea"] ;
0 -> 1 [labeldistance=2.5, labelangle=45, headlabel="True"] ;
2 [label="income <= 0.24\ngini = 0.17\nsamples = 4026\nvalue = [599, 5698]", fillcolor="#4ea7e8"] ;
1 -> 2 ;
3 [label="offer_bogo <= 0.5\ngini = 0.16\nsamples = 3577\nvalue = [488, 5105]", fillcolor="#4ca6e7"] ;
2 -> 3 ;
4 [label="gender_F <= 0.5\ngini = 0.21\nsamples = 1784\nvalue = [322, 2437]", fillcolor="#53aae8"] ;
3 -> 4 ;
5 [label="memb_leng <= -1.23\ngini = 0.21\nsamples = 1173\nvalue = [215, 1604]", fillcolor="#54aae8"] ;
4 -> 5 ;
6 [label="time <= 0.79\ngini = 0.5\nsamples = 6\nvalue = [5, 5]", fillcolor="#ffffff"] ;
5 -> 6 ;
7 [label="income <= -1.29\ngini = 0.41\nsamples = 5\nvalue = [2, 5]", fillcolor="#88c4ef"] ;
6 -> 7 ;
8 [label="gini = 0.0\nsamples = 1\nvalue = [2, 0]", fillcolor="#e58139"] ;
7 -> 8 ;
9 [label="gini = 0.0\nsamples = 4\nvalue = [0, 5]", fillcolor="#399de5"] ;
7 -> 9 ;
10 [label="gini = 0.0\nsamples = 1\nvalue = [3, 0]", fillcolor="#e58139"] ;
6 -> 10 ;
11 [label="income <= -0.69\ngini = 0.21\nsamples = 1167\nvalue = [210, 1599]", fillcolor="#53aae8"] ;
5 -> 11 ;
12 [label="age <= -1.72\ngini = 0.18\nsamples = 555\nvalue = [85, 780]", fillcolor="#4fa8e8"] ;
11 -> 12 ;
13 [label="age <= -2.0\ngini = 0.28\nsamples = 74\nvalue = [19, 95]", fillcolor="#61b1ea"] ;
12 -> 13 ;
14 [label="memb_leng <= 0.04\ngini = 0.08\nsamples = 17\nvalue = [1, 23]", fillcolor="#42a1e6"] ;
13 -> 14 ;
15 [label="gini = 0.0\nsamples = 13\nvalue = [0, 19]", fillcolor="#399de5"] ;
14 -> 15 ;
16 [label="memb_leng <= 0.45\ngini = 0.32\nsamples = 4\nvalue = [1, 4]", fillcolor="#6ab6ec"] ;
14 -> 16 ;
17 [label="gini = 0.0\nsamples = 1\nvalue = [1, 0]", fillcolor="#e58139"] ;
16 -> 17 ;
18 [label="gini = 0.0\nsamples = 3\nvalue = [0, 4]", fillcolor="#399de5"] ;
16 -> 18 ;
19 [label="income <= -0.97\ngini = 0.32\nsamples = 57\nvalue = [18, 72]", fillcolor="#6ab6ec"] ;
13 -> 19 ;
20 [label="memb_leng <= 0.98\ngini = 0.39\nsamples = 44\nvalue = [18, 51]", fillcolor="#7fc0ee"] ;
19 -> 20 ;
21 [label="income <= -1.06\ngini = 0.27\nsamples = 32\nvalue = [8, 42]", fillcolor="#5fb0ea"] ;
20 -> 21 ;
22 [label="gender_O <= 0.5\ngini = 0.21\nsamples = 28\nvalue = [5, 38]", fillcolor="#53aae8"] ;
21 -> 22 ;
23 [label="time <= 0.79\ngini = 0.21\nsamples = 27\nvalue = [5, 37]", fillcolor="#54aae9"] ;
22 -> 23 ;
24 [label="memb_leng <= -0.74\ngini = 0.09\nsamples = 13\nvalue = [1, 19]", fillcolor="#43a2e6"] ;
23 -> 24 ;
25 [label="memb_leng <= -0.77\ngini = 0.22\nsamples = 5\nvalue = [1, 7]", fillcolor="#55abe9"] ;
24 -> 25 ;
26 [label="gini = 0.0\nsamples = 4\nvalue = [0, 7]", fillcolor="#399de5"] ;
25 -> 26 ;
27 [label="gini = 0.0\nsamples = 1\nvalue = [1, 0]", fillcolor="#e58139"] ;
25 -> 27 ;
28 [label="gini = 0.0\nsamples = 8\nvalue = [0, 12]", fillcolor="#399de5"] ;
24 -> 28 ;
29 [label="income <= -1.52\ngini = 0.3\nsamples = 14\nvalue = [4, 18]", fillcolor="#65b3eb"] ;
23 -> 29 ;
30 [label="age <= -1.89\ngini = 0.44\nsamples = 2\nvalue = [2, 1]", fillcolor="#f2c09c"] ;
29 -> 30 ;
31 [label="gini = 0.0\nsamples = 1\nvalue = [0, 1]", fillcolor="#399de5"] ;
30 -> 31 ;
32 [label="gini = 0.0\nsamples = 1\nvalue = [2, 0]", fillcolor="#e58139"] ;
30 -> 32 ;
33 [label="memb_leng <= -1.04\ngini = 0.19\nsamples = 12\nvalue = [2, 17]", fillcolor="#50a9e8"] ;
29 -> 33 ;
34 [label="memb_leng <= -1.1\ngini = 0.44\nsamples = 2\nvalue = [2, 1]", fillcolor="#f2c09c"] ;
33 -> 34 ;
35 [label="gini = 0.0\nsamples = 1\nvalue = [0, 1]", fillcolor="#399de5"] ;
34 -> 35 ;
36 [label="gini = 0.0\nsamples = 1\nvalue = [2, 0]", fillcolor="#e58139"] ;
34 -> 36 ;
37 [label="gini = 0.0\nsamples = 10\nvalue = [0, 16]", fillcolor="#399de5"] ;
33 -> 37 ;
38 [label="gini = 0.0\nsamples = 1\nvalue = [0, 1]", fillcolor="#399de5"] ;
22 -> 38 ;
39 [label="age <= -1.92\ngini = 0.49\nsamples = 4\nvalue = [3, 4]", fillcolor="#cee6f8"] ;
21 -> 39 ;
40 [label="gini = 0.0\nsamples = 1\nvalue = [3, 0]", fillcolor="#e58139"] ;
39 -> 40 ;
41 [label="gini = 0.0\nsamples = 3\nvalue = [0, 4]", fillcolor="#399de5"] ;
39 -> 41 ;
42 [label="age <= -1.95\ngini = 0.5\nsamples = 12\nvalue = [10, 9]", fillcolor="#fcf2eb"] ;
20 -> 42 ;
43 [label="gini = 0.0\nsamples = 2\nvalue = [3, 0]", fillcolor="#e58139"] ;
42 -> 43 ;
44 [label="time <= 0.94\ngini = 0.49\nsamples = 10\nvalue = [7, 9]", fillcolor="#d3e9f9"] ;
42 -> 44 ;
45 [label="memb_leng <= 2.55\ngini = 0.5\nsamples = 9\nvalue = [7, 8]", fillcolor="#e6f3fc"] ;
44 -> 45 ;
46 [label="time <= 0.79\ngini = 0.44\nsamples = 7\nvalue = [4, 8]", fillcolor="#9ccef2"] ;
45 -> 46 ;
47 [label="memb_leng <= 1.22\ngini = 0.49\nsamples = 5\nvalue = [4, 5]", fillcolor="#d7ebfa"] ;
46 -> 47 ;
48 [label="age <= -1.83\ngini = 0.44\nsamples = 3\nvalue = [4, 2]", fillcolor="#f2c09c"] ;
47 -> 48 ;
49 [label="gini = 0.0\nsamples = 2\nvalue = [4, 0]", fillcolor="#e58139"] ;
48 -> 49 ;
50 [label="gini = 0.0\nsamples = 1\nvalue = [0, 2]", fillcolor="#399de5"] ;
48 -> 50 ;
51 [label="gini = 0.0\nsamples = 2\nvalue = [0, 3]", fillcolor="#399de5"] ;
47 -> 51 ;
52 [label="gini = 0.0\nsamples = 2\nvalue = [0, 3]", fillcolor="#399de5"] ;
46 -> 52 ;
53 [label="gini = 0.0\nsamples = 2\nvalue = [3, 0]", fillcolor="#e58139"] ;
45 -> 53 ;
54 [label="gini = 0.0\nsamples = 1\nvalue = [0, 1]", fillcolor="#399de5"] ;
44 -> 54 ;
55 [label="gini = 0.0\nsamples = 13\nvalue = [0, 21]", fillcolor="#399de5"] ;
19 -> 55 ;
56 [label="gender_O <= 0.5\ngini = 0.16\nsamples = 481\nvalue = [66, 685]", fillcolor="#4ca6e8"] ;
12 -> 56 ;
57 [label="age <= 0.29\ngini = 0.16\nsamples = 473\nvalue = [66, 670]", fillcolor="#4da7e8"] ;
56 -> 57 ;
58 [label="time <= 0.94\ngini = 0.19\nsamples = 294\nvalue = [46, 390]", fillcolor="#50a9e8"] ;
57 -> 58 ;
59 [label="age <= 0.18\ngini = 0.21\nsamples = 246\nvalue = [44, 323]", fillcolor="#54aae9"] ;
58 -> 59 ;
60 [label="income <= -1.61\ngini = 0.19\nsamples = 232\nvalue = [37, 308]", fillcolor="#51a9e8"] ;
59 -> 60 ;
61 [label="memb_leng <= 1.33\ngini = 0.44\nsamples = 2\nvalue = [2, 1]", fillcolor="#f2c09c"] ;
60 -> 61 ;
62 [label="gini = 0.0\nsamples = 1\nvalue = [2, 0]", fillcolor="#e58139"] ;
61 -> 62 ;
63 [label="gini = 0.0\nsamples = 1\nvalue = [0, 1]", fillcolor="#399de5"] ;
61 -> 63 ;
64 [label="memb_leng <= 1.24\ngini = 0.18\nsamples = 230\nvalue = [35, 307]", fillcolor="#50a8e8"] ;
60 -> 64 ;
65 [label="time <= 0.79\ngini = 0.15\nsamples = 195\nvalue = [24, 270]", fillcolor="#4ba6e7"] ;
64 -> 65 ;
66 [label="memb_leng <= -1.2\ngini = 0.16\nsamples = 144\nvalue = [19, 192]", fillcolor="#4da7e8"] ;
65 -> 66 ;
67 [label="income <= -1.38\ngini = 0.5\nsamples = 2\nvalue = [1, 1]", fillcolor="#ffffff"] ;
66 -> 67 ;
68 [label="gini = 0.0\nsamples = 1\nvalue = [0, 1]", fillcolor="#399de5"] ;
67 -> 68 ;
69 [label="gini = 0.0\nsamples = 1\nvalue = [1, 0]", fillcolor="#e58139"] ;
67 -> 69 ;
70 [label="time <= 0.15\ngini = 0.16\nsamples = 142\nvalue = [18, 191]", fillcolor="#4ca6e7"] ;
66 -> 70 ;
71 [label="income <= -1.24\ngini = 0.1\nsamples = 33\nvalue = [3, 51]", fillcolor="#45a3e7"] ;
70 -> 71 ;
72 [label="gini = 0.0\nsamples = 15\nvalue = [0, 27]", fillcolor="#399de5"] ;
71 -> 72 ;
73 [label="age <= -0.42\ngini = 0.2\nsamples = 18\nvalue = [3, 24]", fillcolor="#52a9e8"] ;
71 -> 73 ;
74 [label="memb_leng <= 0.49\ngini = 0.08\nsamples = 16\nvalue = [1, 23]", fillcolor="#42a1e6"] ;
73 -> 74 ;
75 [label="gini = 0.0\nsamples = 12\nvalue = [0, 17]", fillcolor="#399de5"] ;
74 -> 75 ;
76 [label="income <= -1.1\ngini = 0.24\nsamples = 4\nvalue = [1, 6]", fillcolor="#5aade9"] ;
74 -> 76 ;
77 [label="gini = 0.0\nsamples = 1\nvalue = [1, 0]", fillcolor="#e58139"] ;
76 -> 77 ;
78 [label="gini = 0.0\nsamples = 3\nvalue = [0, 6]", fillcolor="#399de5"] ;
76 -> 78 ;
79 [label="income <= -1.1\ngini = 0.44\nsamples = 2\nvalue = [2, 1]", fillcolor="#f2c09c"] ;
73 -> 79 ;
80 [label="gini = 0.0\nsamples = 1\nvalue = [0, 1]", fillcolor="#399de5"] ;
79 -> 80 ;
81 [label="gini = 0.0\nsamples = 1\nvalue = [2, 0]", fillcolor="#e58139"] ;
79 -> 81 ;
82 [label="age <= -0.85\ngini = 0.17\nsamples = 109\nvalue = [15, 140]", fillcolor="#4ea8e8"] ;
70 -> 82 ;
83 [label="income <= -0.78\ngini = 0.28\nsamples = 40\nvalue = [9, 45]", fillcolor="#61b1ea"] ;
82 -> 83 ;
84 [label="income <= -1.15\ngini = 0.26\nsamples = 39\nvalue = [8, 45]", fillcolor="#5caeea"] ;
83 -> 84 ;
85 [label="income <= -1.52\ngini = 0.37\nsamples = 24\nvalue = [7, 22]", fillcolor="#78bced"] ;
84 -> 85 ;
86 [label="memb_leng <= 0.1\ngini = 0.22\nsamples = 5\nvalue = [1, 7]", fillcolor="#55abe9"] ;
85 -> 86 ;
87 [label="gini = 0.0\nsamples = 4\nvalue = [0, 7]", fillcolor="#399de5"] ;
86 -> 87 ;
88 [label="gini = 0.0\nsamples = 1\nvalue = [1, 0]", fillcolor="#e58139"] ;
86 -> 88 ;
89 [label="income <= -1.47\ngini = 0.41\nsamples = 19\nvalue = [6, 15]", fillcolor="#88c4ef"] ;
85 -> 89 ;
90 [label="gini = 0.0\nsamples = 1\nvalue = [1, 0]", fillcolor="#e58139"] ;
89 -> 90 ;
91 [label="age <= -0.91\ngini = 0.38\nsamples = 18\nvalue = [5, 15]", fillcolor="#7bbeee"] ;
89 -> 91 ;
92 [label="age <= -1.43\ngini = 0.29\nsamples = 16\nvalue = [3, 14]", fillcolor="#63b2eb"] ;
91 -> 92 ;
93 [label="memb_leng <= -0.62\ngini = 0.5\nsamples = 2\nvalue = [1, 1]", fillcolor="#ffffff"] ;
92 -> 93 ;
94 [label="gini = 0.0\nsamples = 1\nvalue = [1, 0]", fillcolor="#e58139"] ;
93 -> 94 ;
95 [label="gini = 0.0\nsamples = 1\nvalue = [0, 1]", fillcolor="#399de5"] ;
93 -> 95 ;
96 [label="income <= -1.22\ngini = 0.23\nsamples = 14\nvalue = [2, 13]", fillcolor="#57ace9"] ;
92 -> 96 ;
97 [label="age <= -1.11\ngini = 0.14\nsamples = 12\nvalue = [1, 12]", fillcolor="#49a5e7"] ;
96 -> 97 ;
98 [label="gini = 0.0\nsamples = 6\nvalue = [0, 6]", fillcolor="#399de5"] ;
97 -> 98 ;
99 [label="memb_leng <= -0.88\ngini = 0.24\nsamples = 6\nvalue = [1, 6]", fillcolor="#5aade9"] ;
97 -> 99 ;
100 [label="memb_leng <= -0.93\ngini = 0.44\nsamples = 3\nvalue = [1, 2]", fillcolor="#9ccef2"] ;
99 -> 100 ;
101 [label="gini = 0.0\nsamples = 2\nvalue = [0, 2]", fillcolor="#399de5"] ;
100 -> 101 ;
102 [label="gini = 0.0\nsamples = 1\nvalue = [1, 0]", fillcolor="#e58139"] ;
100 -> 102 ;
103 [label="gini = 0.0\nsamples = 3\nvalue = [0, 4]", fillcolor="#399de5"] ;
99 -> 103 ;
104 [label="age <= -1.2\ngini = 0.5\nsamples = 2\nvalue = [1, 1]", fillcolor="#ffffff"] ;
96 -> 104 ;
105 [label="gini = 0.0\nsamples = 1\nvalue = [0, 1]", fillcolor="#399de5"] ;
104 -> 105 ;
106 [label="gini = 0.0\nsamples = 1\nvalue = [1, 0]", fillcolor="#e58139"] ;
104 -> 106 ;
107 [label="time <= 0.44\ngini = 0.44\nsamples = 2\nvalue = [2, 1]", fillcolor="#f2c09c"] ;
91 -> 107 ;
108 [label="gini = 0.0\nsamples = 1\nvalue = [2, 0]", fillcolor="#e58139"] ;
107 -> 108 ;
109 [label="gini = 0.0\nsamples = 1\nvalue = [0, 1]", fillcolor="#399de5"] ;
107 -> 109 ;
110 [label="memb_leng <= -0.71\ngini = 0.08\nsamples = 15\nvalue = [1, 23]", fillcolor="#42a1e6"] ;
84 -> 110 ;
111 [label="gini = 0.0\nsamples = 6\nvalue = [0, 13]", fillcolor="#399de5"] ;
110 -> 111 ;
112 [label="memb_leng <= -0.65\ngini = 0.17\nsamples = 9\nvalue = [1, 10]", fillcolor="#4da7e8"] ;
110 -> 112 ;
113 [label="gini = 0.0\nsamples = 1\nvalue = [1, 0]", fillcolor="#e58139"] ;
112 -> 113 ;
114 [label="gini = 0.0\nsamples = 8\nvalue = [0, 10]", fillcolor="#399de5"] ;
112 -> 114 ;
115 [label="gini = 0.0\nsamples = 1\nvalue = [1, 0]", fillcolor="#e58139"] ;
83 -> 115 ;
116 [label="age <= -0.16\ngini = 0.11\nsamples = 69\nvalue = [6, 95]", fillcolor="#46a3e7"] ;
82 -> 116 ;
117 [label="age <= -0.22\ngini = 0.15\nsamples = 45\nvalue = [5, 56]", fillcolor="#4ba6e7"] ;
116 -> 117 ;
118 [label="income <= -1.06\ngini = 0.1\nsamples = 42\nvalue = [3, 54]", fillcolor="#44a2e6"] ;
117 -> 118 ;
119 [label="memb_leng <= 0.92\ngini = 0.17\nsamples = 23\nvalue = [3, 28]", fillcolor="#4ea8e8"] ;
118 -> 119 ;
120 [label="memb_leng <= -0.85\ngini = 0.12\nsamples = 22\nvalue = [2, 28]", fillcolor="#47a4e7"] ;
119 -> 120 ;
121 [label="time <= 0.44\ngini = 0.35\nsamples = 7\nvalue = [2, 7]", fillcolor="#72b9ec"] ;
120 -> 121 ;
122 [label="gini = 0.0\nsamples = 2\nvalue = [0, 3]", fillcolor="#399de5"] ;
121 -> 122 ;
123 [label="memb_leng <= -0.99\ngini = 0.44\nsamples = 5\nvalue = [2, 4]", fillcolor="#9ccef2"] ;
121 -> 123 ;
124 [label="gini = 0.0\nsamples = 3\nvalue = [0, 4]", fillcolor="#399de5"] ;
123 -> 124 ;
125 [label="gini = 0.0\nsamples = 2\nvalue = [2, 0]", fillcolor="#e58139"] ;
123 -> 125 ;
126 [label="gini = 0.0\nsamples = 15\nvalue = [0, 21]", fillcolor="#399de5"] ;
120 -> 126 ;
127 [label="gini = 0.0\nsamples = 1\nvalue = [1, 0]", fillcolor="#e58139"] ;
119 -> 127 ;
128 [label="gini = 0.0\nsamples = 19\nvalue = [0, 26]", fillcolor="#399de5"] ;
118 -> 128 ;
129 [label="memb_leng <= -0.94\ngini = 0.5\nsamples = 3\nvalue = [2, 2]", fillcolor="#ffffff"] ;
117 -> 129 ;
130 [label="gini = 0.0\nsamples = 1\nvalue = [0, 1]", fillcolor="#399de5"] ;
129 -> 130 ;
131 [label="memb_leng <= -0.59\ngini = 0.44\nsamples = 2\nvalue = [2, 1]", fillcolor="#f2c09c"] ;
129 -> 131 ;
132 [label="gini = 0.0\nsamples = 1\nvalue = [2, 0]", fillcolor="#e58139"] ;
131 -> 132 ;
133 [label="gini = 0.0\nsamples = 1\nvalue = [0, 1]", fillcolor="#399de5"] ;
131 -> 133 ;
134 [label="age <= 0.07\ngini = 0.05\nsamples = 24\nvalue = [1, 39]", fillcolor="#3ea0e6"] ;
116 -> 134 ;
135 [label="gini = 0.0\nsamples = 14\nvalue = [0, 23]", fillcolor="#399de5"] ;
134 -> 135 ;
136 [label="memb_leng <= -0.52\ngini = 0.11\nsamples = 10\nvalue = [1, 16]", fillcolor="#45a3e7"] ;
134 -> 136 ;
137 [label="gini = 0.0\nsamples = 6\nvalue = [0, 11]", fillcolor="#399de5"] ;
136 -> 137 ;
138 [label="income <= -1.1\ngini = 0.28\nsamples = 4\nvalue = [1, 5]", fillcolor="#61b1ea"] ;
136 -> 138 ;
139 [label="gini = 0.0\nsamples = 2\nvalue = [0, 4]", fillcolor="#399de5"] ;
138 -> 139 ;
140 [label="time <= 0.65\ngini = 0.5\nsamples = 2\nvalue = [1, 1]", fillcolor="#ffffff"] ;
138 -> 140 ;
141 [label="gini = 0.0\nsamples = 1\nvalue = [1, 0]", fillcolor="#e58139"] ;
140 -> 141 ;
142 [label="gini = 0.0\nsamples = 1\nvalue = [0, 1]", fillcolor="#399de5"] ;
140 -> 142 ;
143 [label="memb_leng <= 0.15\ngini = 0.11\nsamples = 51\nvalue = [5, 78]", fillcolor="#46a3e7"] ;
65 -> 143 ;
144 [label="memb_leng <= 0.1\ngini = 0.14\nsamples = 40\nvalue = [5, 60]", fillcolor="#49a5e7"] ;
143 -> 144 ;
145 [label="income <= -1.38\ngini = 0.12\nsamples = 39\nvalue = [4, 60]", fillcolor="#46a4e7"] ;
144 -> 145 ;
146 [label="income <= -1.47\ngini = 0.24\nsamples = 13\nvalue = [3, 18]", fillcolor="#5aade9"] ;
145 -> 146 ;
147 [label="gini = 0.0\nsamples = 5\nvalue = [0, 10]", fillcolor="#399de5"] ;
146 -> 147 ;
148 [label="age <= -0.68\ngini = 0.4\nsamples = 8\nvalue = [3, 8]", fillcolor="#83c2ef"] ;
146 -> 148 ;
149 [label="age <= -1.29\ngini = 0.5\nsamples = 5\nvalue = [3, 3]", fillcolor="#ffffff"] ;
148 -> 149 ;
150 [label="gini = 0.0\nsamples = 1\nvalue = [0, 2]", fillcolor="#399de5"] ;
149 -> 150 ;
151 [label="age <= -1.03\ngini = 0.38\nsamples = 4\nvalue = [3, 1]", fillcolor="#eeab7b"] ;
149 -> 151 ;
152 [label="gini = 0.0\nsamples = 2\nvalue = [2, 0]", fillcolor="#e58139"] ;
151 -> 152 ;
153 [label="memb_leng <= -0.78\ngini = 0.5\nsamples = 2\nvalue = [1, 1]", fillcolor="#ffffff"] ;
151 -> 153 ;
154 [label="gini = 0.0\nsamples = 1\nvalue = [1, 0]", fillcolor="#e58139"] ;
153 -> 154 ;
155 [label="gini = 0.0\nsamples = 1\nvalue = [0, 1]", fillcolor="#399de5"] ;
153 -> 155 ;
156 [label="gini = 0.0\nsamples = 3\nvalue = [0, 5]", fillcolor="#399de5"] ;
148 -> 156 ;
157 [label="age <= -0.28\ngini = 0.05\nsamples = 26\nvalue = [1, 42]", fillcolor="#3e9fe6"] ;
145 -> 157 ;
158 [label="gini = 0.0\nsamples = 19\nvalue = [0, 33]", fillcolor="#399de5"] ;
157 -> 158 ;
159 [label="age <= -0.19\ngini = 0.18\nsamples = 7\nvalue = [1, 9]", fillcolor="#4fa8e8"] ;
157 -> 159 ;
160 [label="gini = 0.0\nsamples = 1\nvalue = [1, 0]", fillcolor="#e58139"] ;
159 -> 160 ;
161 [label="gini = 0.0\nsamples = 6\nvalue = [0, 9]", fillcolor="#399de5"] ;
159 -> 161 ;
162 [label="gini = 0.0\nsamples = 1\nvalue = [1, 0]", fillcolor="#e58139"] ;
144 -> 162 ;
163 [label="gini = 0.0\nsamples = 11\nvalue = [0, 18]", fillcolor="#399de5"] ;
143 -> 163 ;
164 [label="income <= -1.03\ngini = 0.35\nsamples = 35\nvalue = [11, 37]", fillcolor="#74baed"] ;
64 -> 164 ;
165 [label="age <= -0.08\ngini = 0.23\nsamples = 27\nvalue = [5, 33]", fillcolor="#57ace9"] ;
164 -> 165 ;
166 [label="income <= -1.29\ngini = 0.12\nsamples = 22\nvalue = [2, 30]", fillcolor="#46a4e7"] ;
165 -> 166 ;
167 [label="income <= -1.34\ngini = 0.18\nsamples = 13\nvalue = [2, 18]", fillcolor="#4fa8e8"] ;
166 -> 167 ;
168 [label="income <= -1.43\ngini = 0.12\nsamples = 10\nvalue = [1, 15]", fillcolor="#46a4e7"] ;
167 -> 168 ;
169 [label="income <= -1.47\ngini = 0.22\nsamples = 5\nvalue = [1, 7]", fillcolor="#55abe9"] ;
168 -> 169 ;
170 [label="gini = 0.0\nsamples = 3\nvalue = [0, 5]", fillcolor="#399de5"] ;
169 -> 170 ;
171 [label="age <= -0.94\ngini = 0.44\nsamples = 2\nvalue = [1, 2]", fillcolor="#9ccef2"] ;
169 -> 171 ;
172 [label="gini = 0.0\nsamples = 1\nvalue = [1, 0]", fillcolor="#e58139"] ;
171 -> 172 ;
173 [label="gini = 0.0\nsamples = 1\nvalue = [0, 2]", fillcolor="#399de5"] ;
171 -> 173 ;
174 [label="gini = 0.0\nsamples = 5\nvalue = [0, 8]", fillcolor="#399de5"] ;
168 -> 174 ;
175 [label="time <= 0.35\ngini = 0.38\nsamples = 3\nvalue = [1, 3]", fillcolor="#7bbeee"] ;
167 -> 175 ;
176 [label="gini = 0.0\nsamples = 2\nvalue = [0, 3]", fillcolor="#399de5"] ;
175 -> 176 ;
177 [label="gini = 0.0\nsamples = 1\nvalue = [1, 0]", fillcolor="#e58139"] ;
175 -> 177 ;
178 [label="gini = 0.0\nsamples = 9\nvalue = [0, 12]", fillcolor="#399de5"] ;
166 -> 178 ;
179 [label="memb_leng <= 2.23\ngini = 0.5\nsamples = 5\nvalue = [3, 3]", fillcolor="#ffffff"] ;
165 -> 179 ;
180 [label="age <= 0.07\ngini = 0.38\nsamples = 3\nvalue = [3, 1]", fillcolor="#eeab7b"] ;
179 -> 180 ;
181 [label="gini = 0.0\nsamples = 2\nvalue = [3, 0]", fillcolor="#e58139"] ;
180 -> 181 ;
182 [label="gini = 0.0\nsamples = 1\nvalue = [0, 1]", fillcolor="#399de5"] ;
180 -> 182 ;
183 [label="gini = 0.0\nsamples = 2\nvalue = [0, 2]", fillcolor="#399de5"] ;
179 -> 183 ;
184 [label="age <= -1.26\ngini = 0.48\nsamples = 8\nvalue = [6, 4]", fillcolor="#f6d5bd"] ;
164 -> 184 ;
185 [label="gini = 0.0\nsamples = 1\nvalue = [2, 0]", fillcolor="#e58139"] ;
184 -> 185 ;
186 [label="memb_leng <= 1.64\ngini = 0.5\nsamples = 7\nvalue = [4, 4]", fillcolor="#ffffff"] ;
184 -> 186 ;
187 [label="age <= -0.83\ngini = 0.38\nsamples = 4\nvalue = [1, 3]", fillcolor="#7bbeee"] ;
186 -> 187 ;
188 [label="time <= 0.44\ngini = 0.5\nsamples = 2\nvalue = [1, 1]", fillcolor="#ffffff"] ;
187 -> 188 ;
189 [label="gini = 0.0\nsamples = 1\nvalue = [0, 1]", fillcolor="#399de5"] ;
188 -> 189 ;
190 [label="gini = 0.0\nsamples = 1\nvalue = [1, 0]", fillcolor="#e58139"] ;
188 -> 190 ;
191 [label="gini = 0.0\nsamples = 2\nvalue = [0, 2]", fillcolor="#399de5"] ;
187 -> 191 ;
192 [label="income <= -0.9\ngini = 0.38\nsamples = 3\nvalue = [3, 1]", fillcolor="#eeab7b"] ;
186 -> 192 ;
193 [label="gini = 0.0\nsamples = 1\nvalue = [1, 0]", fillcolor="#e58139"] ;
192 -> 193 ;
194 [label="time <= 0.44\ngini = 0.44\nsamples = 2\nvalue = [2, 1]", fillcolor="#f2c09c"] ;
192 -> 194 ;
195 [label="gini = 0.0\nsamples = 1\nvalue = [2, 0]", fillcolor="#e58139"] ;
194 -> 195 ;
196 [label="gini = 0.0\nsamples = 1\nvalue = [0, 1]", fillcolor="#399de5"] ;
194 -> 196 ;
197 [label="age <= 0.24\ngini = 0.43\nsamples = 14\nvalue = [7, 15]", fillcolor="#95cbf1"] ;
59 -> 197 ;
198 [label="income <= -0.99\ngini = 0.49\nsamples = 9\nvalue = [6, 8]", fillcolor="#cee6f8"] ;
197 -> 198 ;
199 [label="time <= 0.44\ngini = 0.2\nsamples = 8\nvalue = [1, 8]", fillcolor="#52a9e8"] ;
198 -> 199 ;
200 [label="gini = 0.0\nsamples = 4\nvalue = [0, 5]", fillcolor="#399de5"] ;
199 -> 200 ;
201 [label="memb_leng <= -1.07\ngini = 0.38\nsamples = 4\nvalue = [1, 3]", fillcolor="#7bbeee"] ;
199 -> 201 ;
202 [label="gini = 0.0\nsamples = 1\nvalue = [1, 0]", fillcolor="#e58139"] ;
201 -> 202 ;
203 [label="gini = 0.0\nsamples = 3\nvalue = [0, 3]", fillcolor="#399de5"] ;
201 -> 203 ;
204 [label="gini = 0.0\nsamples = 1\nvalue = [5, 0]", fillcolor="#e58139"] ;
198 -> 204 ;
205 [label="time <= 0.44\ngini = 0.22\nsamples = 5\nvalue = [1, 7]", fillcolor="#55abe9"] ;
197 -> 205 ;
206 [label="gini = 0.0\nsamples = 2\nvalue = [0, 5]", fillcolor="#399de5"] ;
205 -> 206 ;
207 [label="income <= -1.2\ngini = 0.44\nsamples = 3\nvalue = [1, 2]", fillcolor="#9ccef2"] ;
205 -> 207 ;
208 [label="gini = 0.0\nsamples = 1\nvalue = [1, 0]", fillcolor="#e58139"] ;
207 -> 208 ;
209 [label="gini = 0.0\nsamples = 2\nvalue = [0, 2]", fillcolor="#399de5"] ;
207 -> 209 ;
210 [label="age <= -0.62\ngini = 0.06\nsamples = 48\nvalue = [2, 67]", fillcolor="#3fa0e6"] ;
58 -> 210 ;
211 [label="age <= -1.03\ngini = 0.11\nsamples = 27\nvalue = [2, 31]", fillcolor="#46a3e7"] ;
210 -> 211 ;
212 [label="gini = 0.0\nsamples = 17\nvalue = [0, 23]", fillcolor="#399de5"] ;
211 -> 212 ;
213 [label="age <= -0.97\ngini = 0.32\nsamples = 10\nvalue = [2, 8]", fillcolor="#6ab6ec"] ;
211 -> 213 ;
214 [label="gini = 0.0\nsamples = 1\nvalue = [1, 0]", fillcolor="#e58139"] ;
213 -> 214 ;
215 [label="memb_leng <= -1.15\ngini = 0.2\nsamples = 9\nvalue = [1, 8]", fillcolor="#52a9e8"] ;
213 -> 215 ;
216 [label="gini = 0.0\nsamples = 1\nvalue = [1, 0]", fillcolor="#e58139"] ;
215 -> 216 ;
217 [label="gini = 0.0\nsamples = 8\nvalue = [0, 8]", fillcolor="#399de5"] ;
215 -> 217 ;
218 [label="gini = 0.0\nsamples = 21\nvalue = [0, 36]", fillcolor="#399de5"] ;
210 -> 218 ;
219 [label="memb_leng <= 0.92\ngini = 0.12\nsamples = 179\nvalue = [20, 280]", fillcolor="#47a4e7"] ;
57 -> 219 ;
220 [label="time <= 0.65\ngini = 0.15\nsamples = 145\nvalue = [19, 220]", fillcolor="#4aa5e7"] ;
219 -> 220 ;
221 [label="memb_leng <= 0.86\ngini = 0.09\nsamples = 84\nvalue = [7, 134]", fillcolor="#43a2e6"] ;
220 -> 221 ;
222 [label="age <= 1.9\ngini = 0.07\nsamples = 83\nvalue = [5, 134]", fillcolor="#40a1e6"] ;
221 -> 222 ;
223 [label="time <= 0.44\ngini = 0.04\nsamples = 76\nvalue = [3, 128]", fillcolor="#3e9fe6"] ;
222 -> 223 ;
224 [label="age <= 0.64\ngini = 0.09\nsamples = 41\nvalue = [3, 60]", fillcolor="#43a2e6"] ;
223 -> 224 ;
225 [label="gini = 0.0\nsamples = 18\nvalue = [0, 28]", fillcolor="#399de5"] ;
224 -> 225 ;
226 [label="age <= 0.75\ngini = 0.16\nsamples = 23\nvalue = [3, 32]", fillcolor="#4ca6e7"] ;
224 -> 226 ;
227 [label="income <= -0.83\ngini = 0.3\nsamples = 8\nvalue = [2, 9]", fillcolor="#65b3eb"] ;
226 -> 227 ;
228 [label="income <= -1.2\ngini = 0.18\nsamples = 7\nvalue = [1, 9]", fillcolor="#4fa8e8"] ;
227 -> 228 ;
229 [label="income <= -1.29\ngini = 0.38\nsamples = 3\nvalue = [1, 3]", fillcolor="#7bbeee"] ;
228 -> 229 ;
230 [label="gini = 0.0\nsamples = 2\nvalue = [0, 3]", fillcolor="#399de5"] ;
229 -> 230 ;
231 [label="gini = 0.0\nsamples = 1\nvalue = [1, 0]", fillcolor="#e58139"] ;
229 -> 231 ;
232 [label="gini = 0.0\nsamples = 4\nvalue = [0, 6]", fillcolor="#399de5"] ;
228 -> 232 ;
233 [label="gini = 0.0\nsamples = 1\nvalue = [1, 0]", fillcolor="#e58139"] ;
227 -> 233 ;
234 [label="income <= -1.2\ngini = 0.08\nsamples = 15\nvalue = [1, 23]", fillcolor="#42a1e6"] ;
226 -> 234 ;
235 [label="age <= 1.16\ngini = 0.28\nsamples = 4\nvalue = [1, 5]", fillcolor="#61b1ea"] ;
234 -> 235 ;
236 [label="gini = 0.0\nsamples = 3\nvalue = [0, 5]", fillcolor="#399de5"] ;
235 -> 236 ;
237 [label="gini = 0.0\nsamples = 1\nvalue = [1, 0]", fillcolor="#e58139"] ;
235 -> 237 ;
238 [label="gini = 0.0\nsamples = 11\nvalue = [0, 18]", fillcolor="#399de5"] ;
234 -> 238 ;
239 [label="gini = 0.0\nsamples = 35\nvalue = [0, 68]", fillcolor="#399de5"] ;
223 -> 239 ;
240 [label="age <= 2.16\ngini = 0.38\nsamples = 7\nvalue = [2, 6]", fillcolor="#7bbeee"] ;
222 -> 240 ;
241 [label="time <= 0.44\ngini = 0.48\nsamples = 5\nvalue = [2, 3]", fillcolor="#bddef6"] ;
240 -> 241 ;
242 [label="memb_leng <= -0.45\ngini = 0.44\nsamples = 3\nvalue = [2, 1]", fillcolor="#f2c09c"] ;
241 -> 242 ;
243 [label="gini = 0.0\nsamples = 2\nvalue = [2, 0]", fillcolor="#e58139"] ;
242 -> 243 ;
244 [label="gini = 0.0\nsamples = 1\nvalue = [0, 1]", fillcolor="#399de5"] ;
242 -> 244 ;
245 [label="gini = 0.0\nsamples = 2\nvalue = [0, 2]", fillcolor="#399de5"] ;
241 -> 245 ;
246 [label="gini = 0.0\nsamples = 2\nvalue = [0, 3]", fillcolor="#399de5"] ;
240 -> 246 ;
247 [label="gini = 0.0\nsamples = 1\nvalue = [2, 0]", fillcolor="#e58139"] ;
221 -> 247 ;
248 [label="income <= -0.73\ngini = 0.21\nsamples = 61\nvalue = [12, 86]", fillcolor="#55abe9"] ;
220 -> 248 ;
249 [label="income <= -1.15\ngini = 0.16\nsamples = 51\nvalue = [7, 73]", fillcolor="#4ca6e7"] ;
248 -> 249 ;
250 [label="memb_leng <= -1.16\ngini = 0.21\nsamples = 30\nvalue = [6, 45]", fillcolor="#53aae8"] ;
249 -> 250 ;
251 [label="age <= 0.78\ngini = 0.5\nsamples = 2\nvalue = [1, 1]", fillcolor="#ffffff"] ;
250 -> 251 ;
252 [label="gini = 0.0\nsamples = 1\nvalue = [0, 1]", fillcolor="#399de5"] ;
251 -> 252 ;
253 [label="gini = 0.0\nsamples = 1\nvalue = [1, 0]", fillcolor="#e58139"] ;
251 -> 253 ;
254 [label="income <= -1.57\ngini = 0.18\nsamples = 28\nvalue = [5, 44]", fillcolor="#50a8e8"] ;
250 -> 254 ;
255 [label="memb_leng <= -0.75\ngini = 0.26\nsamples = 6\nvalue = [2, 11]", fillcolor="#5dafea"] ;
254 -> 255 ;
256 [label="gini = 0.0\nsamples = 1\nvalue = [2, 0]", fillcolor="#e58139"] ;
255 -> 256 ;
257 [label="gini = 0.0\nsamples = 5\nvalue = [0, 11]", fillcolor="#399de5"] ;
255 -> 257 ;
258 [label="income <= -1.47\ngini = 0.15\nsamples = 22\nvalue = [3, 33]", fillcolor="#4ba6e7"] ;
254 -> 258 ;
259 [label="gini = 0.0\nsamples = 6\nvalue = [0, 11]", fillcolor="#399de5"] ;
258 -> 259 ;
260 [label="time <= 0.94\ngini = 0.21\nsamples = 16\nvalue = [3, 22]", fillcolor="#54aae9"] ;
258 -> 260 ;
261 [label="income <= -1.38\ngini = 0.29\nsamples = 12\nvalue = [3, 14]", fillcolor="#63b2eb"] ;
260 -> 261 ;
262 [label="memb_leng <= -0.66\ngini = 0.22\nsamples = 6\nvalue = [1, 7]", fillcolor="#55abe9"] ;
261 -> 262 ;
263 [label="gini = 0.0\nsamples = 3\nvalue = [0, 5]", fillcolor="#399de5"] ;
262 -> 263 ;
264 [label="income <= -1.43\ngini = 0.44\nsamples = 3\nvalue = [1, 2]", fillcolor="#9ccef2"] ;
262 -> 264 ;
265 [label="age <= 0.93\ngini = 0.5\nsamples = 2\nvalue = [1, 1]", fillcolor="#ffffff"] ;
264 -> 265 ;
266 [label="gini = 0.0\nsamples = 1\nvalue = [1, 0]", fillcolor="#e58139"] ;
265 -> 266 ;
267 [label="gini = 0.0\nsamples = 1\nvalue = [0, 1]", fillcolor="#399de5"] ;
265 -> 267 ;
268 [label="gini = 0.0\nsamples = 1\nvalue = [0, 1]", fillcolor="#399de5"] ;
264 -> 268 ;
269 [label="age <= 0.47\ngini = 0.35\nsamples = 6\nvalue = [2, 7]", fillcolor="#72b9ec"] ;
261 -> 269 ;
270 [label="gini = 0.0\nsamples = 1\nvalue = [0, 3]", fillcolor="#399de5"] ;
269 -> 270 ;
271 [label="age <= 1.07\ngini = 0.44\nsamples = 5\nvalue = [2, 4]", fillcolor="#9ccef2"] ;
269 -> 271 ;
272 [label="gini = 0.0\nsamples = 1\nvalue = [1, 0]", fillcolor="#e58139"] ;
271 -> 272 ;
273 [label="income <= -1.29\ngini = 0.32\nsamples = 4\nvalue = [1, 4]", fillcolor="#6ab6ec"] ;
271 -> 273 ;
274 [label="time <= 0.79\ngini = 0.5\nsamples = 2\nvalue = [1, 1]", fillcolor="#ffffff"] ;
273 -> 274 ;
275 [label="gini = 0.0\nsamples = 1\nvalue = [0, 1]", fillcolor="#399de5"] ;
274 -> 275 ;
276 [label="gini = 0.0\nsamples = 1\nvalue = [1, 0]", fillcolor="#e58139"] ;
274 -> 276 ;
277 [label="gini = 0.0\nsamples = 2\nvalue = [0, 3]", fillcolor="#399de5"] ;
273 -> 277 ;
278 [label="gini = 0.0\nsamples = 4\nvalue = [0, 8]", fillcolor="#399de5"] ;
260 -> 278 ;
279 [label="time <= 0.94\ngini = 0.07\nsamples = 21\nvalue = [1, 28]", fillcolor="#40a0e6"] ;
249 -> 279 ;
280 [label="gini = 0.0\nsamples = 15\nvalue = [0, 19]", fillcolor="#399de5"] ;
279 -> 280 ;
281 [label="income <= -0.83\ngini = 0.18\nsamples = 6\nvalue = [1, 9]", fillcolor="#4fa8e8"] ;
279 -> 281 ;
282 [label="gini = 0.0\nsamples = 4\nvalue = [0, 6]", fillcolor="#399de5"] ;
281 -> 282 ;
283 [label="memb_leng <= -0.55\ngini = 0.38\nsamples = 2\nvalue = [1, 3]", fillcolor="#7bbeee"] ;
281 -> 283 ;
284 [label="gini = 0.0\nsamples = 1\nvalue = [1, 0]", fillcolor="#e58139"] ;
283 -> 284 ;
285 [label="gini = 0.0\nsamples = 1\nvalue = [0, 3]", fillcolor="#399de5"] ;
283 -> 285 ;
286 [label="time <= 0.94\ngini = 0.4\nsamples = 10\nvalue = [5, 13]", fillcolor="#85c3ef"] ;
248 -> 286 ;
287 [label="time <= 0.79\ngini = 0.5\nsamples = 6\nvalue = [5, 5]", fillcolor="#ffffff"] ;
286 -> 287 ;
288 [label="age <= 0.98\ngini = 0.48\nsamples = 2\nvalue = [2, 3]", fillcolor="#bddef6"] ;
287 -> 288 ;
289 [label="gini = 0.0\nsamples = 1\nvalue = [0, 3]", fillcolor="#399de5"] ;
288 -> 289 ;
290 [label="gini = 0.0\nsamples = 1\nvalue = [2, 0]", fillcolor="#e58139"] ;
288 -> 290 ;
291 [label="age <= 0.64\ngini = 0.48\nsamples = 4\nvalue = [3, 2]", fillcolor="#f6d5bd"] ;
287 -> 291 ;
292 [label="memb_leng <= -1.13\ngini = 0.44\nsamples = 3\nvalue = [1, 2]", fillcolor="#9ccef2"] ;
291 -> 292 ;
293 [label="gini = 0.0\nsamples = 1\nvalue = [0, 1]", fillcolor="#399de5"] ;
292 -> 293 ;
294 [label="age <= 0.47\ngini = 0.5\nsamples = 2\nvalue = [1, 1]", fillcolor="#ffffff"] ;
292 -> 294 ;
295 [label="gini = 0.0\nsamples = 1\nvalue = [1, 0]", fillcolor="#e58139"] ;
294 -> 295 ;
296 [label="gini = 0.0\nsamples = 1\nvalue = [0, 1]", fillcolor="#399de5"] ;
294 -> 296 ;
297 [label="gini = 0.0\nsamples = 1\nvalue = [2, 0]", fillcolor="#e58139"] ;
291 -> 297 ;
298 [label="gini = 0.0\nsamples = 4\nvalue = [0, 8]", fillcolor="#399de5"] ;
286 -> 298 ;
299 [label="time <= 0.15\ngini = 0.03\nsamples = 34\nvalue = [1, 60]", fillcolor="#3c9fe5"] ;
219 -> 299 ;
300 [label="memb_leng <= 2.25\ngini = 0.11\nsamples = 9\nvalue = [1, 16]", fillcolor="#45a3e7"] ;
299 -> 300 ;
301 [label="age <= 1.1\ngini = 0.28\nsamples = 4\nvalue = [1, 5]", fillcolor="#61b1ea"] ;
300 -> 301 ;
302 [label="gini = 0.0\nsamples = 1\nvalue = [1, 0]", fillcolor="#e58139"] ;
301 -> 302 ;
303 [label="gini = 0.0\nsamples = 3\nvalue = [0, 5]", fillcolor="#399de5"] ;
301 -> 303 ;
304 [label="gini = 0.0\nsamples = 5\nvalue = [0, 11]", fillcolor="#399de5"] ;
300 -> 304 ;
305 [label="gini = 0.0\nsamples = 25\nvalue = [0, 44]", fillcolor="#399de5"] ;
299 -> 305 ;
306 [label="gini = 0.0\nsamples = 8\nvalue = [0, 15]", fillcolor="#399de5"] ;
56 -> 306 ;
307 [label="gender_M <= 0.5\ngini = 0.23\nsamples = 612\nvalue = [125, 819]", fillcolor="#57ace9"] ;
11 -> 307 ;
308 [label="income <= -0.09\ngini = 0.3\nsamples = 22\nvalue = [6, 27]", fillcolor="#65b3eb"] ;
307 -> 308 ;
309 [label="age <= 0.32\ngini = 0.2\nsamples = 18\nvalue = [3, 23]", fillcolor="#53aae8"] ;
308 -> 309 ;
310 [label="gini = 0.0\nsamples = 10\nvalue = [0, 12]", fillcolor="#399de5"] ;
309 -> 310 ;
311 [label="income <= -0.25\ngini = 0.34\nsamples = 8\nvalue = [3, 11]", fillcolor="#6fb8ec"] ;
309 -> 311 ;
312 [label="memb_leng <= -0.65\ngini = 0.42\nsamples = 6\nvalue = [3, 7]", fillcolor="#8ec7f0"] ;
311 -> 312 ;
313 [label="gini = 0.0\nsamples = 2\nvalue = [3, 0]", fillcolor="#e58139"] ;
312 -> 313 ;
314 [label="gini = 0.0\nsamples = 4\nvalue = [0, 7]", fillcolor="#399de5"] ;
312 -> 314 ;
315 [label="gini = 0.0\nsamples = 2\nvalue = [0, 4]", fillcolor="#399de5"] ;
311 -> 315 ;
316 [label="income <= -0.04\ngini = 0.49\nsamples = 4\nvalue = [3, 4]", fillcolor="#cee6f8"] ;
308 -> 316 ;
317 [label="gini = 0.0\nsamples = 1\nvalue = [3, 0]", fillcolor="#e58139"] ;
316 -> 317 ;
318 [label="gini = 0.0\nsamples = 3\nvalue = [0, 4]", fillcolor="#399de5"] ;
316 -> 318 ;
319 [label="memb_leng <= -0.29\ngini = 0.23\nsamples = 590\nvalue = [119, 792]", fillcolor="#57ace9"] ;
307 -> 319 ;
320 [label="memb_leng <= -1.11\ngini = 0.19\nsamples = 354\nvalue = [58, 492]", fillcolor="#50a9e8"] ;
319 -> 320 ;
321 [label="memb_leng <= -1.12\ngini = 0.32\nsamples = 52\nvalue = [16, 64]", fillcolor="#6ab6ec"] ;
320 -> 321 ;
322 [label="memb_leng <= -1.2\ngini = 0.26\nsamples = 48\nvalue = [11, 62]", fillcolor="#5caeea"] ;
321 -> 322 ;
323 [label="memb_leng <= -1.21\ngini = 0.42\nsamples = 13\nvalue = [5, 12]", fillcolor="#8bc6f0"] ;
322 -> 323 ;
324 [label="age <= -1.98\ngini = 0.36\nsamples = 10\nvalue = [3, 10]", fillcolor="#74baed"] ;
323 -> 324 ;
325 [label="gini = 0.0\nsamples = 1\nvalue = [3, 0]", fillcolor="#e58139"] ;
324 -> 325 ;
326 [label="gini = 0.0\nsamples = 9\nvalue = [0, 10]", fillcolor="#399de5"] ;
324 -> 326 ;
327 [label="time <= 0.15\ngini = 0.5\nsamples = 3\nvalue = [2, 2]", fillcolor="#ffffff"] ;
323 -> 327 ;
328 [label="gini = 0.0\nsamples = 1\nvalue = [2, 0]", fillcolor="#e58139"] ;
327 -> 328 ;
329 [label="gini = 0.0\nsamples = 2\nvalue = [0, 2]", fillcolor="#399de5"] ;
327 -> 329 ;
330 [label="income <= 0.14\ngini = 0.19\nsamples = 35\nvalue = [6, 50]", fillcolor="#51a9e8"] ;
322 -> 330 ;
331 [label="time <= 0.44\ngini = 0.16\nsamples = 28\nvalue = [4, 42]", fillcolor="#4ca6e7"] ;
330 -> 331 ;
332 [label="gini = 0.0\nsamples = 9\nvalue = [0, 18]", fillcolor="#399de5"] ;
331 -> 332 ;
333 [label="memb_leng <= -1.14\ngini = 0.24\nsamples = 19\nvalue = [4, 24]", fillcolor="#5aade9"] ;
331 -> 333 ;
334 [label="income <= -0.11\ngini = 0.08\nsamples = 15\nvalue = [1, 22]", fillcolor="#42a1e6"] ;
333 -> 334 ;
335 [label="gini = 0.0\nsamples = 10\nvalue = [0, 17]", fillcolor="#399de5"] ;
334 -> 335 ;
336 [label="income <= -0.04\ngini = 0.28\nsamples = 5\nvalue = [1, 5]", fillcolor="#61b1ea"] ;
334 -> 336 ;
337 [label="gini = 0.0\nsamples = 1\nvalue = [1, 0]", fillcolor="#e58139"] ;
336 -> 337 ;
338 [label="gini = 0.0\nsamples = 4\nvalue = [0, 5]", fillcolor="#399de5"] ;
336 -> 338 ;
339 [label="memb_leng <= -1.12\ngini = 0.48\nsamples = 4\nvalue = [3, 2]", fillcolor="#f6d5bd"] ;
333 -> 339 ;
340 [label="memb_leng <= -1.13\ngini = 0.38\nsamples = 3\nvalue = [3, 1]", fillcolor="#eeab7b"] ;
339 -> 340 ;
341 [label="income <= -0.13\ngini = 0.5\nsamples = 2\nvalue = [1, 1]", fillcolor="#ffffff"] ;
340 -> 341 ;
342 [label="gini = 0.0\nsamples = 1\nvalue = [1, 0]", fillcolor="#e58139"] ;
341 -> 342 ;
343 [label="gini = 0.0\nsamples = 1\nvalue = [0, 1]", fillcolor="#399de5"] ;
341 -> 343 ;
344 [label="gini = 0.0\nsamples = 1\nvalue = [2, 0]", fillcolor="#e58139"] ;
340 -> 344 ;
345 [label="gini = 0.0\nsamples = 1\nvalue = [0, 1]", fillcolor="#399de5"] ;
339 -> 345 ;
346 [label="income <= 0.19\ngini = 0.32\nsamples = 7\nvalue = [2, 8]", fillcolor="#6ab6ec"] ;
330 -> 346 ;
347 [label="age <= 0.09\ngini = 0.44\nsamples = 4\nvalue = [2, 4]", fillcolor="#9ccef2"] ;
346 -> 347 ;
348 [label="gini = 0.0\nsamples = 1\nvalue = [0, 2]", fillcolor="#399de5"] ;
347 -> 348 ;
349 [label="memb_leng <= -1.18\ngini = 0.5\nsamples = 3\nvalue = [2, 2]", fillcolor="#ffffff"] ;
347 -> 349 ;
350 [label="gini = 0.0\nsamples = 1\nvalue = [1, 0]", fillcolor="#e58139"] ;
349 -> 350 ;
351 [label="time <= 0.44\ngini = 0.44\nsamples = 2\nvalue = [1, 2]", fillcolor="#9ccef2"] ;
349 -> 351 ;
352 [label="gini = 0.0\nsamples = 1\nvalue = [0, 2]", fillcolor="#399de5"] ;
351 -> 352 ;
353 [label="gini = 0.0\nsamples = 1\nvalue = [1, 0]", fillcolor="#e58139"] ;
351 -> 353 ;
354 [label="gini = 0.0\nsamples = 3\nvalue = [0, 4]", fillcolor="#399de5"] ;
346 -> 354 ;
355 [label="memb_leng <= -1.11\ngini = 0.41\nsamples = 4\nvalue = [5, 2]", fillcolor="#efb388"] ;
321 -> 355 ;
356 [label="gini = 0.0\nsamples = 1\nvalue = [2, 0]", fillcolor="#e58139"] ;
355 -> 356 ;
357 [label="income <= -0.23\ngini = 0.48\nsamples = 3\nvalue = [3, 2]", fillcolor="#f6d5bd"] ;
355 -> 357 ;
358 [label="gini = 0.0\nsamples = 2\nvalue = [0, 2]", fillcolor="#399de5"] ;
357 -> 358 ;
359 [label="gini = 0.0\nsamples = 1\nvalue = [3, 0]", fillcolor="#e58139"] ;
357 -> 359 ;
360 [label="memb_leng <= -0.43\ngini = 0.16\nsamples = 302\nvalue = [42, 428]", fillcolor="#4ca7e8"] ;
320 -> 360 ;
361 [label="memb_leng <= -0.43\ngini = 0.19\nsamples = 261\nvalue = [41, 353]", fillcolor="#50a8e8"] ;
360 -> 361 ;
362 [label="age <= 1.99\ngini = 0.18\nsamples = 259\nvalue = [39, 352]", fillcolor="#4fa8e8"] ;
361 -> 362 ;
363 [label="time <= 0.15\ngini = 0.17\nsamples = 252\nvalue = [35, 345]", fillcolor="#4da7e8"] ;
362 -> 363 ;
364 [label="memb_leng <= -0.44\ngini = 0.25\nsamples = 43\nvalue = [10, 57]", fillcolor="#5caeea"] ;
363 -> 364 ;
365 [label="memb_leng <= -0.82\ngini = 0.24\nsamples = 42\nvalue = [9, 57]", fillcolor="#58ace9"] ;
364 -> 365 ;
366 [label="memb_leng <= -0.87\ngini = 0.38\nsamples = 17\nvalue = [7, 21]", fillcolor="#7bbeee"] ;
365 -> 366 ;
367 [label="income <= -0.57\ngini = 0.17\nsamples = 14\nvalue = [2, 19]", fillcolor="#4ea7e8"] ;
366 -> 367 ;
368 [label="gini = 0.0\nsamples = 1\nvalue = [1, 0]", fillcolor="#e58139"] ;
367 -> 368 ;
369 [label="age <= -0.14\ngini = 0.09\nsamples = 13\nvalue = [1, 19]", fillcolor="#43a2e6"] ;
367 -> 369 ;
370 [label="memb_leng <= -1.01\ngini = 0.24\nsamples = 6\nvalue = [1, 6]", fillcolor="#5aade9"] ;
369 -> 370 ;
371 [label="age <= -0.45\ngini = 0.44\nsamples = 2\nvalue = [1, 2]", fillcolor="#9ccef2"] ;
370 -> 371 ;
372 [label="gini = 0.0\nsamples = 1\nvalue = [0, 2]", fillcolor="#399de5"] ;
371 -> 372 ;
373 [label="gini = 0.0\nsamples = 1\nvalue = [1, 0]", fillcolor="#e58139"] ;
371 -> 373 ;
374 [label="gini = 0.0\nsamples = 4\nvalue = [0, 4]", fillcolor="#399de5"] ;
370 -> 374 ;
375 [label="gini = 0.0\nsamples = 7\nvalue = [0, 13]", fillcolor="#399de5"] ;
369 -> 375 ;
376 [label="income <= -0.34\ngini = 0.41\nsamples = 3\nvalue = [5, 2]", fillcolor="#efb388"] ;
366 -> 376 ;
377 [label="gini = 0.0\nsamples = 1\nvalue = [0, 2]", fillcolor="#399de5"] ;
376 -> 377 ;
378 [label="gini = 0.0\nsamples = 2\nvalue = [5, 0]", fillcolor="#e58139"] ;
376 -> 378 ;
379 [label="age <= -1.83\ngini = 0.1\nsamples = 25\nvalue = [2, 36]", fillcolor="#44a2e6"] ;
365 -> 379 ;
380 [label="gini = 0.0\nsamples = 1\nvalue = [1, 0]", fillcolor="#e58139"] ;
379 -> 380 ;
381 [label="income <= -0.23\ngini = 0.05\nsamples = 24\nvalue = [1, 36]", fillcolor="#3ea0e6"] ;
379 -> 381 ;
382 [label="gini = 0.0\nsamples = 11\nvalue = [0, 18]", fillcolor="#399de5"] ;
381 -> 382 ;
383 [label="memb_leng <= -0.73\ngini = 0.1\nsamples = 13\nvalue = [1, 18]", fillcolor="#44a2e6"] ;
381 -> 383 ;
384 [label="income <= -0.16\ngini = 0.32\nsamples = 4\nvalue = [1, 4]", fillcolor="#6ab6ec"] ;
383 -> 384 ;
385 [label="gini = 0.0\nsamples = 1\nvalue = [1, 0]", fillcolor="#e58139"] ;
384 -> 385 ;
386 [label="gini = 0.0\nsamples = 3\nvalue = [0, 4]", fillcolor="#399de5"] ;
384 -> 386 ;
387 [label="gini = 0.0\nsamples = 9\nvalue = [0, 14]", fillcolor="#399de5"] ;
383 -> 387 ;
388 [label="gini = 0.0\nsamples = 1\nvalue = [1, 0]", fillcolor="#e58139"] ;
364 -> 388 ;
389 [label="memb_leng <= -0.47\ngini = 0.15\nsamples = 209\nvalue = [25, 288]", fillcolor="#4aa6e7"] ;
363 -> 389 ;
390 [label="time <= 0.44\ngini = 0.16\nsamples = 194\nvalue = [25, 263]", fillcolor="#4ca6e7"] ;
389 -> 390 ;
391 [label="income <= -0.32\ngini = 0.2\nsamples = 44\nvalue = [8, 61]", fillcolor="#53aae8"] ;
390 -> 391 ;
392 [label="age <= -0.48\ngini = 0.12\nsamples = 19\nvalue = [2, 28]", fillcolor="#47a4e7"] ;
391 -> 392 ;
393 [label="gini = 0.0\nsamples = 11\nvalue = [0, 19]", fillcolor="#399de5"] ;
392 -> 393 ;
394 [label="age <= -0.25\ngini = 0.3\nsamples = 8\nvalue = [2, 9]", fillcolor="#65b3eb"] ;
392 -> 394 ;
395 [label="gini = 0.0\nsamples = 1\nvalue = [1, 0]", fillcolor="#e58139"] ;
394 -> 395 ;
396 [label="age <= 0.61\ngini = 0.18\nsamples = 7\nvalue = [1, 9]", fillcolor="#4fa8e8"] ;
394 -> 396 ;
397 [label="gini = 0.0\nsamples = 4\nvalue = [0, 6]", fillcolor="#399de5"] ;
396 -> 397 ;
398 [label="age <= 0.7\ngini = 0.38\nsamples = 3\nvalue = [1, 3]", fillcolor="#7bbeee"] ;
396 -> 398 ;
399 [label="gini = 0.0\nsamples = 1\nvalue = [1, 0]", fillcolor="#e58139"] ;
398 -> 399 ;
400 [label="gini = 0.0\nsamples = 2\nvalue = [0, 3]", fillcolor="#399de5"] ;
398 -> 400 ;
401 [label="memb_leng <= -0.49\ngini = 0.26\nsamples = 25\nvalue = [6, 33]", fillcolor="#5dafea"] ;
391 -> 401 ;
402 [label="age <= -0.51\ngini = 0.19\nsamples = 23\nvalue = [4, 33]", fillcolor="#51a9e8"] ;
401 -> 402 ;
403 [label="gini = 0.0\nsamples = 11\nvalue = [0, 23]", fillcolor="#399de5"] ;
402 -> 403 ;
404 [label="age <= -0.22\ngini = 0.41\nsamples = 12\nvalue = [4, 10]", fillcolor="#88c4ef"] ;
402 -> 404 ;
405 [label="gini = 0.0\nsamples = 2\nvalue = [3, 0]", fillcolor="#e58139"] ;
404 -> 405 ;
406 [label="memb_leng <= -1.09\ngini = 0.17\nsamples = 10\nvalue = [1, 10]", fillcolor="#4da7e8"] ;
404 -> 406 ;
407 [label="gini = 0.0\nsamples = 1\nvalue = [1, 0]", fillcolor="#e58139"] ;
406 -> 407 ;
408 [label="gini = 0.0\nsamples = 9\nvalue = [0, 10]", fillcolor="#399de5"] ;
406 -> 408 ;
409 [label="gini = 0.0\nsamples = 2\nvalue = [2, 0]", fillcolor="#e58139"] ;
401 -> 409 ;
410 [label="memb_leng <= -0.65\ngini = 0.14\nsamples = 150\nvalue = [17, 202]", fillcolor="#4aa5e7"] ;
390 -> 410 ;
411 [label="age <= -2.06\ngini = 0.17\nsamples = 109\nvalue = [15, 140]", fillcolor="#4ea8e8"] ;
410 -> 411 ;
412 [label="time <= 0.73\ngini = 0.44\nsamples = 2\nvalue = [2, 1]", fillcolor="#f2c09c"] ;
411 -> 412 ;
413 [label="gini = 0.0\nsamples = 1\nvalue = [0, 1]", fillcolor="#399de5"] ;
412 -> 413 ;
414 [label="gini = 0.0\nsamples = 1\nvalue = [2, 0]", fillcolor="#e58139"] ;
412 -> 414 ;
415 [label="time <= 0.94\ngini = 0.16\nsamples = 107\nvalue = [13, 139]", fillcolor="#4ca6e7"] ;
411 -> 415 ;
416 [label="income <= -0.23\ngini = 0.14\nsamples = 76\nvalue = [8, 101]", fillcolor="#49a5e7"] ;
415 -> 416 ;
417 [label="income <= -0.5\ngini = 0.24\nsamples = 43\nvalue = [8, 48]", fillcolor="#5aade9"] ;
416 -> 417 ;
418 [label="age <= -0.11\ngini = 0.13\nsamples = 20\nvalue = [2, 26]", fillcolor="#48a5e7"] ;
417 -> 418 ;
419 [label="gini = 0.0\nsamples = 9\nvalue = [0, 11]", fillcolor="#399de5"] ;
418 -> 419 ;
420 [label="time <= 0.79\ngini = 0.21\nsamples = 11\nvalue = [2, 15]", fillcolor="#53aae8"] ;
418 -> 420 ;
421 [label="income <= -0.6\ngini = 0.12\nsamples = 9\nvalue = [1, 14]", fillcolor="#47a4e7"] ;
420 -> 421 ;
422 [label="age <= 0.87\ngini = 0.32\nsamples = 3\nvalue = [1, 4]", fillcolor="#6ab6ec"] ;
421 -> 422 ;
423 [label="gini = 0.0\nsamples = 1\nvalue = [0, 2]", fillcolor="#399de5"] ;
422 -> 423 ;
424 [label="age <= 1.42\ngini = 0.44\nsamples = 2\nvalue = [1, 2]", fillcolor="#9ccef2"] ;
422 -> 424 ;
425 [label="gini = 0.0\nsamples = 1\nvalue = [1, 0]", fillcolor="#e58139"] ;
424 -> 425 ;
426 [label="gini = 0.0\nsamples = 1\nvalue = [0, 2]", fillcolor="#399de5"] ;
424 -> 426 ;
427 [label="gini = 0.0\nsamples = 6\nvalue = [0, 10]", fillcolor="#399de5"] ;
421 -> 427 ;
428 [label="memb_leng <= -0.74\ngini = 0.5\nsamples = 2\nvalue = [1, 1]", fillcolor="#ffffff"] ;
420 -> 428 ;
429 [label="gini = 0.0\nsamples = 1\nvalue = [0, 1]", fillcolor="#399de5"] ;
428 -> 429 ;
430 [label="gini = 0.0\nsamples = 1\nvalue = [1, 0]", fillcolor="#e58139"] ;
428 -> 430 ;
431 [label="time <= 0.65\ngini = 0.34\nsamples = 23\nvalue = [6, 22]", fillcolor="#6fb8ec"] ;
417 -> 431 ;
432 [label="income <= -0.41\ngini = 0.5\nsamples = 7\nvalue = [4, 4]", fillcolor="#ffffff"] ;
431 -> 432 ;
433 [label="gini = 0.0\nsamples = 2\nvalue = [3, 0]", fillcolor="#e58139"] ;
432 -> 433 ;
434 [label="income <= -0.27\ngini = 0.32\nsamples = 5\nvalue = [1, 4]", fillcolor="#6ab6ec"] ;
432 -> 434 ;
435 [label="gini = 0.0\nsamples = 4\nvalue = [0, 4]", fillcolor="#399de5"] ;
434 -> 435 ;
436 [label="gini = 0.0\nsamples = 1\nvalue = [1, 0]", fillcolor="#e58139"] ;
434 -> 436 ;
437 [label="time <= 0.79\ngini = 0.18\nsamples = 16\nvalue = [2, 18]", fillcolor="#4fa8e8"] ;
431 -> 437 ;
438 [label="memb_leng <= -0.79\ngini = 0.15\nsamples = 8\nvalue = [1, 11]", fillcolor="#4ba6e7"] ;
437 -> 438 ;
439 [label="gini = 0.0\nsamples = 6\nvalue = [0, 10]", fillcolor="#399de5"] ;
438 -> 439 ;
440 [label="age <= -0.05\ngini = 0.5\nsamples = 2\nvalue = [1, 1]", fillcolor="#ffffff"] ;
438 -> 440 ;
441 [label="gini = 0.0\nsamples = 1\nvalue = [1, 0]", fillcolor="#e58139"] ;
440 -> 441 ;
442 [label="gini = 0.0\nsamples = 1\nvalue = [0, 1]", fillcolor="#399de5"] ;
440 -> 442 ;
443 [label="memb_leng <= -0.71\ngini = 0.22\nsamples = 8\nvalue = [1, 7]", fillcolor="#55abe9"] ;
437 -> 443 ;
444 [label="gini = 0.0\nsamples = 7\nvalue = [0, 7]", fillcolor="#399de5"] ;
443 -> 444 ;
445 [label="gini = 0.0\nsamples = 1\nvalue = [1, 0]", fillcolor="#e58139"] ;
443 -> 445 ;
446 [label="gini = 0.0\nsamples = 33\nvalue = [0, 53]", fillcolor="#399de5"] ;
416 -> 446 ;
447 [label="memb_leng <= -0.79\ngini = 0.21\nsamples = 31\nvalue = [5, 38]", fillcolor="#53aae8"] ;
415 -> 447 ;
448 [label="income <= -0.18\ngini = 0.28\nsamples = 23\nvalue = [5, 25]", fillcolor="#61b1ea"] ;
447 -> 448 ;
449 [label="income <= -0.41\ngini = 0.09\nsamples = 18\nvalue = [1, 21]", fillcolor="#42a2e6"] ;
448 -> 449 ;
450 [label="gini = 0.0\nsamples = 11\nvalue = [0, 13]", fillcolor="#399de5"] ;
449 -> 450 ;
451 [label="age <= 0.44\ngini = 0.2\nsamples = 7\nvalue = [1, 8]", fillcolor="#52a9e8"] ;
449 -> 451 ;
452 [label="gini = 0.0\nsamples = 4\nvalue = [0, 6]", fillcolor="#399de5"] ;
451 -> 452 ;
453 [label="income <= -0.34\ngini = 0.44\nsamples = 3\nvalue = [1, 2]", fillcolor="#9ccef2"] ;
451 -> 453 ;
454 [label="age <= 0.93\ngini = 0.5\nsamples = 2\nvalue = [1, 1]", fillcolor="#ffffff"] ;
453 -> 454 ;
455 [label="gini = 0.0\nsamples = 1\nvalue = [1, 0]", fillcolor="#e58139"] ;
454 -> 455 ;
456 [label="gini = 0.0\nsamples = 1\nvalue = [0, 1]", fillcolor="#399de5"] ;
454 -> 456 ;
457 [label="gini = 0.0\nsamples = 1\nvalue = [0, 1]", fillcolor="#399de5"] ;
453 -> 457 ;
458 [label="income <= 0.17\ngini = 0.5\nsamples = 5\nvalue = [4, 4]", fillcolor="#ffffff"] ;
448 -> 458 ;
459 [label="income <= -0.06\ngini = 0.44\nsamples = 4\nvalue = [4, 2]", fillcolor="#f2c09c"] ;
458 -> 459 ;
460 [label="memb_leng <= -0.9\ngini = 0.44\nsamples = 2\nvalue = [1, 2]", fillcolor="#9ccef2"] ;
459 -> 460 ;
461 [label="gini = 0.0\nsamples = 1\nvalue = [1, 0]", fillcolor="#e58139"] ;
460 -> 461 ;
462 [label="gini = 0.0\nsamples = 1\nvalue = [0, 2]", fillcolor="#399de5"] ;
460 -> 462 ;
463 [label="gini = 0.0\nsamples = 2\nvalue = [3, 0]", fillcolor="#e58139"] ;
459 -> 463 ;
464 [label="gini = 0.0\nsamples = 1\nvalue = [0, 2]", fillcolor="#399de5"] ;
458 -> 464 ;
465 [label="gini = 0.0\nsamples = 8\nvalue = [0, 13]", fillcolor="#399de5"] ;
447 -> 465 ;
466 [label="age <= -1.89\ngini = 0.06\nsamples = 41\nvalue = [2, 62]", fillcolor="#3fa0e6"] ;
410 -> 466 ;
467 [label="income <= -0.2\ngini = 0.48\nsamples = 3\nvalue = [2, 3]", fillcolor="#bddef6"] ;
466 -> 467 ;
468 [label="gini = 0.0\nsamples = 2\nvalue = [0, 3]", fillcolor="#399de5"] ;
467 -> 468 ;
469 [label="gini = 0.0\nsamples = 1\nvalue = [2, 0]", fillcolor="#e58139"] ;
467 -> 469 ;
470 [label="gini = 0.0\nsamples = 38\nvalue = [0, 59]", fillcolor="#399de5"] ;
466 -> 470 ;
471 [label="gini = 0.0\nsamples = 15\nvalue = [0, 25]", fillcolor="#399de5"] ;
389 -> 471 ;
472 [label="income <= -0.64\ngini = 0.46\nsamples = 7\nvalue = [4, 7]", fillcolor="#aad5f4"] ;
362 -> 472 ;
473 [label="gini = 0.0\nsamples = 1\nvalue = [1, 0]", fillcolor="#e58139"] ;
472 -> 473 ;
474 [label="time <= 0.44\ngini = 0.42\nsamples = 6\nvalue = [3, 7]", fillcolor="#8ec7f0"] ;
472 -> 474 ;
475 [label="gini = 0.0\nsamples = 2\nvalue = [0, 4]", fillcolor="#399de5"] ;
474 -> 475 ;
476 [label="time <= 0.79\ngini = 0.5\nsamples = 4\nvalue = [3, 3]", fillcolor="#ffffff"] ;
474 -> 476 ;
477 [label="income <= -0.57\ngini = 0.38\nsamples = 3\nvalue = [3, 1]", fillcolor="#eeab7b"] ;
476 -> 477 ;
478 [label="gini = 0.0\nsamples = 1\nvalue = [2, 0]", fillcolor="#e58139"] ;
477 -> 478 ;
479 [label="memb_leng <= -0.6\ngini = 0.5\nsamples = 2\nvalue = [1, 1]", fillcolor="#ffffff"] ;
477 -> 479 ;
480 [label="gini = 0.0\nsamples = 1\nvalue = [0, 1]", fillcolor="#399de5"] ;
479 -> 480 ;
481 [label="gini = 0.0\nsamples = 1\nvalue = [1, 0]", fillcolor="#e58139"] ;
479 -> 481 ;
482 [label="gini = 0.0\nsamples = 1\nvalue = [0, 2]", fillcolor="#399de5"] ;
476 -> 482 ;
483 [label="time <= 0.35\ngini = 0.44\nsamples = 2\nvalue = [2, 1]", fillcolor="#f2c09c"] ;
361 -> 483 ;
484 [label="gini = 0.0\nsamples = 1\nvalue = [0, 1]", fillcolor="#399de5"] ;
483 -> 484 ;
485 [label="gini = 0.0\nsamples = 1\nvalue = [2, 0]", fillcolor="#e58139"] ;
483 -> 485 ;
486 [label="age <= 0.41\ngini = 0.03\nsamples = 41\nvalue = [1, 75]", fillcolor="#3c9ee5"] ;
360 -> 486 ;
487 [label="gini = 0.0\nsamples = 31\nvalue = [0, 59]", fillcolor="#399de5"] ;
486 -> 487 ;
488 [label="time <= 0.79\ngini = 0.11\nsamples = 10\nvalue = [1, 16]", fillcolor="#45a3e7"] ;
486 -> 488 ;
489 [label="gini = 0.0\nsamples = 5\nvalue = [0, 8]", fillcolor="#399de5"] ;
488 -> 489 ;
490 [label="time <= 0.94\ngini = 0.2\nsamples = 5\nvalue = [1, 8]", fillcolor="#52a9e8"] ;
488 -> 490 ;
491 [label="income <= -0.02\ngini = 0.28\nsamples = 3\nvalue = [1, 5]", fillcolor="#61b1ea"] ;
490 -> 491 ;
492 [label="gini = 0.0\nsamples = 2\nvalue = [0, 5]", fillcolor="#399de5"] ;
491 -> 492 ;
493 [label="gini = 0.0\nsamples = 1\nvalue = [1, 0]", fillcolor="#e58139"] ;
491 -> 493 ;
494 [label="gini = 0.0\nsamples = 2\nvalue = [0, 3]", fillcolor="#399de5"] ;
490 -> 494 ;
495 [label="income <= -0.04\ngini = 0.28\nsamples = 236\nvalue = [61, 300]", fillcolor="#61b1ea"] ;
319 -> 495 ;
496 [label="memb_leng <= 0.36\ngini = 0.31\nsamples = 171\nvalue = [50, 214]", fillcolor="#67b4eb"] ;
495 -> 496 ;
497 [label="memb_leng <= 0.16\ngini = 0.46\nsamples = 49\nvalue = [28, 51]", fillcolor="#a6d3f3"] ;
496 -> 497 ;
498 [label="age <= 0.35\ngini = 0.4\nsamples = 36\nvalue = [15, 40]", fillcolor="#83c2ef"] ;
497 -> 498 ;
499 [label="age <= 0.12\ngini = 0.49\nsamples = 25\nvalue = [15, 21]", fillcolor="#c6e3f8"] ;
498 -> 499 ;
500 [label="age <= -1.08\ngini = 0.44\nsamples = 22\nvalue = [10, 21]", fillcolor="#97ccf1"] ;
499 -> 500 ;
501 [label="time <= 0.44\ngini = 0.28\nsamples = 8\nvalue = [2, 10]", fillcolor="#61b1ea"] ;
500 -> 501 ;
502 [label="age <= -1.57\ngini = 0.41\nsamples = 5\nvalue = [2, 5]", fillcolor="#88c4ef"] ;
501 -> 502 ;
503 [label="age <= -1.72\ngini = 0.5\nsamples = 3\nvalue = [2, 2]", fillcolor="#ffffff"] ;
502 -> 503 ;
504 [label="gini = 0.0\nsamples = 1\nvalue = [0, 1]", fillcolor="#399de5"] ;
503 -> 504 ;
505 [label="memb_leng <= -0.18\ngini = 0.44\nsamples = 2\nvalue = [2, 1]", fillcolor="#f2c09c"] ;
503 -> 505 ;
506 [label="gini = 0.0\nsamples = 1\nvalue = [0, 1]", fillcolor="#399de5"] ;
505 -> 506 ;
507 [label="gini = 0.0\nsamples = 1\nvalue = [2, 0]", fillcolor="#e58139"] ;
505 -> 507 ;
508 [label="gini = 0.0\nsamples = 2\nvalue = [0, 3]", fillcolor="#399de5"] ;
502 -> 508 ;
509 [label="gini = 0.0\nsamples = 3\nvalue = [0, 5]", fillcolor="#399de5"] ;
501 -> 509 ;
510 [label="income <= -0.6\ngini = 0.49\nsamples = 14\nvalue = [8, 11]", fillcolor="#c9e4f8"] ;
500 -> 510 ;
511 [label="time <= 0.94\ngini = 0.32\nsamples = 4\nvalue = [4, 1]", fillcolor="#eca06a"] ;
510 -> 511 ;
512 [label="gini = 0.0\nsamples = 3\nvalue = [4, 0]", fillcolor="#e58139"] ;
511 -> 512 ;
513 [label="gini = 0.0\nsamples = 1\nvalue = [0, 1]", fillcolor="#399de5"] ;
511 -> 513 ;
514 [label="time <= 0.44\ngini = 0.41\nsamples = 10\nvalue = [4, 10]", fillcolor="#88c4ef"] ;
510 -> 514 ;
515 [label="time <= 0.15\ngini = 0.44\nsamples = 3\nvalue = [2, 1]", fillcolor="#f2c09c"] ;
514 -> 515 ;
516 [label="memb_leng <= -0.05\ngini = 0.5\nsamples = 2\nvalue = [1, 1]", fillcolor="#ffffff"] ;
515 -> 516 ;
517 [label="gini = 0.0\nsamples = 1\nvalue = [0, 1]", fillcolor="#399de5"] ;
516 -> 517 ;
518 [label="gini = 0.0\nsamples = 1\nvalue = [1, 0]", fillcolor="#e58139"] ;
516 -> 518 ;
519 [label="gini = 0.0\nsamples = 1\nvalue = [1, 0]", fillcolor="#e58139"] ;
515 -> 519 ;
520 [label="time <= 0.79\ngini = 0.3\nsamples = 7\nvalue = [2, 9]", fillcolor="#65b3eb"] ;
514 -> 520 ;
521 [label="gini = 0.0\nsamples = 2\nvalue = [0, 3]", fillcolor="#399de5"] ;
520 -> 521 ;
522 [label="age <= -0.02\ngini = 0.38\nsamples = 5\nvalue = [2, 6]", fillcolor="#7bbeee"] ;
520 -> 522 ;
523 [label="income <= -0.39\ngini = 0.24\nsamples = 4\nvalue = [1, 6]", fillcolor="#5aade9"] ;
522 -> 523 ;
524 [label="memb_leng <= 0.03\ngini = 0.38\nsamples = 3\nvalue = [1, 3]", fillcolor="#7bbeee"] ;
523 -> 524 ;
525 [label="gini = 0.0\nsamples = 2\nvalue = [0, 3]", fillcolor="#399de5"] ;
524 -> 525 ;
526 [label="gini = 0.0\nsamples = 1\nvalue = [1, 0]", fillcolor="#e58139"] ;
524 -> 526 ;
527 [label="gini = 0.0\nsamples = 1\nvalue = [0, 3]", fillcolor="#399de5"] ;
523 -> 527 ;
528 [label="gini = 0.0\nsamples = 1\nvalue = [1, 0]", fillcolor="#e58139"] ;
522 -> 528 ;
529 [label="gini = 0.0\nsamples = 3\nvalue = [5, 0]", fillcolor="#e58139"] ;
499 -> 529 ;
530 [label="gini = 0.0\nsamples = 11\nvalue = [0, 19]", fillcolor="#399de5"] ;
498 -> 530 ;
531 [label="income <= -0.23\ngini = 0.5\nsamples = 13\nvalue = [13, 11]", fillcolor="#fbece1"] ;
497 -> 531 ;
532 [label="time <= 0.44\ngini = 0.43\nsamples = 8\nvalue = [4, 9]", fillcolor="#91c9f1"] ;
531 -> 532 ;
533 [label="memb_leng <= 0.29\ngini = 0.44\nsamples = 2\nvalue = [2, 1]", fillcolor="#f2c09c"] ;
532 -> 533 ;
534 [label="gini = 0.0\nsamples = 1\nvalue = [0, 1]", fillcolor="#399de5"] ;
533 -> 534 ;
535 [label="gini = 0.0\nsamples = 1\nvalue = [2, 0]", fillcolor="#e58139"] ;
533 -> 535 ;
536 [label="memb_leng <= 0.21\ngini = 0.32\nsamples = 6\nvalue = [2, 8]", fillcolor="#6ab6ec"] ;
532 -> 536 ;
537 [label="gini = 0.0\nsamples = 1\nvalue = [2, 0]", fillcolor="#e58139"] ;
536 -> 537 ;
538 [label="gini = 0.0\nsamples = 5\nvalue = [0, 8]", fillcolor="#399de5"] ;
536 -> 538 ;
539 [label="time <= 0.94\ngini = 0.3\nsamples = 5\nvalue = [9, 2]", fillcolor="#eb9d65"] ;
531 -> 539 ;
540 [label="gini = 0.0\nsamples = 4\nvalue = [9, 0]", fillcolor="#e58139"] ;
539 -> 540 ;
541 [label="gini = 0.0\nsamples = 1\nvalue = [0, 2]", fillcolor="#399de5"] ;
539 -> 541 ;
542 [label="time <= 0.79\ngini = 0.21\nsamples = 122\nvalue = [22, 163]", fillcolor="#54aae9"] ;
496 -> 542 ;
543 [label="age <= 1.82\ngini = 0.27\nsamples = 85\nvalue = [21, 109]", fillcolor="#5fb0ea"] ;
542 -> 543 ;
544 [label="income <= -0.41\ngini = 0.25\nsamples = 84\nvalue = [19, 109]", fillcolor="#5caeea"] ;
543 -> 544 ;
545 [label="income <= -0.55\ngini = 0.18\nsamples = 43\nvalue = [7, 62]", fillcolor="#4fa8e8"] ;
544 -> 545 ;
546 [label="income <= -0.64\ngini = 0.3\nsamples = 21\nvalue = [6, 26]", fillcolor="#67b4eb"] ;
545 -> 546 ;
547 [label="age <= -0.97\ngini = 0.44\nsamples = 3\nvalue = [1, 2]", fillcolor="#9ccef2"] ;
546 -> 547 ;
548 [label="gini = 0.0\nsamples = 1\nvalue = [1, 0]", fillcolor="#e58139"] ;
547 -> 548 ;
549 [label="gini = 0.0\nsamples = 2\nvalue = [0, 2]", fillcolor="#399de5"] ;
547 -> 549 ;
550 [label="time <= 0.65\ngini = 0.29\nsamples = 18\nvalue = [5, 24]", fillcolor="#62b1ea"] ;
546 -> 550 ;
551 [label="time <= 0.44\ngini = 0.17\nsamples = 13\nvalue = [2, 19]", fillcolor="#4ea7e8"] ;
550 -> 551 ;
552 [label="gini = 0.0\nsamples = 6\nvalue = [0, 8]", fillcolor="#399de5"] ;
551 -> 552 ;
553 [label="memb_leng <= 2.08\ngini = 0.26\nsamples = 7\nvalue = [2, 11]", fillcolor="#5dafea"] ;
551 -> 553 ;
554 [label="age <= -0.28\ngini = 0.41\nsamples = 4\nvalue = [2, 5]", fillcolor="#88c4ef"] ;
553 -> 554 ;
555 [label="gini = 0.0\nsamples = 2\nvalue = [0, 3]", fillcolor="#399de5"] ;
554 -> 555 ;
556 [label="memb_leng <= 1.15\ngini = 0.5\nsamples = 2\nvalue = [2, 2]", fillcolor="#ffffff"] ;
554 -> 556 ;
557 [label="gini = 0.0\nsamples = 1\nvalue = [0, 2]", fillcolor="#399de5"] ;
556 -> 557 ;
558 [label="gini = 0.0\nsamples = 1\nvalue = [2, 0]", fillcolor="#e58139"] ;
556 -> 558 ;
559 [label="gini = 0.0\nsamples = 3\nvalue = [0, 6]", fillcolor="#399de5"] ;
553 -> 559 ;
560 [label="age <= 0.18\ngini = 0.47\nsamples = 5\nvalue = [3, 5]", fillcolor="#b0d8f5"] ;
550 -> 560 ;
561 [label="income <= -0.6\ngini = 0.28\nsamples = 4\nvalue = [1, 5]", fillcolor="#61b1ea"] ;
560 -> 561 ;
562 [label="gini = 0.0\nsamples = 1\nvalue = [0, 1]", fillcolor="#399de5"] ;
561 -> 562 ;
563 [label="age <= -0.62\ngini = 0.32\nsamples = 3\nvalue = [1, 4]", fillcolor="#6ab6ec"] ;
561 -> 563 ;
564 [label="gini = 0.0\nsamples = 1\nvalue = [0, 2]", fillcolor="#399de5"] ;
563 -> 564 ;
565 [label="memb_leng <= 1.21\ngini = 0.44\nsamples = 2\nvalue = [1, 2]", fillcolor="#9ccef2"] ;
563 -> 565 ;
566 [label="gini = 0.0\nsamples = 1\nvalue = [0, 2]", fillcolor="#399de5"] ;
565 -> 566 ;
567 [label="gini = 0.0\nsamples = 1\nvalue = [1, 0]", fillcolor="#e58139"] ;
565 -> 567 ;
568 [label="gini = 0.0\nsamples = 1\nvalue = [2, 0]", fillcolor="#e58139"] ;
560 -> 568 ;
569 [label="age <= -0.34\ngini = 0.05\nsamples = 22\nvalue = [1, 36]", fillcolor="#3ea0e6"] ;
545 -> 569 ;
570 [label="age <= -0.71\ngini = 0.17\nsamples = 7\nvalue = [1, 10]", fillcolor="#4da7e8"] ;
569 -> 570 ;
571 [label="gini = 0.0\nsamples = 6\nvalue = [0, 10]", fillcolor="#399de5"] ;
570 -> 571 ;
572 [label="gini = 0.0\nsamples = 1\nvalue = [1, 0]", fillcolor="#e58139"] ;
570 -> 572 ;
573 [label="gini = 0.0\nsamples = 15\nvalue = [0, 26]", fillcolor="#399de5"] ;
569 -> 573 ;
574 [label="time <= 0.65\ngini = 0.32\nsamples = 41\nvalue = [12, 47]", fillcolor="#6cb6ec"] ;
544 -> 574 ;
575 [label="income <= -0.32\ngini = 0.25\nsamples = 28\nvalue = [6, 35]", fillcolor="#5baee9"] ;
574 -> 575 ;
576 [label="age <= -1.29\ngini = 0.44\nsamples = 9\nvalue = [4, 8]", fillcolor="#9ccef2"] ;
575 -> 576 ;
577 [label="gini = 0.0\nsamples = 1\nvalue = [2, 0]", fillcolor="#e58139"] ;
576 -> 577 ;
578 [label="memb_leng <= 2.22\ngini = 0.32\nsamples = 8\nvalue = [2, 8]", fillcolor="#6ab6ec"] ;
576 -> 578 ;
579 [label="gini = 0.0\nsamples = 5\nvalue = [0, 6]", fillcolor="#399de5"] ;
578 -> 579 ;
580 [label="time <= 0.15\ngini = 0.5\nsamples = 3\nvalue = [2, 2]", fillcolor="#ffffff"] ;
578 -> 580 ;
581 [label="gini = 0.0\nsamples = 1\nvalue = [0, 1]", fillcolor="#399de5"] ;
580 -> 581 ;
582 [label="age <= 0.75\ngini = 0.44\nsamples = 2\nvalue = [2, 1]", fillcolor="#f2c09c"] ;
580 -> 582 ;
583 [label="gini = 0.0\nsamples = 1\nvalue = [2, 0]", fillcolor="#e58139"] ;
582 -> 583 ;
584 [label="gini = 0.0\nsamples = 1\nvalue = [0, 1]", fillcolor="#399de5"] ;
582 -> 584 ;
585 [label="income <= -0.18\ngini = 0.13\nsamples = 19\nvalue = [2, 27]", fillcolor="#48a4e7"] ;
575 -> 585 ;
586 [label="gini = 0.0\nsamples = 9\nvalue = [0, 14]", fillcolor="#399de5"] ;
585 -> 586 ;
587 [label="income <= -0.13\ngini = 0.23\nsamples = 10\nvalue = [2, 13]", fillcolor="#57ace9"] ;
585 -> 587 ;
588 [label="time <= 0.44\ngini = 0.32\nsamples = 6\nvalue = [2, 8]", fillcolor="#6ab6ec"] ;
587 -> 588 ;
589 [label="gini = 0.0\nsamples = 4\nvalue = [0, 8]", fillcolor="#399de5"] ;
588 -> 589 ;
590 [label="gini = 0.0\nsamples = 2\nvalue = [2, 0]", fillcolor="#e58139"] ;
588 -> 590 ;
591 [label="gini = 0.0\nsamples = 4\nvalue = [0, 5]", fillcolor="#399de5"] ;
587 -> 591 ;
592 [label="memb_leng <= 1.52\ngini = 0.44\nsamples = 13\nvalue = [6, 12]", fillcolor="#9ccef2"] ;
574 -> 592 ;
593 [label="income <= -0.36\ngini = 0.22\nsamples = 6\nvalue = [1, 7]", fillcolor="#55abe9"] ;
592 -> 593 ;
594 [label="age <= -0.16\ngini = 0.5\nsamples = 2\nvalue = [1, 1]", fillcolor="#ffffff"] ;
593 -> 594 ;
595 [label="gini = 0.0\nsamples = 1\nvalue = [0, 1]", fillcolor="#399de5"] ;
594 -> 595 ;
596 [label="gini = 0.0\nsamples = 1\nvalue = [1, 0]", fillcolor="#e58139"] ;
594 -> 596 ;
597 [label="gini = 0.0\nsamples = 4\nvalue = [0, 6]", fillcolor="#399de5"] ;
593 -> 597 ;
598 [label="income <= -0.32\ngini = 0.5\nsamples = 7\nvalue = [5, 5]", fillcolor="#ffffff"] ;
592 -> 598 ;
599 [label="gini = 0.0\nsamples = 2\nvalue = [4, 0]", fillcolor="#e58139"] ;
598 -> 599 ;
600 [label="age <= -1.14\ngini = 0.28\nsamples = 5\nvalue = [1, 5]", fillcolor="#61b1ea"] ;
598 -> 600 ;
601 [label="gini = 0.0\nsamples = 1\nvalue = [1, 0]", fillcolor="#e58139"] ;
600 -> 601 ;
602 [label="gini = 0.0\nsamples = 4\nvalue = [0, 5]", fillcolor="#399de5"] ;
600 -> 602 ;
603 [label="gini = 0.0\nsamples = 1\nvalue = [2, 0]", fillcolor="#e58139"] ;
543 -> 603 ;
604 [label="age <= -1.31\ngini = 0.04\nsamples = 37\nvalue = [1, 54]", fillcolor="#3d9fe5"] ;
542 -> 604 ;
605 [label="time <= 0.94\ngini = 0.38\nsamples = 4\nvalue = [1, 3]", fillcolor="#7bbeee"] ;
604 -> 605 ;
606 [label="age <= -1.46\ngini = 0.5\nsamples = 2\nvalue = [1, 1]", fillcolor="#ffffff"] ;
605 -> 606 ;
607 [label="gini = 0.0\nsamples = 1\nvalue = [0, 1]", fillcolor="#399de5"] ;
606 -> 607 ;
608 [label="gini = 0.0\nsamples = 1\nvalue = [1, 0]", fillcolor="#e58139"] ;
606 -> 608 ;
609 [label="gini = 0.0\nsamples = 2\nvalue = [0, 2]", fillcolor="#399de5"] ;
605 -> 609 ;
610 [label="gini = 0.0\nsamples = 33\nvalue = [0, 51]", fillcolor="#399de5"] ;
604 -> 610 ;
611 [label="memb_leng <= -0.23\ngini = 0.2\nsamples = 65\nvalue = [11, 86]", fillcolor="#52aae8"] ;
495 -> 611 ;
612 [label="gini = 0.0\nsamples = 1\nvalue = [2, 0]", fillcolor="#e58139"] ;
611 -> 612 ;
613 [label="time <= 0.94\ngini = 0.17\nsamples = 64\nvalue = [9, 86]", fillcolor="#4ea7e8"] ;
611 -> 613 ;
614 [label="age <= -0.05\ngini = 0.14\nsamples = 46\nvalue = [5, 60]", fillcolor="#49a5e7"] ;
613 -> 614 ;
615 [label="income <= 0.01\ngini = 0.06\nsamples = 22\nvalue = [1, 32]", fillcolor="#3fa0e6"] ;
614 -> 615 ;
616 [label="memb_leng <= 1.9\ngini = 0.44\nsamples = 3\nvalue = [1, 2]", fillcolor="#9ccef2"] ;
615 -> 616 ;
617 [label="gini = 0.0\nsamples = 2\nvalue = [0, 2]", fillcolor="#399de5"] ;
616 -> 617 ;
618 [label="gini = 0.0\nsamples = 1\nvalue = [1, 0]", fillcolor="#e58139"] ;
616 -> 618 ;
619 [label="gini = 0.0\nsamples = 19\nvalue = [0, 30]", fillcolor="#399de5"] ;
615 -> 619 ;
620 [label="memb_leng <= 0.94\ngini = 0.22\nsamples = 24\nvalue = [4, 28]", fillcolor="#55abe9"] ;
614 -> 620 ;
621 [label="gini = 0.0\nsamples = 8\nvalue = [0, 9]", fillcolor="#399de5"] ;
620 -> 621 ;
622 [label="income <= 0.19\ngini = 0.29\nsamples = 16\nvalue = [4, 19]", fillcolor="#63b2ea"] ;
620 -> 622 ;
623 [label="time <= 0.15\ngini = 0.35\nsamples = 13\nvalue = [4, 14]", fillcolor="#72b9ec"] ;
622 -> 623 ;
624 [label="gini = 0.0\nsamples = 1\nvalue = [1, 0]", fillcolor="#e58139"] ;
623 -> 624 ;
625 [label="age <= 0.78\ngini = 0.29\nsamples = 12\nvalue = [3, 14]", fillcolor="#63b2eb"] ;
623 -> 625 ;
626 [label="memb_leng <= 1.02\ngini = 0.42\nsamples = 7\nvalue = [3, 7]", fillcolor="#8ec7f0"] ;
625 -> 626 ;
627 [label="gini = 0.0\nsamples = 1\nvalue = [1, 0]", fillcolor="#e58139"] ;
626 -> 627 ;
628 [label="memb_leng <= 1.18\ngini = 0.35\nsamples = 6\nvalue = [2, 7]", fillcolor="#72b9ec"] ;
626 -> 628 ;
629 [label="gini = 0.0\nsamples = 2\nvalue = [0, 4]", fillcolor="#399de5"] ;
628 -> 629 ;
630 [label="income <= 0.1\ngini = 0.48\nsamples = 4\nvalue = [2, 3]", fillcolor="#bddef6"] ;
628 -> 630 ;
631 [label="age <= 0.32\ngini = 0.38\nsamples = 3\nvalue = [1, 3]", fillcolor="#7bbeee"] ;
630 -> 631 ;
632 [label="gini = 0.0\nsamples = 2\nvalue = [0, 3]", fillcolor="#399de5"] ;
631 -> 632 ;
633 [label="gini = 0.0\nsamples = 1\nvalue = [1, 0]", fillcolor="#e58139"] ;
631 -> 633 ;
634 [label="gini = 0.0\nsamples = 1\nvalue = [1, 0]", fillcolor="#e58139"] ;
630 -> 634 ;
635 [label="gini = 0.0\nsamples = 5\nvalue = [0, 7]", fillcolor="#399de5"] ;
625 -> 635 ;
636 [label="gini = 0.0\nsamples = 3\nvalue = [0, 5]", fillcolor="#399de5"] ;
622 -> 636 ;
637 [label="income <= 0.1\ngini = 0.23\nsamples = 18\nvalue = [4, 26]", fillcolor="#57ace9"] ;
613 -> 637 ;
638 [label="gini = 0.0\nsamples = 13\nvalue = [0, 21]", fillcolor="#399de5"] ;
637 -> 638 ;
639 [label="age <= -0.39\ngini = 0.49\nsamples = 5\nvalue = [4, 5]", fillcolor="#d7ebfa"] ;
637 -> 639 ;
640 [label="gini = 0.0\nsamples = 1\nvalue = [0, 3]", fillcolor="#399de5"] ;
639 -> 640 ;
641 [label="income <= 0.14\ngini = 0.44\nsamples = 4\nvalue = [4, 2]", fillcolor="#f2c09c"] ;
639 -> 641 ;
642 [label="memb_leng <= 0.49\ngini = 0.44\nsamples = 2\nvalue = [2, 1]", fillcolor="#f2c09c"] ;
641 -> 642 ;
643 [label="gini = 0.0\nsamples = 1\nvalue = [0, 1]", fillcolor="#399de5"] ;
642 -> 643 ;
644 [label="gini = 0.0\nsamples = 1\nvalue = [2, 0]", fillcolor="#e58139"] ;
642 -> 644 ;
645 [label="age <= 1.07\ngini = 0.44\nsamples = 2\nvalue = [2, 1]", fillcolor="#f2c09c"] ;
641 -> 645 ;
646 [label="gini = 0.0\nsamples = 1\nvalue = [0, 1]", fillcolor="#399de5"] ;
645 -> 646 ;
647 [label="gini = 0.0\nsamples = 1\nvalue = [2, 0]", fillcolor="#e58139"] ;
645 -> 647 ;
648 [label="memb_leng <= 2.92\ngini = 0.2\nsamples = 611\nvalue = [107, 833]", fillcolor="#52aae8"] ;
4 -> 648 ;
649 [label="income <= 0.1\ngini = 0.2\nsamples = 606\nvalue = [103, 830]", fillcolor="#52a9e8"] ;
648 -> 649 ;
650 [label="time <= 0.94\ngini = 0.18\nsamples = 549\nvalue = [84, 762]", fillcolor="#4fa8e8"] ;
649 -> 650 ;
651 [label="time <= 0.65\ngini = 0.19\nsamples = 454\nvalue = [75, 630]", fillcolor="#51a9e8"] ;
650 -> 651 ;
652 [label="age <= 1.88\ngini = 0.17\nsamples = 265\nvalue = [37, 354]", fillcolor="#4ea7e8"] ;
651 -> 652 ;
653 [label="age <= -1.26\ngini = 0.16\nsamples = 255\nvalue = [34, 345]", fillcolor="#4da7e8"] ;
652 -> 653 ;
654 [label="time <= 0.15\ngini = 0.24\nsamples = 50\nvalue = [11, 69]", fillcolor="#59ade9"] ;
653 -> 654 ;
655 [label="age <= -1.37\ngini = 0.16\nsamples = 18\nvalue = [3, 32]", fillcolor="#4ca6e7"] ;
654 -> 655 ;
656 [label="age <= -1.95\ngini = 0.07\nsamples = 14\nvalue = [1, 25]", fillcolor="#41a1e6"] ;
655 -> 656 ;
657 [label="memb_leng <= -0.68\ngini = 0.2\nsamples = 5\nvalue = [1, 8]", fillcolor="#52a9e8"] ;
656 -> 657 ;
658 [label="gini = 0.0\nsamples = 2\nvalue = [0, 4]", fillcolor="#399de5"] ;
657 -> 658 ;
659 [label="memb_leng <= -0.51\ngini = 0.32\nsamples = 3\nvalue = [1, 4]", fillcolor="#6ab6ec"] ;
657 -> 659 ;
660 [label="gini = 0.0\nsamples = 1\nvalue = [1, 0]", fillcolor="#e58139"] ;
659 -> 660 ;
661 [label="gini = 0.0\nsamples = 2\nvalue = [0, 4]", fillcolor="#399de5"] ;
659 -> 661 ;
662 [label="gini = 0.0\nsamples = 9\nvalue = [0, 17]", fillcolor="#399de5"] ;
656 -> 662 ;
663 [label="income <= -1.17\ngini = 0.35\nsamples = 4\nvalue = [2, 7]", fillcolor="#72b9ec"] ;
655 -> 663 ;
664 [label="gini = 0.0\nsamples = 2\nvalue = [0, 5]", fillcolor="#399de5"] ;
663 -> 664 ;
665 [label="income <= -0.8\ngini = 0.5\nsamples = 2\nvalue = [2, 2]", fillcolor="#ffffff"] ;
663 -> 665 ;
666 [label="gini = 0.0\nsamples = 1\nvalue = [2, 0]", fillcolor="#e58139"] ;
665 -> 666 ;
667 [label="gini = 0.0\nsamples = 1\nvalue = [0, 2]", fillcolor="#399de5"] ;
665 -> 667 ;
668 [label="time <= 0.44\ngini = 0.29\nsamples = 32\nvalue = [8, 37]", fillcolor="#64b2eb"] ;
654 -> 668 ;
669 [label="age <= -1.54\ngini = 0.37\nsamples = 20\nvalue = [7, 22]", fillcolor="#78bced"] ;
668 -> 669 ;
670 [label="gini = 0.0\nsamples = 14\nvalue = [0, 18]", fillcolor="#399de5"] ;
669 -> 670 ;
671 [label="income <= -0.92\ngini = 0.46\nsamples = 6\nvalue = [7, 4]", fillcolor="#f4c9aa"] ;
669 -> 671 ;
672 [label="memb_leng <= 1.3\ngini = 0.49\nsamples = 4\nvalue = [3, 4]", fillcolor="#cee6f8"] ;
671 -> 672 ;
673 [label="income <= -1.38\ngini = 0.38\nsamples = 3\nvalue = [3, 1]", fillcolor="#eeab7b"] ;
672 -> 673 ;
674 [label="gini = 0.0\nsamples = 1\nvalue = [0, 1]", fillcolor="#399de5"] ;
673 -> 674 ;
675 [label="gini = 0.0\nsamples = 2\nvalue = [3, 0]", fillcolor="#e58139"] ;
673 -> 675 ;
676 [label="gini = 0.0\nsamples = 1\nvalue = [0, 3]", fillcolor="#399de5"] ;
672 -> 676 ;
677 [label="gini = 0.0\nsamples = 2\nvalue = [4, 0]", fillcolor="#e58139"] ;
671 -> 677 ;
678 [label="income <= -1.43\ngini = 0.12\nsamples = 12\nvalue = [1, 15]", fillcolor="#46a4e7"] ;
668 -> 678 ;
679 [label="gini = 0.0\nsamples = 1\nvalue = [1, 0]", fillcolor="#e58139"] ;
678 -> 679 ;
680 [label="gini = 0.0\nsamples = 11\nvalue = [0, 15]", fillcolor="#399de5"] ;
678 -> 680 ;
681 [label="memb_leng <= -0.58\ngini = 0.14\nsamples = 205\nvalue = [23, 276]", fillcolor="#49a5e7"] ;
653 -> 681 ;
682 [label="age <= 0.12\ngini = 0.04\nsamples = 75\nvalue = [2, 103]", fillcolor="#3d9fe6"] ;
681 -> 682 ;
683 [label="gini = 0.0\nsamples = 44\nvalue = [0, 62]", fillcolor="#399de5"] ;
682 -> 683 ;
684 [label="income <= -0.69\ngini = 0.09\nsamples = 31\nvalue = [2, 41]", fillcolor="#43a2e6"] ;
682 -> 684 ;
685 [label="time <= 0.44\ngini = 0.35\nsamples = 9\nvalue = [2, 7]", fillcolor="#72b9ec"] ;
684 -> 685 ;
686 [label="income <= -0.92\ngini = 0.28\nsamples = 6\nvalue = [1, 5]", fillcolor="#61b1ea"] ;
685 -> 686 ;
687 [label="gini = 0.0\nsamples = 4\nvalue = [0, 4]", fillcolor="#399de5"] ;
686 -> 687 ;
688 [label="age <= 0.58\ngini = 0.5\nsamples = 2\nvalue = [1, 1]", fillcolor="#ffffff"] ;
686 -> 688 ;
689 [label="gini = 0.0\nsamples = 1\nvalue = [1, 0]", fillcolor="#e58139"] ;
688 -> 689 ;
690 [label="gini = 0.0\nsamples = 1\nvalue = [0, 1]", fillcolor="#399de5"] ;
688 -> 690 ;
691 [label="memb_leng <= -0.78\ngini = 0.44\nsamples = 3\nvalue = [1, 2]", fillcolor="#9ccef2"] ;
685 -> 691 ;
692 [label="gini = 0.0\nsamples = 1\nvalue = [1, 0]", fillcolor="#e58139"] ;
691 -> 692 ;
693 [label="gini = 0.0\nsamples = 2\nvalue = [0, 2]", fillcolor="#399de5"] ;
691 -> 693 ;
694 [label="gini = 0.0\nsamples = 22\nvalue = [0, 34]", fillcolor="#399de5"] ;
684 -> 694 ;
695 [label="age <= -0.57\ngini = 0.19\nsamples = 130\nvalue = [21, 173]", fillcolor="#51a9e8"] ;
681 -> 695 ;
696 [label="income <= -0.6\ngini = 0.04\nsamples = 29\nvalue = [1, 45]", fillcolor="#3d9fe6"] ;
695 -> 696 ;
697 [label="income <= -0.69\ngini = 0.1\nsamples = 11\nvalue = [1, 17]", fillcolor="#45a3e7"] ;
696 -> 697 ;
698 [label="gini = 0.0\nsamples = 9\nvalue = [0, 14]", fillcolor="#399de5"] ;
697 -> 698 ;
699 [label="time <= 0.15\ngini = 0.38\nsamples = 2\nvalue = [1, 3]", fillcolor="#7bbeee"] ;
697 -> 699 ;
700 [label="gini = 0.0\nsamples = 1\nvalue = [0, 3]", fillcolor="#399de5"] ;
699 -> 700 ;
701 [label="gini = 0.0\nsamples = 1\nvalue = [1, 0]", fillcolor="#e58139"] ;
699 -> 701 ;
702 [label="gini = 0.0\nsamples = 18\nvalue = [0, 28]", fillcolor="#399de5"] ;
696 -> 702 ;
703 [label="income <= -1.34\ngini = 0.23\nsamples = 101\nvalue = [20, 128]", fillcolor="#58ace9"] ;
695 -> 703 ;
704 [label="gini = 0.0\nsamples = 10\nvalue = [0, 16]", fillcolor="#399de5"] ;
703 -> 704 ;
705 [label="age <= -0.39\ngini = 0.26\nsamples = 91\nvalue = [20, 112]", fillcolor="#5caeea"] ;
703 -> 705 ;
706 [label="age <= -0.45\ngini = 0.47\nsamples = 7\nvalue = [5, 3]", fillcolor="#f5cdb0"] ;
705 -> 706 ;
707 [label="income <= -0.78\ngini = 0.5\nsamples = 3\nvalue = [2, 2]", fillcolor="#ffffff"] ;
706 -> 707 ;
708 [label="gini = 0.0\nsamples = 1\nvalue = [2, 0]", fillcolor="#e58139"] ;
707 -> 708 ;
709 [label="gini = 0.0\nsamples = 2\nvalue = [0, 2]", fillcolor="#399de5"] ;
707 -> 709 ;
710 [label="memb_leng <= -0.06\ngini = 0.38\nsamples = 4\nvalue = [3, 1]", fillcolor="#eeab7b"] ;
706 -> 710 ;
711 [label="gini = 0.0\nsamples = 2\nvalue = [2, 0]", fillcolor="#e58139"] ;
710 -> 711 ;
712 [label="income <= -0.09\ngini = 0.5\nsamples = 2\nvalue = [1, 1]", fillcolor="#ffffff"] ;
710 -> 712 ;
713 [label="gini = 0.0\nsamples = 1\nvalue = [1, 0]", fillcolor="#e58139"] ;
712 -> 713 ;
714 [label="gini = 0.0\nsamples = 1\nvalue = [0, 1]", fillcolor="#399de5"] ;
712 -> 714 ;
715 [label="age <= 0.29\ngini = 0.21\nsamples = 84\nvalue = [15, 109]", fillcolor="#54aae9"] ;
705 -> 715 ;
716 [label="income <= -0.94\ngini = 0.05\nsamples = 27\nvalue = [1, 39]", fillcolor="#3ea0e6"] ;
715 -> 716 ;
717 [label="time <= 0.15\ngini = 0.28\nsamples = 5\nvalue = [1, 5]", fillcolor="#61b1ea"] ;
716 -> 717 ;
718 [label="memb_leng <= -0.05\ngini = 0.5\nsamples = 2\nvalue = [1, 1]", fillcolor="#ffffff"] ;
717 -> 718 ;
719 [label="gini = 0.0\nsamples = 1\nvalue = [1, 0]", fillcolor="#e58139"] ;
718 -> 719 ;
720 [label="gini = 0.0\nsamples = 1\nvalue = [0, 1]", fillcolor="#399de5"] ;
718 -> 720 ;
721 [label="gini = 0.0\nsamples = 3\nvalue = [0, 4]", fillcolor="#399de5"] ;
717 -> 721 ;
722 [label="gini = 0.0\nsamples = 22\nvalue = [0, 34]", fillcolor="#399de5"] ;
716 -> 722 ;
723 [label="time <= 0.15\ngini = 0.28\nsamples = 57\nvalue = [14, 70]", fillcolor="#61b1ea"] ;
715 -> 723 ;
724 [label="age <= 1.39\ngini = 0.44\nsamples = 17\nvalue = [8, 17]", fillcolor="#96cbf1"] ;
723 -> 724 ;
725 [label="memb_leng <= -0.25\ngini = 0.5\nsamples = 11\nvalue = [8, 8]", fillcolor="#ffffff"] ;
724 -> 725 ;
726 [label="memb_leng <= -0.43\ngini = 0.32\nsamples = 3\nvalue = [4, 1]", fillcolor="#eca06a"] ;
725 -> 726 ;
727 [label="gini = 0.0\nsamples = 1\nvalue = [0, 1]", fillcolor="#399de5"] ;
726 -> 727 ;
728 [label="gini = 0.0\nsamples = 2\nvalue = [4, 0]", fillcolor="#e58139"] ;
726 -> 728 ;
729 [label="age <= 0.58\ngini = 0.46\nsamples = 8\nvalue = [4, 7]", fillcolor="#aad5f4"] ;
725 -> 729 ;
730 [label="age <= 0.47\ngini = 0.32\nsamples = 3\nvalue = [4, 1]", fillcolor="#eca06a"] ;
729 -> 730 ;
731 [label="age <= 0.38\ngini = 0.5\nsamples = 2\nvalue = [1, 1]", fillcolor="#ffffff"] ;
730 -> 731 ;
732 [label="gini = 0.0\nsamples = 1\nvalue = [1, 0]", fillcolor="#e58139"] ;
731 -> 732 ;
733 [label="gini = 0.0\nsamples = 1\nvalue = [0, 1]", fillcolor="#399de5"] ;
731 -> 733 ;
734 [label="gini = 0.0\nsamples = 1\nvalue = [3, 0]", fillcolor="#e58139"] ;
730 -> 734 ;
735 [label="gini = 0.0\nsamples = 5\nvalue = [0, 6]", fillcolor="#399de5"] ;
729 -> 735 ;
736 [label="gini = 0.0\nsamples = 6\nvalue = [0, 9]", fillcolor="#399de5"] ;
724 -> 736 ;
737 [label="memb_leng <= -0.52\ngini = 0.18\nsamples = 40\nvalue = [6, 53]", fillcolor="#4fa8e8"] ;
723 -> 737 ;
738 [label="gini = 0.0\nsamples = 1\nvalue = [1, 0]", fillcolor="#e58139"] ;
737 -> 738 ;
739 [label="income <= -0.64\ngini = 0.16\nsamples = 39\nvalue = [5, 53]", fillcolor="#4ca6e7"] ;
737 -> 739 ;
740 [label="time <= 0.44\ngini = 0.29\nsamples = 14\nvalue = [4, 19]", fillcolor="#63b2ea"] ;
739 -> 740 ;
741 [label="memb_leng <= -0.4\ngini = 0.17\nsamples = 7\nvalue = [1, 10]", fillcolor="#4da7e8"] ;
740 -> 741 ;
742 [label="gini = 0.0\nsamples = 1\nvalue = [1, 0]", fillcolor="#e58139"] ;
741 -> 742 ;
743 [label="gini = 0.0\nsamples = 6\nvalue = [0, 10]", fillcolor="#399de5"] ;
741 -> 743 ;
744 [label="age <= 0.41\ngini = 0.38\nsamples = 7\nvalue = [3, 9]", fillcolor="#7bbeee"] ;
740 -> 744 ;
745 [label="income <= -0.69\ngini = 0.38\nsamples = 2\nvalue = [3, 1]", fillcolor="#eeab7b"] ;
744 -> 745 ;
746 [label="gini = 0.0\nsamples = 1\nvalue = [0, 1]", fillcolor="#399de5"] ;
745 -> 746 ;
747 [label="gini = 0.0\nsamples = 1\nvalue = [3, 0]", fillcolor="#e58139"] ;
745 -> 747 ;
748 [label="gini = 0.0\nsamples = 5\nvalue = [0, 8]", fillcolor="#399de5"] ;
744 -> 748 ;
749 [label="memb_leng <= 0.24\ngini = 0.06\nsamples = 25\nvalue = [1, 34]", fillcolor="#3fa0e6"] ;
739 -> 749 ;
750 [label="time <= 0.44\ngini = 0.15\nsamples = 9\nvalue = [1, 11]", fillcolor="#4ba6e7"] ;
749 -> 750 ;
751 [label="age <= 0.64\ngini = 0.22\nsamples = 6\nvalue = [1, 7]", fillcolor="#55abe9"] ;
750 -> 751 ;
752 [label="income <= -0.09\ngini = 0.38\nsamples = 4\nvalue = [1, 3]", fillcolor="#7bbeee"] ;
751 -> 752 ;
753 [label="gini = 0.0\nsamples = 2\nvalue = [0, 2]", fillcolor="#399de5"] ;
752 -> 753 ;
754 [label="age <= 0.58\ngini = 0.5\nsamples = 2\nvalue = [1, 1]", fillcolor="#ffffff"] ;
752 -> 754 ;
755 [label="gini = 0.0\nsamples = 1\nvalue = [0, 1]", fillcolor="#399de5"] ;
754 -> 755 ;
756 [label="gini = 0.0\nsamples = 1\nvalue = [1, 0]", fillcolor="#e58139"] ;
754 -> 756 ;
757 [label="gini = 0.0\nsamples = 2\nvalue = [0, 4]", fillcolor="#399de5"] ;
751 -> 757 ;
758 [label="gini = 0.0\nsamples = 3\nvalue = [0, 4]", fillcolor="#399de5"] ;
750 -> 758 ;
759 [label="gini = 0.0\nsamples = 16\nvalue = [0, 23]", fillcolor="#399de5"] ;
749 -> 759 ;
760 [label="memb_leng <= -0.81\ngini = 0.38\nsamples = 10\nvalue = [3, 9]", fillcolor="#7bbeee"] ;
652 -> 760 ;
761 [label="gini = 0.0\nsamples = 2\nvalue = [3, 0]", fillcolor="#e58139"] ;
760 -> 761 ;
762 [label="gini = 0.0\nsamples = 8\nvalue = [0, 9]", fillcolor="#399de5"] ;
760 -> 762 ;
763 [label="memb_leng <= 1.36\ngini = 0.21\nsamples = 189\nvalue = [38, 276]", fillcolor="#54aae9"] ;
651 -> 763 ;
764 [label="income <= -0.36\ngini = 0.2\nsamples = 183\nvalue = [34, 270]", fillcolor="#52a9e8"] ;
763 -> 764 ;
765 [label="time <= 0.79\ngini = 0.26\nsamples = 112\nvalue = [28, 155]", fillcolor="#5dafea"] ;
764 -> 765 ;
766 [label="memb_leng <= -1.08\ngini = 0.28\nsamples = 52\nvalue = [14, 68]", fillcolor="#62b1ea"] ;
765 -> 766 ;
767 [label="gini = 0.0\nsamples = 1\nvalue = [1, 0]", fillcolor="#e58139"] ;
766 -> 767 ;
768 [label="age <= 0.5\ngini = 0.27\nsamples = 51\nvalue = [13, 68]", fillcolor="#5fb0ea"] ;
766 -> 768 ;
769 [label="age <= -0.34\ngini = 0.22\nsamples = 36\nvalue = [7, 50]", fillcolor="#55abe9"] ;
768 -> 769 ;
770 [label="age <= -0.42\ngini = 0.33\nsamples = 23\nvalue = [7, 27]", fillcolor="#6cb6ec"] ;
769 -> 770 ;
771 [label="age <= -0.94\ngini = 0.3\nsamples = 22\nvalue = [6, 27]", fillcolor="#65b3eb"] ;
770 -> 771 ;
772 [label="age <= -1.03\ngini = 0.39\nsamples = 13\nvalue = [5, 14]", fillcolor="#80c0ee"] ;
771 -> 772 ;
773 [label="memb_leng <= 0.58\ngini = 0.29\nsamples = 12\nvalue = [3, 14]", fillcolor="#63b2eb"] ;
772 -> 773 ;
774 [label="gini = 0.0\nsamples = 10\nvalue = [0, 14]", fillcolor="#399de5"] ;
773 -> 774 ;
775 [label="gini = 0.0\nsamples = 2\nvalue = [3, 0]", fillcolor="#e58139"] ;
773 -> 775 ;
776 [label="gini = 0.0\nsamples = 1\nvalue = [2, 0]", fillcolor="#e58139"] ;
772 -> 776 ;
777 [label="income <= -0.62\ngini = 0.13\nsamples = 9\nvalue = [1, 13]", fillcolor="#48a5e7"] ;
771 -> 777 ;
778 [label="gini = 0.0\nsamples = 6\nvalue = [0, 10]", fillcolor="#399de5"] ;
777 -> 778 ;
779 [label="income <= -0.55\ngini = 0.38\nsamples = 3\nvalue = [1, 3]", fillcolor="#7bbeee"] ;
777 -> 779 ;
780 [label="gini = 0.0\nsamples = 1\nvalue = [1, 0]", fillcolor="#e58139"] ;
779 -> 780 ;
781 [label="gini = 0.0\nsamples = 2\nvalue = [0, 3]", fillcolor="#399de5"] ;
779 -> 781 ;
782 [label="gini = 0.0\nsamples = 1\nvalue = [1, 0]", fillcolor="#e58139"] ;
770 -> 782 ;
783 [label="gini = 0.0\nsamples = 13\nvalue = [0, 23]", fillcolor="#399de5"] ;
769 -> 783 ;
784 [label="age <= 0.98\ngini = 0.38\nsamples = 15\nvalue = [6, 18]", fillcolor="#7bbeee"] ;
768 -> 784 ;
785 [label="income <= -0.41\ngini = 0.49\nsamples = 5\nvalue = [5, 4]", fillcolor="#fae6d7"] ;
784 -> 785 ;
786 [label="memb_leng <= -0.67\ngini = 0.49\nsamples = 4\nvalue = [3, 4]", fillcolor="#cee6f8"] ;
785 -> 786 ;
787 [label="gini = 0.0\nsamples = 1\nvalue = [0, 3]", fillcolor="#399de5"] ;
786 -> 787 ;
788 [label="income <= -0.66\ngini = 0.38\nsamples = 3\nvalue = [3, 1]", fillcolor="#eeab7b"] ;
786 -> 788 ;
789 [label="income <= -0.87\ngini = 0.5\nsamples = 2\nvalue = [1, 1]", fillcolor="#ffffff"] ;
788 -> 789 ;
790 [label="gini = 0.0\nsamples = 1\nvalue = [1, 0]", fillcolor="#e58139"] ;
789 -> 790 ;
791 [label="gini = 0.0\nsamples = 1\nvalue = [0, 1]", fillcolor="#399de5"] ;
789 -> 791 ;
792 [label="gini = 0.0\nsamples = 1\nvalue = [2, 0]", fillcolor="#e58139"] ;
788 -> 792 ;
793 [label="gini = 0.0\nsamples = 1\nvalue = [2, 0]", fillcolor="#e58139"] ;
785 -> 793 ;
794 [label="memb_leng <= -0.34\ngini = 0.12\nsamples = 10\nvalue = [1, 14]", fillcolor="#47a4e7"] ;
784 -> 794 ;
795 [label="gini = 0.0\nsamples = 6\nvalue = [0, 11]", fillcolor="#399de5"] ;
794 -> 795 ;
796 [label="income <= -0.83\ngini = 0.38\nsamples = 4\nvalue = [1, 3]", fillcolor="#7bbeee"] ;
794 -> 796 ;
797 [label="gini = 0.0\nsamples = 3\nvalue = [0, 3]", fillcolor="#399de5"] ;
796 -> 797 ;
798 [label="gini = 0.0\nsamples = 1\nvalue = [1, 0]", fillcolor="#e58139"] ;
796 -> 798 ;
799 [label="income <= -0.41\ngini = 0.24\nsamples = 60\nvalue = [14, 87]", fillcolor="#59ade9"] ;
765 -> 799 ;
800 [label="memb_leng <= -0.48\ngini = 0.17\nsamples = 57\nvalue = [9, 84]", fillcolor="#4ea8e8"] ;
799 -> 800 ;
801 [label="income <= -0.64\ngini = 0.31\nsamples = 22\nvalue = [7, 30]", fillcolor="#67b4eb"] ;
800 -> 801 ;
802 [label="age <= 1.01\ngini = 0.21\nsamples = 17\nvalue = [3, 22]", fillcolor="#54aae9"] ;
801 -> 802 ;
803 [label="memb_leng <= -1.05\ngini = 0.09\nsamples = 14\nvalue = [1, 20]", fillcolor="#43a2e6"] ;
802 -> 803 ;
804 [label="income <= -1.29\ngini = 0.24\nsamples = 4\nvalue = [1, 6]", fillcolor="#5aade9"] ;
803 -> 804 ;
805 [label="gini = 0.0\nsamples = 1\nvalue = [1, 0]", fillcolor="#e58139"] ;
804 -> 805 ;
806 [label="gini = 0.0\nsamples = 3\nvalue = [0, 6]", fillcolor="#399de5"] ;
804 -> 806 ;
807 [label="gini = 0.0\nsamples = 10\nvalue = [0, 14]", fillcolor="#399de5"] ;
803 -> 807 ;
808 [label="income <= -1.15\ngini = 0.5\nsamples = 3\nvalue = [2, 2]", fillcolor="#ffffff"] ;
802 -> 808 ;
809 [label="gini = 0.0\nsamples = 1\nvalue = [0, 1]", fillcolor="#399de5"] ;
808 -> 809 ;
810 [label="income <= -0.9\ngini = 0.44\nsamples = 2\nvalue = [2, 1]", fillcolor="#f2c09c"] ;
808 -> 810 ;
811 [label="gini = 0.0\nsamples = 1\nvalue = [2, 0]", fillcolor="#e58139"] ;
810 -> 811 ;
812 [label="gini = 0.0\nsamples = 1\nvalue = [0, 1]", fillcolor="#399de5"] ;
810 -> 812 ;
813 [label="age <= -1.0\ngini = 0.44\nsamples = 5\nvalue = [4, 8]", fillcolor="#9ccef2"] ;
801 -> 813 ;
814 [label="gini = 0.0\nsamples = 1\nvalue = [2, 0]", fillcolor="#e58139"] ;
813 -> 814 ;
815 [label="income <= -0.57\ngini = 0.32\nsamples = 4\nvalue = [2, 8]", fillcolor="#6ab6ec"] ;
813 -> 815 ;
816 [label="gini = 0.0\nsamples = 1\nvalue = [2, 0]", fillcolor="#e58139"] ;
815 -> 816 ;
817 [label="gini = 0.0\nsamples = 3\nvalue = [0, 8]", fillcolor="#399de5"] ;
815 -> 817 ;
818 [label="age <= -0.62\ngini = 0.07\nsamples = 35\nvalue = [2, 54]", fillcolor="#40a1e6"] ;
800 -> 818 ;
819 [label="age <= -0.8\ngini = 0.15\nsamples = 16\nvalue = [2, 23]", fillcolor="#4aa6e7"] ;
818 -> 819 ;
820 [label="age <= -1.34\ngini = 0.08\nsamples = 15\nvalue = [1, 23]", fillcolor="#42a1e6"] ;
819 -> 820 ;
821 [label="gini = 0.0\nsamples = 11\nvalue = [0, 19]", fillcolor="#399de5"] ;
820 -> 821 ;
822 [label="memb_leng <= 0.71\ngini = 0.32\nsamples = 4\nvalue = [1, 4]", fillcolor="#6ab6ec"] ;
820 -> 822 ;
823 [label="gini = 0.0\nsamples = 3\nvalue = [0, 4]", fillcolor="#399de5"] ;
822 -> 823 ;
824 [label="gini = 0.0\nsamples = 1\nvalue = [1, 0]", fillcolor="#e58139"] ;
822 -> 824 ;
825 [label="gini = 0.0\nsamples = 1\nvalue = [1, 0]", fillcolor="#e58139"] ;
819 -> 825 ;
826 [label="gini = 0.0\nsamples = 19\nvalue = [0, 31]", fillcolor="#399de5"] ;
818 -> 826 ;
827 [label="memb_leng <= 0.25\ngini = 0.47\nsamples = 3\nvalue = [5, 3]", fillcolor="#f5cdb0"] ;
799 -> 827 ;
828 [label="gini = 0.0\nsamples = 2\nvalue = [0, 3]", fillcolor="#399de5"] ;
827 -> 828 ;
829 [label="gini = 0.0\nsamples = 1\nvalue = [5, 0]", fillcolor="#e58139"] ;
827 -> 829 ;
830 [label="time <= 0.79\ngini = 0.09\nsamples = 71\nvalue = [6, 115]", fillcolor="#43a2e6"] ;
764 -> 830 ;
831 [label="age <= -1.46\ngini = 0.05\nsamples = 39\nvalue = [2, 69]", fillcolor="#3fa0e6"] ;
830 -> 831 ;
832 [label="memb_leng <= 0.22\ngini = 0.38\nsamples = 3\nvalue = [1, 3]", fillcolor="#7bbeee"] ;
831 -> 832 ;
833 [label="age <= -1.75\ngini = 0.5\nsamples = 2\nvalue = [1, 1]", fillcolor="#ffffff"] ;
832 -> 833 ;
834 [label="gini = 0.0\nsamples = 1\nvalue = [0, 1]", fillcolor="#399de5"] ;
833 -> 834 ;
835 [label="gini = 0.0\nsamples = 1\nvalue = [1, 0]", fillcolor="#e58139"] ;
833 -> 835 ;
836 [label="gini = 0.0\nsamples = 1\nvalue = [0, 2]", fillcolor="#399de5"] ;
832 -> 836 ;
837 [label="income <= -0.04\ngini = 0.03\nsamples = 36\nvalue = [1, 66]", fillcolor="#3c9ee5"] ;
831 -> 837 ;
838 [label="gini = 0.0\nsamples = 27\nvalue = [0, 51]", fillcolor="#399de5"] ;
837 -> 838 ;
839 [label="memb_leng <= -0.48\ngini = 0.12\nsamples = 9\nvalue = [1, 15]", fillcolor="#46a4e7"] ;
837 -> 839 ;
840 [label="gini = 0.0\nsamples = 4\nvalue = [0, 9]", fillcolor="#399de5"] ;
839 -> 840 ;
841 [label="age <= -0.31\ngini = 0.24\nsamples = 5\nvalue = [1, 6]", fillcolor="#5aade9"] ;
839 -> 841 ;
842 [label="gini = 0.0\nsamples = 2\nvalue = [0, 4]", fillcolor="#399de5"] ;
841 -> 842 ;
843 [label="age <= 0.44\ngini = 0.44\nsamples = 3\nvalue = [1, 2]", fillcolor="#9ccef2"] ;
841 -> 843 ;
844 [label="gini = 0.0\nsamples = 1\nvalue = [1, 0]", fillcolor="#e58139"] ;
843 -> 844 ;
845 [label="gini = 0.0\nsamples = 2\nvalue = [0, 2]", fillcolor="#399de5"] ;
843 -> 845 ;
846 [label="income <= 0.01\ngini = 0.15\nsamples = 32\nvalue = [4, 46]", fillcolor="#4aa6e7"] ;
830 -> 846 ;
847 [label="income <= -0.27\ngini = 0.09\nsamples = 27\nvalue = [2, 42]", fillcolor="#42a2e6"] ;
846 -> 847 ;
848 [label="memb_leng <= -0.62\ngini = 0.26\nsamples = 8\nvalue = [2, 11]", fillcolor="#5dafea"] ;
847 -> 848 ;
849 [label="age <= -0.34\ngini = 0.44\nsamples = 2\nvalue = [2, 1]", fillcolor="#f2c09c"] ;
848 -> 849 ;
850 [label="gini = 0.0\nsamples = 1\nvalue = [0, 1]", fillcolor="#399de5"] ;
849 -> 850 ;
851 [label="gini = 0.0\nsamples = 1\nvalue = [2, 0]", fillcolor="#e58139"] ;
849 -> 851 ;
852 [label="gini = 0.0\nsamples = 6\nvalue = [0, 10]", fillcolor="#399de5"] ;
848 -> 852 ;
853 [label="gini = 0.0\nsamples = 19\nvalue = [0, 31]", fillcolor="#399de5"] ;
847 -> 853 ;
854 [label="memb_leng <= 0.68\ngini = 0.44\nsamples = 5\nvalue = [2, 4]", fillcolor="#9ccef2"] ;
846 -> 854 ;
855 [label="memb_leng <= 0.09\ngini = 0.44\nsamples = 2\nvalue = [2, 1]", fillcolor="#f2c09c"] ;
854 -> 855 ;
856 [label="gini = 0.0\nsamples = 1\nvalue = [0, 1]", fillcolor="#399de5"] ;
855 -> 856 ;
857 [label="gini = 0.0\nsamples = 1\nvalue = [2, 0]", fillcolor="#e58139"] ;
855 -> 857 ;
858 [label="gini = 0.0\nsamples = 3\nvalue = [0, 3]", fillcolor="#399de5"] ;
854 -> 858 ;
859 [label="income <= -0.66\ngini = 0.48\nsamples = 6\nvalue = [4, 6]", fillcolor="#bddef6"] ;
763 -> 859 ;
860 [label="gini = 0.0\nsamples = 1\nvalue = [0, 3]", fillcolor="#399de5"] ;
859 -> 860 ;
861 [label="income <= -0.34\ngini = 0.49\nsamples = 5\nvalue = [4, 3]", fillcolor="#f8e0ce"] ;
859 -> 861 ;
862 [label="gini = 0.0\nsamples = 1\nvalue = [2, 0]", fillcolor="#e58139"] ;
861 -> 862 ;
863 [label="time <= 0.79\ngini = 0.48\nsamples = 4\nvalue = [2, 3]", fillcolor="#bddef6"] ;
861 -> 863 ;
864 [label="gini = 0.0\nsamples = 1\nvalue = [2, 0]", fillcolor="#e58139"] ;
863 -> 864 ;
865 [label="gini = 0.0\nsamples = 3\nvalue = [0, 3]", fillcolor="#399de5"] ;
863 -> 865 ;
866 [label="memb_leng <= 0.58\ngini = 0.12\nsamples = 95\nvalue = [9, 132]", fillcolor="#46a4e7"] ;
650 -> 866 ;
867 [label="age <= -1.75\ngini = 0.15\nsamples = 75\nvalue = [9, 99]", fillcolor="#4ba6e7"] ;
866 -> 867 ;
868 [label="age <= -2.0\ngini = 0.49\nsamples = 7\nvalue = [4, 5]", fillcolor="#d7ebfa"] ;
867 -> 868 ;
869 [label="gini = 0.0\nsamples = 1\nvalue = [0, 1]", fillcolor="#399de5"] ;
868 -> 869 ;
870 [label="income <= -0.29\ngini = 0.5\nsamples = 6\nvalue = [4, 4]", fillcolor="#ffffff"] ;
868 -> 870 ;
871 [label="memb_leng <= -0.61\ngini = 0.32\nsamples = 4\nvalue = [4, 1]", fillcolor="#eca06a"] ;
870 -> 871 ;
872 [label="gini = 0.0\nsamples = 2\nvalue = [3, 0]", fillcolor="#e58139"] ;
871 -> 872 ;
873 [label="income <= -1.4\ngini = 0.5\nsamples = 2\nvalue = [1, 1]", fillcolor="#ffffff"] ;
871 -> 873 ;
874 [label="gini = 0.0\nsamples = 1\nvalue = [1, 0]", fillcolor="#e58139"] ;
873 -> 874 ;
875 [label="gini = 0.0\nsamples = 1\nvalue = [0, 1]", fillcolor="#399de5"] ;
873 -> 875 ;
876 [label="gini = 0.0\nsamples = 2\nvalue = [0, 3]", fillcolor="#399de5"] ;
870 -> 876 ;
877 [label="age <= 0.61\ngini = 0.1\nsamples = 68\nvalue = [5, 94]", fillcolor="#44a2e6"] ;
867 -> 877 ;
878 [label="income <= -0.8\ngini = 0.07\nsamples = 55\nvalue = [3, 78]", fillcolor="#41a1e6"] ;
877 -> 878 ;
879 [label="gini = 0.0\nsamples = 21\nvalue = [0, 29]", fillcolor="#399de5"] ;
878 -> 879 ;
880 [label="age <= 0.01\ngini = 0.11\nsamples = 34\nvalue = [3, 49]", fillcolor="#45a3e7"] ;
878 -> 880 ;
881 [label="age <= -0.05\ngini = 0.16\nsamples = 25\nvalue = [3, 32]", fillcolor="#4ca6e7"] ;
880 -> 881 ;
882 [label="income <= -0.73\ngini = 0.11\nsamples = 24\nvalue = [2, 32]", fillcolor="#45a3e7"] ;
881 -> 882 ;
883 [label="memb_leng <= -0.47\ngini = 0.38\nsamples = 3\nvalue = [1, 3]", fillcolor="#7bbeee"] ;
882 -> 883 ;
884 [label="gini = 0.0\nsamples = 1\nvalue = [0, 2]", fillcolor="#399de5"] ;
883 -> 884 ;
885 [label="age <= -0.39\ngini = 0.5\nsamples = 2\nvalue = [1, 1]", fillcolor="#ffffff"] ;
883 -> 885 ;
886 [label="gini = 0.0\nsamples = 1\nvalue = [1, 0]", fillcolor="#e58139"] ;
885 -> 886 ;
887 [label="gini = 0.0\nsamples = 1\nvalue = [0, 1]", fillcolor="#399de5"] ;
885 -> 887 ;
888 [label="age <= -0.94\ngini = 0.06\nsamples = 21\nvalue = [1, 29]", fillcolor="#40a0e6"] ;
882 -> 888 ;
889 [label="income <= -0.36\ngini = 0.14\nsamples = 10\nvalue = [1, 12]", fillcolor="#49a5e7"] ;
888 -> 889 ;
890 [label="memb_leng <= -0.59\ngini = 0.38\nsamples = 4\nvalue = [1, 3]", fillcolor="#7bbeee"] ;
889 -> 890 ;
891 [label="gini = 0.0\nsamples = 3\nvalue = [0, 3]", fillcolor="#399de5"] ;
890 -> 891 ;
892 [label="gini = 0.0\nsamples = 1\nvalue = [1, 0]", fillcolor="#e58139"] ;
890 -> 892 ;
893 [label="gini = 0.0\nsamples = 6\nvalue = [0, 9]", fillcolor="#399de5"] ;
889 -> 893 ;
894 [label="gini = 0.0\nsamples = 11\nvalue = [0, 17]", fillcolor="#399de5"] ;
888 -> 894 ;
895 [label="gini = 0.0\nsamples = 1\nvalue = [1, 0]", fillcolor="#e58139"] ;
881 -> 895 ;
896 [label="gini = 0.0\nsamples = 9\nvalue = [0, 17]", fillcolor="#399de5"] ;
880 -> 896 ;
897 [label="age <= 0.78\ngini = 0.2\nsamples = 13\nvalue = [2, 16]", fillcolor="#52a9e8"] ;
877 -> 897 ;
898 [label="memb_leng <= -0.41\ngini = 0.5\nsamples = 3\nvalue = [2, 2]", fillcolor="#ffffff"] ;
897 -> 898 ;
899 [label="gini = 0.0\nsamples = 2\nvalue = [0, 2]", fillcolor="#399de5"] ;
898 -> 899 ;
900 [label="gini = 0.0\nsamples = 1\nvalue = [2, 0]", fillcolor="#e58139"] ;
898 -> 900 ;
901 [label="gini = 0.0\nsamples = 10\nvalue = [0, 14]", fillcolor="#399de5"] ;
897 -> 901 ;
902 [label="gini = 0.0\nsamples = 20\nvalue = [0, 33]", fillcolor="#399de5"] ;
866 -> 902 ;
903 [label="age <= -0.39\ngini = 0.34\nsamples = 57\nvalue = [19, 68]", fillcolor="#70b8ec"] ;
649 -> 903 ;
904 [label="memb_leng <= -1.05\ngini = 0.25\nsamples = 22\nvalue = [5, 29]", fillcolor="#5baee9"] ;
903 -> 904 ;
905 [label="gini = 0.0\nsamples = 2\nvalue = [2, 0]", fillcolor="#e58139"] ;
904 -> 905 ;
906 [label="income <= 0.14\ngini = 0.17\nsamples = 20\nvalue = [3, 29]", fillcolor="#4da7e8"] ;
904 -> 906 ;
907 [label="memb_leng <= -0.13\ngini = 0.34\nsamples = 9\nvalue = [3, 11]", fillcolor="#6fb8ec"] ;
906 -> 907 ;
908 [label="gini = 0.0\nsamples = 4\nvalue = [0, 6]", fillcolor="#399de5"] ;
907 -> 908 ;
909 [label="memb_leng <= 0.04\ngini = 0.47\nsamples = 5\nvalue = [3, 5]", fillcolor="#b0d8f5"] ;
907 -> 909 ;
910 [label="gini = 0.0\nsamples = 1\nvalue = [3, 0]", fillcolor="#e58139"] ;
909 -> 910 ;
911 [label="gini = 0.0\nsamples = 4\nvalue = [0, 5]", fillcolor="#399de5"] ;
909 -> 911 ;
912 [label="gini = 0.0\nsamples = 11\nvalue = [0, 18]", fillcolor="#399de5"] ;
906 -> 912 ;
913 [label="age <= -0.34\ngini = 0.39\nsamples = 35\nvalue = [14, 39]", fillcolor="#80c0ee"] ;
903 -> 913 ;
914 [label="gini = 0.0\nsamples = 2\nvalue = [5, 0]", fillcolor="#e58139"] ;
913 -> 914 ;
915 [label="memb_leng <= -0.7\ngini = 0.3\nsamples = 33\nvalue = [9, 39]", fillcolor="#67b4eb"] ;
913 -> 915 ;
916 [label="gini = 0.0\nsamples = 7\nvalue = [0, 10]", fillcolor="#399de5"] ;
915 -> 916 ;
917 [label="memb_leng <= -0.56\ngini = 0.36\nsamples = 26\nvalue = [9, 29]", fillcolor="#76bbed"] ;
915 -> 917 ;
918 [label="income <= 0.14\ngini = 0.48\nsamples = 7\nvalue = [6, 4]", fillcolor="#f6d5bd"] ;
917 -> 918 ;
919 [label="gini = 0.0\nsamples = 1\nvalue = [3, 0]", fillcolor="#e58139"] ;
918 -> 919 ;
920 [label="time <= 0.79\ngini = 0.49\nsamples = 6\nvalue = [3, 4]", fillcolor="#cee6f8"] ;
918 -> 920 ;
921 [label="gini = 0.0\nsamples = 3\nvalue = [0, 4]", fillcolor="#399de5"] ;
920 -> 921 ;
922 [label="gini = 0.0\nsamples = 3\nvalue = [3, 0]", fillcolor="#e58139"] ;
920 -> 922 ;
923 [label="age <= 0.81\ngini = 0.19\nsamples = 19\nvalue = [3, 25]", fillcolor="#51a9e8"] ;
917 -> 923 ;
924 [label="gini = 0.0\nsamples = 14\nvalue = [0, 21]", fillcolor="#399de5"] ;
923 -> 924 ;
925 [label="time <= 0.79\ngini = 0.49\nsamples = 5\nvalue = [3, 4]", fillcolor="#cee6f8"] ;
923 -> 925 ;
926 [label="gini = 0.0\nsamples = 3\nvalue = [0, 4]", fillcolor="#399de5"] ;
925 -> 926 ;
927 [label="gini = 0.0\nsamples = 2\nvalue = [3, 0]", fillcolor="#e58139"] ;
925 -> 927 ;
928 [label="income <= -0.04\ngini = 0.49\nsamples = 5\nvalue = [4, 3]", fillcolor="#f8e0ce"] ;
648 -> 928 ;
929 [label="income <= -0.27\ngini = 0.48\nsamples = 4\nvalue = [2, 3]", fillcolor="#bddef6"] ;
928 -> 929 ;
930 [label="time <= 0.5\ngini = 0.44\nsamples = 3\nvalue = [2, 1]", fillcolor="#f2c09c"] ;
929 -> 930 ;
931 [label="gini = 0.0\nsamples = 1\nvalue = [1, 0]", fillcolor="#e58139"] ;
930 -> 931 ;
932 [label="income <= -0.39\ngini = 0.5\nsamples = 2\nvalue = [1, 1]", fillcolor="#ffffff"] ;
930 -> 932 ;
933 [label="gini = 0.0\nsamples = 1\nvalue = [0, 1]", fillcolor="#399de5"] ;
932 -> 933 ;
934 [label="gini = 0.0\nsamples = 1\nvalue = [1, 0]", fillcolor="#e58139"] ;
932 -> 934 ;
935 [label="gini = 0.0\nsamples = 1\nvalue = [0, 2]", fillcolor="#399de5"] ;
929 -> 935 ;
936 [label="gini = 0.0\nsamples = 1\nvalue = [2, 0]", fillcolor="#e58139"] ;
928 -> 936 ;
937 [label="memb_leng <= 1.71\ngini = 0.11\nsamples = 1793\nvalue = [166, 2668]", fillcolor="#45a3e7"] ;
3 -> 937 ;
938 [label="gender_O <= 0.5\ngini = 0.1\nsamples = 1619\nvalue = [132, 2414]", fillcolor="#44a2e6"] ;
937 -> 938 ;
939 [label="memb_leng <= -1.24\ngini = 0.09\nsamples = 1594\nvalue = [124, 2384]", fillcolor="#43a2e6"] ;
938 -> 939 ;
940 [label="gender_F <= 0.5\ngini = 0.41\nsamples = 9\nvalue = [4, 10]", fillcolor="#88c4ef"] ;
939 -> 940 ;
941 [label="age <= -1.11\ngini = 0.43\nsamples = 8\nvalue = [4, 9]", fillcolor="#91c9f1"] ;
940 -> 941 ;
942 [label="gini = 0.0\nsamples = 2\nvalue = [0, 3]", fillcolor="#399de5"] ;
941 -> 942 ;
943 [label="time <= 0.94\ngini = 0.48\nsamples = 6\nvalue = [4, 6]", fillcolor="#bddef6"] ;
941 -> 943 ;
944 [label="time <= 0.79\ngini = 0.44\nsamples = 4\nvalue = [4, 2]", fillcolor="#f2c09c"] ;
943 -> 944 ;
945 [label="gini = 0.0\nsamples = 1\nvalue = [0, 1]", fillcolor="#399de5"] ;
944 -> 945 ;
946 [label="income <= -0.27\ngini = 0.32\nsamples = 3\nvalue = [4, 1]", fillcolor="#eca06a"] ;
944 -> 946 ;
947 [label="gini = 0.0\nsamples = 2\nvalue = [4, 0]", fillcolor="#e58139"] ;
946 -> 947 ;
948 [label="gini = 0.0\nsamples = 1\nvalue = [0, 1]", fillcolor="#399de5"] ;
946 -> 948 ;
949 [label="gini = 0.0\nsamples = 2\nvalue = [0, 4]", fillcolor="#399de5"] ;
943 -> 949 ;
950 [label="gini = 0.0\nsamples = 1\nvalue = [0, 1]", fillcolor="#399de5"] ;
940 -> 950 ;
951 [label="income <= 0.14\ngini = 0.09\nsamples = 1585\nvalue = [120, 2374]", fillcolor="#43a2e6"] ;
939 -> 951 ;
952 [label="time <= 0.94\ngini = 0.1\nsamples = 1507\nvalue = [120, 2258]", fillcolor="#44a2e6"] ;
951 -> 952 ;
953 [label="income <= -0.13\ngini = 0.11\nsamples = 1256\nvalue = [111, 1884]", fillcolor="#45a3e7"] ;
952 -> 953 ;
954 [label="time <= 0.79\ngini = 0.09\nsamples = 1057\nvalue = [83, 1588]", fillcolor="#43a2e6"] ;
953 -> 954 ;
955 [label="age <= 0.01\ngini = 0.08\nsamples = 871\nvalue = [54, 1302]", fillcolor="#41a1e6"] ;
954 -> 955 ;
956 [label="memb_leng <= -0.56\ngini = 0.1\nsamples = 512\nvalue = [41, 755]", fillcolor="#44a2e6"] ;
955 -> 956 ;
957 [label="age <= -0.45\ngini = 0.15\nsamples = 249\nvalue = [33, 357]", fillcolor="#4ba6e7"] ;
956 -> 957 ;
958 [label="income <= -1.2\ngini = 0.09\nsamples = 189\nvalue = [14, 271]", fillcolor="#43a2e6"] ;
957 -> 958 ;
959 [label="memb_leng <= -0.7\ngini = 0.04\nsamples = 65\nvalue = [2, 90]", fillcolor="#3d9fe6"] ;
958 -> 959 ;
960 [label="gini = 0.0\nsamples = 46\nvalue = [0, 69]", fillcolor="#399de5"] ;
959 -> 960 ;
961 [label="memb_leng <= -0.68\ngini = 0.16\nsamples = 19\nvalue = [2, 21]", fillcolor="#4ca6e7"] ;
959 -> 961 ;
962 [label="time <= 0.44\ngini = 0.44\nsamples = 3\nvalue = [2, 4]", fillcolor="#9ccef2"] ;
961 -> 962 ;
963 [label="age <= -1.37\ngini = 0.44\nsamples = 2\nvalue = [2, 1]", fillcolor="#f2c09c"] ;
962 -> 963 ;
964 [label="gini = 0.0\nsamples = 1\nvalue = [2, 0]", fillcolor="#e58139"] ;
963 -> 964 ;
965 [label="gini = 0.0\nsamples = 1\nvalue = [0, 1]", fillcolor="#399de5"] ;
963 -> 965 ;
966 [label="gini = 0.0\nsamples = 1\nvalue = [0, 3]", fillcolor="#399de5"] ;
962 -> 966 ;
967 [label="gini = 0.0\nsamples = 16\nvalue = [0, 17]", fillcolor="#399de5"] ;
961 -> 967 ;
968 [label="income <= -1.15\ngini = 0.12\nsamples = 124\nvalue = [12, 181]", fillcolor="#46a3e7"] ;
958 -> 968 ;
969 [label="age <= -1.11\ngini = 0.49\nsamples = 5\nvalue = [3, 4]", fillcolor="#cee6f8"] ;
968 -> 969 ;
970 [label="gender_F <= 0.5\ngini = 0.48\nsamples = 3\nvalue = [3, 2]", fillcolor="#f6d5bd"] ;
969 -> 970 ;
971 [label="gini = 0.0\nsamples = 1\nvalue = [0, 2]", fillcolor="#399de5"] ;
970 -> 971 ;
972 [label="gini = 0.0\nsamples = 2\nvalue = [3, 0]", fillcolor="#e58139"] ;
970 -> 972 ;
973 [label="gini = 0.0\nsamples = 2\nvalue = [0, 2]", fillcolor="#399de5"] ;
969 -> 973 ;
974 [label="gender_F <= 0.5\ngini = 0.09\nsamples = 119\nvalue = [9, 177]", fillcolor="#43a2e6"] ;
968 -> 974 ;
975 [label="memb_leng <= -1.03\ngini = 0.11\nsamples = 77\nvalue = [7, 114]", fillcolor="#45a3e7"] ;
974 -> 975 ;
976 [label="memb_leng <= -1.04\ngini = 0.27\nsamples = 22\nvalue = [6, 31]", fillcolor="#5fb0ea"] ;
975 -> 976 ;
977 [label="income <= -1.01\ngini = 0.2\nsamples = 21\nvalue = [4, 31]", fillcolor="#53aae8"] ;
976 -> 977 ;
978 [label="gini = 0.0\nsamples = 1\nvalue = [1, 0]", fillcolor="#e58139"] ;
977 -> 978 ;
979 [label="income <= -0.5\ngini = 0.16\nsamples = 20\nvalue = [3, 31]", fillcolor="#4ca6e8"] ;
977 -> 979 ;
980 [label="gini = 0.0\nsamples = 13\nvalue = [0, 22]", fillcolor="#399de5"] ;
979 -> 980 ;
981 [label="income <= -0.41\ngini = 0.38\nsamples = 7\nvalue = [3, 9]", fillcolor="#7bbeee"] ;
979 -> 981 ;
982 [label="gini = 0.0\nsamples = 1\nvalue = [1, 0]", fillcolor="#e58139"] ;
981 -> 982 ;
983 [label="age <= -0.91\ngini = 0.3\nsamples = 6\nvalue = [2, 9]", fillcolor="#65b3eb"] ;
981 -> 983 ;
984 [label="gini = 0.0\nsamples = 5\nvalue = [0, 9]", fillcolor="#399de5"] ;
983 -> 984 ;
985 [label="gini = 0.0\nsamples = 1\nvalue = [2, 0]", fillcolor="#e58139"] ;
983 -> 985 ;
986 [label="gini = 0.0\nsamples = 1\nvalue = [2, 0]", fillcolor="#e58139"] ;
976 -> 986 ;
987 [label="time <= 0.44\ngini = 0.02\nsamples = 55\nvalue = [1, 83]", fillcolor="#3b9ee5"] ;
975 -> 987 ;
988 [label="gini = 0.0\nsamples = 29\nvalue = [0, 49]", fillcolor="#399de5"] ;
987 -> 988 ;
989 [label="memb_leng <= -0.63\ngini = 0.06\nsamples = 26\nvalue = [1, 34]", fillcolor="#3fa0e6"] ;
987 -> 989 ;
990 [label="gini = 0.0\nsamples = 21\nvalue = [0, 28]", fillcolor="#399de5"] ;
989 -> 990 ;
991 [label="age <= -1.14\ngini = 0.24\nsamples = 5\nvalue = [1, 6]", fillcolor="#5aade9"] ;
989 -> 991 ;
992 [label="income <= -0.5\ngini = 0.44\nsamples = 3\nvalue = [1, 2]", fillcolor="#9ccef2"] ;
991 -> 992 ;
993 [label="gini = 0.0\nsamples = 1\nvalue = [1, 0]", fillcolor="#e58139"] ;
992 -> 993 ;
994 [label="gini = 0.0\nsamples = 2\nvalue = [0, 2]", fillcolor="#399de5"] ;
992 -> 994 ;
995 [label="gini = 0.0\nsamples = 2\nvalue = [0, 4]", fillcolor="#399de5"] ;
991 -> 995 ;
996 [label="memb_leng <= -1.07\ngini = 0.06\nsamples = 42\nvalue = [2, 63]", fillcolor="#3fa0e6"] ;
974 -> 996 ;
997 [label="gini = 0.0\nsamples = 13\nvalue = [0, 22]", fillcolor="#399de5"] ;
996 -> 997 ;
998 [label="income <= -0.92\ngini = 0.09\nsamples = 29\nvalue = [2, 41]", fillcolor="#43a2e6"] ;
996 -> 998 ;
999 [label="memb_leng <= -0.99\ngini = 0.38\nsamples = 6\nvalue = [2, 6]", fillcolor="#7bbeee"] ;
998 -> 999 ;
1000 [label="gini = 0.0\nsamples = 1\nvalue = [1, 0]", fillcolor="#e58139"] ;
999 -> 1000 ;
1001 [label="memb_leng <= -0.85\ngini = 0.24\nsamples = 5\nvalue = [1, 6]", fillcolor="#5aade9"] ;
999 -> 1001 ;
1002 [label="gini = 0.0\nsamples = 2\nvalue = [0, 4]", fillcolor="#399de5"] ;
1001 -> 1002 ;
1003 [label="memb_leng <= -0.79\ngini = 0.44\nsamples = 3\nvalue = [1, 2]", fillcolor="#9ccef2"] ;
1001 -> 1003 ;
1004 [label="gini = 0.0\nsamples = 1\nvalue = [1, 0]", fillcolor="#e58139"] ;
1003 -> 1004 ;
1005 [label="gini = 0.0\nsamples = 2\nvalue = [0, 2]", fillcolor="#399de5"] ;
1003 -> 1005 ;
